256 200
TTTT -0.5131821 -0.90930969 -0.39140403 -0.10406397 -1.0895715 -0.063780822 0.99550211 0.30994922 0.44944847 0.82032317 -0.69368464 0.79621744 -0.016554287 -0.74345958 0.36053854 0.15445001 0.8155849 1.099661 -0.027850252 0.121222 -1.09343 0.053203128 0.14315279 0.25138989 -0.035297334 0.130274 0.93111074 -1.4692112 1.4973134 -0.87423098 -0.87836671 0.20730582 0.50951129 -0.29748631 -0.29764369 -0.77026927 -0.07143037 0.29320118 0.35135862 -0.699386 0.099824965 1.6735661 -0.20862302 0.42715973 -1.203818 -0.036552452 -0.55959296 0.029869027 -0.29928342 1.3816336 -0.72340381 0.10083197 0.20132287 -0.25761279 -0.74019545 0.32976663 0.28357106 -0.40745133 0.6166451 -1.5292928 -0.9877426 -0.21230611 -0.6614123 0.93337953 -0.74450719 0.16692527 0.18011273 -0.12316041 0.37236777 0.37668324 1.1394557 -1.1187346 0.419595 -0.77857393 0.48528898 -0.86398977 -0.85615444 -0.57566565 0.64922571 -0.11174899 0.56916219 0.82562453 -0.49684006 1.1882285 -0.043374117 -0.25966346 0.089516766 1.1386813 0.51587898 -1.6226063 0.67719007 -0.37575454 0.25900477 -1.4513021 -0.94987452 1.1227201 0.019688781 0.11807332 0.0063650962 0.77011472 -0.28450385 0.40536568 -0.38110587 0.82988507 0.18977706 0.23221019 0.10258607 0.64260989 -0.73131913 -0.3991892 0.081699796 -0.48420447 -0.066447668 -0.11625468 0.16526373 0.99757361 -1.1833344 0.81282395 1.0482118 0.008825927 0.8351779 0.78052878 0.40717673 0.46926749 -0.043127831 -0.26001611 0.32539988 0.061059367 -0.97332114 0.95950603 0.2963368 -0.92258155 -1.3297523 -0.24256702 -0.71440935 0.37427226 -0.20875126 -0.41537955 0.11596268 0.7747525 -0.55368906 -0.6797381 -0.066270985 0.3508116 0.73321843 0.065381691 0.51123208 0.68890297 -0.13438597 0.13752784 0.061013602 -0.4051007 -0.81831205 -0.48703614 -0.6833877 0.015325008 0.34462208 -0.75418061 0.09473078 0.38489279 -0.27965248 -0.49716875 0.72802192 -0.11154713 -0.42843273 -0.53100783 0.038963325 0.62039751 1.3629092 -0.73079938 0.12650084 0.1950763 -0.91897309 -0.15944876 0.62144136 0.30951348 -0.41549405 -0.38391668 -0.044895422 -0.09585461 -0.14929721 0.46283713 0.82585406 -0.074432448 0.53673506 0.54873276 -0.57418603 0.54513705 -0.92422634 1.2579453 -1.7138416 -0.82668638 -0.71858543 0.40773353 0.30141601 0.59270531 -0.88771367 0.54654473 -0.79178125 -1.0643929
AAAA 0.37507489 -0.87522745 0.70237029 -1.0081927 0.34544122 0.52974117 0.18254252 0.37122267 -0.62538975 0.84434307 -0.26591745 -0.052471749 0.46527278 0.35865575 1.1290967 0.33413589 0.1720276 -0.43749258 -0.09443181 0.16518979 -0.54311484 0.54359198 1.0239285 -0.10418427 -0.75360453 -0.12686837 -0.3026484 -0.94161367 0.37707648 -0.1727645 0.017186303 0.29677668 0.36023828 -0.3756288 0.43997562 -0.21407044 0.2333305 0.083328985 0.3624686 -0.80114144 0.50223094 0.16090882 0.30127957 0.37870833 0.062496737 0.48726568 -0.29043415 0.43652371 -0.33770627 0.307042 -0.52549642 -0.16352226 0.085218392 -0.09176936 0.20476937 -0.37255025 1.0282993 -0.2883417 1.005271 -0.11499919 -0.91408825 -0.21869384 -0.46394232 0.93666404 -0.51946783 0.28209883 0.63540947 0.58419073 0.98685527 0.41492575 -0.95344698 0.21106978 0.3472802 0.0051353681 0.010636831 -0.89652312 -0.024967287 -0.42112279 0.51212984 -1.4479434 1.3594905 0.88364321 -0.74280733 0.56255889 0.28195184 -0.44031262 0.56279945 0.59475708 0.69794488 -1.7963204 0.2068761 -0.12749182 0.44370946 -0.6674943 -0.4688985 0.47459579 0.52203387 0.22634095 -0.35842502 0.26096269 0.2696017 0.48156837 -0.49770379 -0.12687132 0.60658801 -0.18589407 -0.050916679 -0.033560593 -1.3849165 -0.042453993 -0.8353942 -0.26648322 0.070796363 -0.31563711 -0.60590196 0.36638087 -0.50883698 1.2837127 0.52901375 -0.24920169 0.65735638 0.52120179 0.6802631 0.64465481 0.4138155 0.66532999 0.028856535 -0.42972729 0.013218595 0.92664289 -0.067577995 -0.57529742 -1.5094802 -0.65437591 -1.104499 -0.62192994 0.41028732 -0.8947385 0.56397605 -0.70005751 -0.29613537 -0.071884885 0.34601229 -0.73172295 0.99740177 -0.10514206 0.44410461 -0.12913352 -0.32567456 -0.3009651 -0.2521112 -0.41111913 -0.037535995 -0.10981859 -1.1304973 0.26839265 -0.18068786 -0.69622356 -0.77827287 -0.36780226 0.32417262 0.37804908 0.24105239 -0.56189668 -0.92159969 -0.24169356 -0.7472468 -0.059756868 1.1758938 0.048674088 0.44947433 -0.53308535 -0.48390892 -0.32013762 0.053317592 0.78029978 -0.39352989 -0.13311757 -0.01614104 -0.3609387 0.31020361 -0.083379433 0.49124956 0.54060501 0.022530453 -0.4572303 -0.47424293 0.473151 -0.90367317 1.2420419 -1.4095588 -1.0389351 -0.066031449 -0.34049556 -0.37993658 0.064420849 -0.71020502 -0.32884991 0.3059018 -0.44983652
CCTG 0.092721991 0.34501946 0.15962778 0.53256172 -0.19761439 -0.14543481 -0.34344298 0.16622497 0.14320271 -0.49802026 0.035489999 -0.21967654 -0.34286135 0.12154131 -0.25759456 0.06229924 -0.39767054 0.0052086711 0.28167757 0.063560031 0.046026886 -0.030145003 -0.24011183 0.16198623 0.010572402 -0.28748286 -0.17501652 0.40908891 -0.82766324 0.22761236 0.48955196 -0.078712262 -0.23370862 0.49136966 -0.16909896 0.55759609 -0.7499184 -0.35097516 -0.25231302 0.073480189 -0.20831424 -0.54016459 -0.15940712 -0.25002739 0.18507834 -0.47637862 0.25649172 -0.089237176 0.20581509 -0.14509973 0.24765018 0.17824072 -0.27859196 0.18754037 0.16035123 -0.0091344677 -0.51046455 -0.1273779 -0.64928836 0.42963475 0.51348579 0.069175519 0.20526378 -0.61650413 0.015322265 0.026445188 -0.63610131 0.18186937 -0.38880029 -0.16384776 0.42552936 -0.018402888 -0.069818981 -0.048732109 -0.24290845 0.0082890978 -0.13731353 0.0026219701 0.050217614 0.1291946 -0.24970259 -0.36371684 0.080706261 -0.55698538 -0.24654779 0.34586972 -0.30179337 -0.45297155 -0.17574291 0.63492078 -0.42819846 0.090179212 -0.37694383 0.50942057 0.4355492 0.13355008 -0.2057896 -0.44264784 0.41520026 -0.2826362 0.082378082 0.010515248 0.29064709 -0.44360131 -0.019891137 0.0077724094 0.33416077 -0.16021819 0.98039937 0.087309718 0.39566934 0.64773732 -0.051386178 0.21919696 0.63572055 -0.068548024 -0.092186347 -0.85111117 -0.52475321 0.42091104 -0.66418952 0.09808325 0.026785072 -0.043308619 -0.63270372 -0.28157941 0.3631534 -0.064112544 0.29407531 -0.11259553 0.2250969 0.22813836 0.7053858 0.31407389 0.38818988 0.329528 -0.080336154 0.26287335 -0.03872567 -0.10971293 0.19971353 0.1156211 0.49228072 0.13664883 -0.78477776 0.0093044108 -0.35331789 -0.060628515 -0.12560879 0.042598668 -0.4671171 0.28530905 0.38389307 0.38518402 0.91467565 -0.1689193 0.17571022 0.52364361 0.14558049 0.088897049 -0.51990026 0.11663382 -0.69452316 0.16269222 0.58237761 -0.28551346 0.34114465 -0.074277222 -0.97893798 0.31122211 -0.2340001 0.40028283 0.22384861 -0.0054759542 -0.17670433 -0.27657813 0.1267667 -0.045543492 0.19083031 -0.109226 -0.25721946 0.025620846 -0.39135519 0.21332011 -0.36026222 0.098776259 0.51859307 -0.42825797 0.6219964 -0.29903692 0.56759548 0.34622291 0.17112713 -0.045764443 -0.06308841 -0.14286022 0.082438715 0.13164341 -0.11015958 0.5128755
CTGG 0.14262199 0.69795692 -0.080065772 0.39874116 0.23954071 -0.38536483 -0.5571878 -0.1709806 0.29137543 -0.51167077 0.049296629 -0.23366851 -0.39917541 0.059925277 -0.16002148 -0.02984396 -0.35251346 -0.15909515 0.048006289 -0.0038004529 -0.040960431 -0.13162951 -0.32554114 0.13391477 0.052518666 -0.29037482 -0.014503621 0.32444614 -0.65867609 0.3545742 0.29700562 -0.1647183 0.043757901 0.53930044 0.011098914 0.55051541 -0.57792634 -0.067733131 -0.31533921 0.26169243 -0.15463768 -0.40362769 0.0011843647 -0.33177787 0.41384196 -0.58020508 0.26592943 0.11833457 -0.040826321 -0.10711651 0.26638976 0.13448931 0.037150443 -0.097481221 0.43763477 0.18482807 -0.17477965 -0.36512992 -0.2749016 0.2122035 0.38887829 0.23166417 0.17961289 -0.45625833 0.21964961 0.0083491951 -0.34751114 -0.016445652 -0.17666705 -0.45457417 0.24396531 0.022292821 -0.48122701 0.055506058 -0.09224198 -0.17868569 -0.047440339 0.3432143 -0.02893565 0.1150634 -0.41322148 -0.46168041 0.31561908 -0.72724974 -0.13259494 0.54206955 -0.10375404 -0.38353977 -0.33053148 0.29781783 -0.059864007 -0.059188012 -0.15639959 0.45242062 0.27220917 0.22872122 -0.36055925 -0.39389712 0.51459098 -0.22257319 -0.075570233 -0.34674147 0.16539682 -0.4111734 0.1779023 0.18373917 0.0663004 -0.011654833 0.71118629 0.067528903 0.18341748 0.46984541 0.013698172 0.34198251 0.50539255 -0.35762987 0.16210449 -0.89678949 -0.52344936 0.51069063 -0.59656364 0.044439081 -0.22699282 -0.19344135 -0.2228687 0.089497 0.033820044 0.38361612 -0.087187558 -0.23199996 0.035081435 0.44619009 1.0406365 0.57803458 0.77954262 0.13779816 0.009917913 0.45487779 0.22112966 -0.12975928 0.79324144 0.33752075 0.3533116 0.0048989062 -0.48915058 0.09839575 -0.51141459 -0.35076723 -0.067996711 0.23549406 -0.20821489 0.063234717 0.26723325 0.12812404 0.69787103 -0.030032387 0.11782821 0.64330393 -0.0011038466 0.044295222 -0.021518547 0.12402237 -0.53461915 0.41265893 0.7551828 0.028974703 0.44512257 -0.075789884 -0.4979516 0.33019793 -0.21535544 0.17809114 0.41351995 0.21305329 0.1638011 -0.21843417 -0.11237374 0.38866696 -0.09482114 -0.1828455 -0.48075506 -0.33180279 -0.16873461 0.20578997 -0.27922678 0.30899408 0.20432961 -0.49355105 0.61400729 -0.17214042 0.75808179 0.12337475 0.17826042 -0.02423967 0.17016904 -0.055640403 0.30941626 -0.091171131 0.020655237 0.074150927
AGAA 0.198346 0.0228473 -0.062521018 -0.53988802 0.36616424 -0.12877515 0.14562923 -0.21775907 -0.25469297 0.17907688 0.01272024 0.11116283 0.25329328 0.33924708 0.5252341 0.10509109 -0.037060868 -0.63375473 -0.31170699 -0.020041112 0.20887682 0.24085887 0.58045691 -0.21053672 -0.19894728 -0.15165949 -0.032467049 -0.26422632 0.24274927 0.0041415105 0.11503503 -0.23919056 0.36651936 0.27753165 -0.19602773 -0.22293197 0.54334182 0.010242998 -0.30647862 -0.0097560072 -0.036133084 -0.48033494 0.63100767 0.092420861 0.15884574 0.47801659 0.068348452 0.22972682 -0.29906535 0.34608832 -0.070166022 -0.16843532 0.29372483 -0.10387993 0.1182121 -0.56197321 0.76213461 -0.049667671 0.4471252 -0.22357723 -0.44183788 0.24800067 0.097786792 0.73108703 0.16727687 0.039815623 0.68586224 0.21633989 0.63442719 -0.0022261241 -0.95993018 0.24661857 -0.15772639 0.0010273687 -0.013074415 -0.061034616 0.17170495 0.27018887 -0.10164642 -0.72069067 0.22468756 0.029819673 -0.2763423 0.02513249 0.23812504 -0.45520037 0.27655342 -0.034707196 0.58143216 -0.7419883 0.23773088 0.012218982 0.13129827 -0.382671 0.20541976 0.35253873 0.46968618 0.37430394 -0.25564688 -0.25658241 0.52269799 -0.16208534 -0.1231648 -0.095710613 -0.0015670835 0.11139323 -0.08345744 -0.53615135 -0.60547161 0.27977577 -0.34213373 -0.013804013 0.11680038 0.038476922 -0.41012582 -0.32327914 0.26270506 0.30871791 0.50048566 -0.083329596 0.19594638 0.15420608 0.35620266 0.46187696 0.41822249 0.46630755 -0.063267715 -0.4002291 0.34645459 -0.34065822 -0.36298379 0.25542772 -0.083291866 0.10980839 -0.31323737 -0.56908083 0.36326534 0.0045318301 0.26157591 -0.75658202 0.29378706 0.04215109 -0.41110089 -0.60997695 0.26157349 0.097860776 -0.25375026 -0.60641146 -0.23501213 0.086403877 0.25966936 -0.23306623 0.55522418 0.058997441 -0.40522039 -0.0033871476 0.15488635 -0.1234258 -0.13698202 0.14340377 0.44443887 0.20110819 -0.0031586895 -0.187447 -0.43387952 0.21638098 -0.15149146 -0.0052586319 0.26925713 0.14404397 0.26196164 -1.0217419 0.21387385 0.079176061 0.093464419 0.81810278 -0.10978766 0.16287619 -0.42994329 -0.21284042 -0.092076935 -0.6954087 0.17787316 0.10896303 0.28179917 -0.60475302 -0.2425822 0.12939854 -0.14693978 0.28205895 -0.17270918 -0.32511976 -0.14520009 -0.1505198 0.050886083 0.046119589 0.1138429 -0.054328762 0.16711359 -0.12788542
CCAG 0.1398866 0.56162459 -0.11591586 0.42617038 -0.16054456 -0.6876359 -0.28189448 0.0096664326 -0.06596832 -0.15893076 -0.030164752 -0.20071574 -0.26655301 0.39376888 -0.34224764 0.13669676 -0.2317991 -0.13729206 0.099894762 0.20184754 0.33356917 0.048580091 -0.0690194 0.16527757 0.36346659 0.032587666 -0.19971439 0.5988363 -0.83745944 0.35683933 0.64221531 -0.19501308 -0.045224696 0.44372767 -0.25427592 0.42533475 -0.3683117 -0.24492656 -0.25875637 -0.0094238017 -0.50617844 -0.36853814 0.063169234 0.032730959 0.28465873 -0.16215383 0.11153063 -0.15311499 0.15863729 -0.14197873 0.034505315 0.240621 -0.26362872 0.22602074 0.41404414 0.0048566386 -0.46338856 0.075274259 -0.0201218 0.5324648 0.31871548 -0.076198399 0.23952174 -0.42733315 0.37645373 0.24272043 -0.24719189 0.050571997 -0.24980567 -0.37969229 0.15737586 0.072516657 -0.040357232 -0.024529545 -0.38989791 0.094778612 0.055891089 0.2764053 -0.14485106 -0.037011165 -0.10064779 -0.31416345 0.0082821622 -0.60236573 -0.10210354 0.30656397 -0.15670283 -0.093584381 -0.27835235 0.78679138 -0.38309929 -0.18810958 -0.52022713 0.83713889 0.30996662 -0.23147778 -0.11147092 -0.25804833 0.046007548 -0.21418492 -0.244914 -0.24699757 0.18840794 -0.55559653 -0.0044489033 -0.10879871 0.5719828 0.045864217 0.79325867 0.21880768 0.22450796 0.43661061 -0.038738795 0.14397545 0.39505383 -0.12989843 0.1194597 -0.71840274 -0.60871673 0.42757106 -0.34856802 0.0058565727 -0.018623628 -0.20644431 -0.6113556 0.0050456002 0.10155751 0.33834094 0.43393224 -0.053327896 0.1239896 0.47957444 0.65665764 0.12171347 0.16302884 0.061944824 -0.029637948 0.34268439 0.018404661 0.086360209 0.30349016 0.30297822 0.31714299 0.07846424 -0.2588101 0.32882985 -0.23851699 -0.14601174 0.010134917 -0.10963898 -0.2115918 0.27178261 0.27468061 0.2331309 0.91185158 0.060184438 0.14778867 0.6089254 0.091311432 -0.0017243705 -0.25987563 0.042582843 -0.76548135 0.066351518 0.61292309 -0.024694359 0.31703532 0.048393555 -0.94376063 0.14776158 -0.18184559 0.21143739 0.5711453 0.16658616 -0.19409107 -0.12034619 0.33340344 -0.1310574 -0.0093915146 -0.10660335 -0.25457454 -0.35142738 -0.35243896 0.18009284 -0.25346467 -0.073364377 0.47138041 -0.23806834 0.66571432 -0.43293378 0.61118299 0.35394779 -0.091686212 -0.22059156 0.35159954 -0.072839998 0.15902801 0.44096279 -0.14535838 0.3046155
GCTG 0.096049443 0.39506641 0.3727974 0.17522466 0.20800963 0.20658131 -0.44056562 0.2055639 0.22395214 -0.74440527 0.20560293 -0.29078102 -0.045557119 -0.29665777 -0.076188914 -0.21263088 -0.10045408 -0.26458567 -0.026736729 0.16295122 -0.089663833 -0.24805482 -0.55763501 0.056685727 -0.20094739 -0.25038815 -0.12414495 0.0058159214 -0.22990002 0.25247347 -0.24350025 -0.082104199 -0.57274836 0.11539575 0.07434839 0.43515685 -0.42232403 -0.13841286 -0.10619745 0.24286744 0.017112477 -0.44931275 -0.46452332 -0.51407927 0.33738989 -0.48521814 0.15178502 -0.044512276 -0.12194092 -0.40485787 0.10870641 -0.11700731 -0.24227157 0.082938768 -0.22103296 -0.13995726 -0.15235952 -0.25328743 -0.63705409 0.47264805 0.48642689 0.029375216 0.21673906 -0.58090895 0.50266236 0.13822323 -0.42109957 0.28133813 -0.30369148 0.26333642 0.064436242 0.18132541 -0.11279496 -0.12559997 0.12628826 0.22339669 -0.62064749 0.17992966 -0.04534686 -0.093818925 -0.23776078 -0.22470012 -0.088793688 -0.57480276 -0.15939504 0.22420035 -0.097552925 -0.50442964 -0.56931764 0.24908522 -0.1789719 0.19061622 0.0067937472 0.43244952 0.20767497 0.040233634 -0.38633919 -0.4487654 0.4394424 -0.66720325 0.014285957 -0.15449871 0.25744265 -0.30881464 0.15068634 -0.1216728 0.14672656 -0.14651434 0.60001689 0.091277055 0.26637501 0.28744504 -0.036445197 0.067695409 0.0990775 -0.17714666 0.59819597 -0.85383946 -0.67257643 0.24689369 -0.4559679 -0.11156014 -0.57594758 0.04459298 -0.1416157 -0.1214191 -0.019080894 0.2858822 0.39918324 -0.16609703 -0.29881632 0.69245094 0.99668622 0.25639707 0.54704213 0.15721367 0.25755826 0.46792412 0.034823354 -0.13494457 0.59018689 0.36302468 0.17350481 0.2571488 -0.67769039 0.032603122 -0.39661074 -0.27889678 -0.22794095 0.13862358 -0.24607152 0.27815619 0.17925911 -0.034446601 0.32823381 0.05157613 -0.26472574 0.58962679 0.20076539 -0.28004447 -0.38203096 -0.39283407 -0.63729531 0.50419766 0.50981778 -0.034780756 0.03949362 -0.047707081 -0.49611413 0.39329979 -0.12970309 0.17314088 0.26714489 0.24973358 0.036430169 -0.21623532 0.3584477 0.10520305 0.044761606 0.0083960928 -0.073840924 -0.023620211 -0.23893338 -0.18323949 -0.16466969 -0.047706176 0.44929335 -0.31671908 0.71015799 -0.70984292 0.74182338 0.3893885 0.33484188 0.069109365 -0.093854472 -0.35387132 0.64956754 -0.56781548 0.1244008 0.44499162
CAGC -0.036071159 -0.27772993 -0.0926084 0.028022353 0.29449531 -0.026680104 -0.10225704 0.22971757 0.18702577 -0.34933338 0.084917709 -0.28217345 0.061813872 0.45339942 -0.34872198 0.059144195 -0.02747466 -0.23585604 0.092155345 0.064777128 0.41269469 -0.28778759 -0.023391748 -0.17739306 -0.26056162 0.24305241 -0.34137332 0.60037583 -0.34909722 -0.064267032 0.10279784 0.056575716 -0.21369185 0.0065181227 -0.039459664 0.33482683 -0.14613666 -0.2022087 0.047072243 0.3644582 0.0081738941 -0.51388502 -0.39928049 -0.019358482 0.21603845 -0.0001978472 0.023152865 -0.13022204 0.12326447 -0.39512658 -0.10853846 0.25743261 0.31280094 0.34553492 0.16037816 0.034446098 -0.53477812 0.033161134 -0.11059861 0.59816486 0.39211491 0.13946716 0.13658409 -0.37667447 0.08754874 0.031292692 -0.09741202 -0.36096776 -0.40854993 -0.27375865 -0.16226521 0.29885861 -0.17879139 0.099159509 -0.41901335 0.3755407 0.11245733 0.09012305 -0.20878221 0.12711826 -0.2272035 -0.5844925 -0.13866922 -0.25976324 0.067052633 0.18262799 0.034478601 0.16064723 -1.1156064 0.59498352 -0.42354068 -0.025438538 -0.2592577 0.68553811 0.20175911 -0.90733242 -0.18832034 -0.63480461 0.31618795 -0.48230338 -0.079126135 -0.32209685 0.049207624 -0.65840507 -0.20854694 -0.3788738 0.29913247 0.15505725 0.70341092 0.25097325 -0.017038666 0.38757157 -0.24771452 0.046466362 0.1218925 -0.24470626 -0.25779843 -0.7232312 -0.85392642 0.36379519 -0.28699401 0.017879436 -0.34582409 -0.45583585 -0.35948029 0.28915173 -0.060266308 0.016469233 0.12405711 -0.17200439 -0.19375473 0.63131815 0.84845668 -0.12713577 0.65031666 0.02022605 -0.11960308 0.41867453 0.11069955 0.013401777 0.53851044 0.42125064 0.41858634 0.49997628 -0.4867956 0.053054947 -0.47075754 0.090625279 0.23251539 -0.26754186 -0.40189388 0.19946125 0.20531642 0.40544513 0.69220889 0.061550319 -0.56826895 0.61858338 0.13125739 -0.27328852 -0.3701829 0.086723462 -0.70528251 0.55226725 0.84599662 0.14760308 -0.19330636 0.28630495 -0.99427491 0.38923138 -0.24252257 0.44480962 0.79730499 -0.24139525 -0.43692246 -0.53130072 0.63492846 0.12347038 0.14118809 0.34180242 0.16666597 -0.088010378 -0.15169111 0.19763085 -0.39067367 0.00064528693 0.31292224 -0.16341947 0.27261093 -0.14256562 0.64340568 0.56982356 0.23079202 -0.12361943 0.08610402 0.057882585 0.27430606 0.061707325 0.050545305 0.80643719
GGAG -0.0086787343 0.54919094 0.47414288 -0.1451997 0.27455726 -0.16465373 -0.32995558 -0.52502197 0.20736066 -0.60801429 0.11850648 0.075583883 0.049094178 -0.20824979 0.011293825 -0.10939561 0.10833605 -1.0233791 -0.28450817 0.094125055 -0.40494958 -0.063618749 -0.13174336 0.0753925 -0.45330259 -0.10971855 -0.41897786 0.062187705 -0.3475633 0.14228471 -0.10105699 -0.13225731 -0.29368407 0.08709906 0.027381634 0.35623455 -0.19626051 -0.18416983 -0.055068985 0.33028141 0.11080635 -0.84216577 -0.16907114 -0.80741721 0.10885721 -0.49006957 0.25630337 0.087087505 -0.5976485 -0.46556771 -0.16815248 -0.12591584 -0.20404783 0.11194173 0.17201267 -0.38710776 0.74787956 -0.25984788 -0.71416903 -0.034157228 0.21427032 0.070990883 0.46297616 -0.19194555 0.69738078 0.20239004 -0.001309878 0.20354329 0.17817807 0.043522328 -0.38098145 0.13583355 -0.13822933 -0.33644754 0.080197416 0.1335586 -0.58811402 0.25329739 -0.18611658 -0.41082859 -0.15830876 -0.12916592 -0.071492232 -0.7273699 0.32626018 0.16920945 -0.043854177 -0.36419439 -0.023251599 -0.098893061 -0.16328302 0.058280382 -0.13700272 0.48884949 0.17377958 0.48895478 0.24669956 -0.11162534 0.021824434 -0.84825373 0.21874107 -0.4671849 0.50827146 -0.52913553 -0.075496264 0.0026057363 0.50309634 -0.56183684 0.02162673 0.65183169 0.0014675714 0.46134999 -0.33839953 0.39809674 0.054555167 -0.44209859 0.68710226 -1.1062703 -0.23216346 0.41789111 -0.24690583 0.018330282 0.021683557 0.20558056 0.045345869 0.21626405 -0.00018822117 0.40390819 0.4036268 -0.54962289 -0.54556102 0.84730506 0.92580003 0.70654327 0.51160753 -0.25145435 0.31394231 0.82224685 0.17174861 0.1367362 0.47978663 0.30027878 -0.55147767 0.12074321 -0.39855152 0.18398598 -0.46641499 -0.37697536 0.05019128 0.095651828 -0.18278836 0.13647172 0.47989979 -0.11296555 0.1474379 0.041670021 -0.22918092 0.63803488 -0.063902162 -0.23381531 -0.19804233 -0.59956092 -0.79690605 0.63985682 0.54364252 -0.020323791 -0.14168815 0.60647041 -0.61371166 0.59338051 -0.26123801 -0.19582918 0.30276468 0.023242339 0.081192069 0.010722594 0.63706911 0.42805412 -0.14384145 -0.09541896 0.13308711 -0.36515459 0.044340689 -0.50810832 0.14730777 -0.1913693 0.49884495 -0.22540034 0.66320717 -0.96132988 0.9015193 0.12966837 -0.1624013 0.26079166 -0.088108763 -0.23158339 0.79167902 -0.493857 0.13165964 0.2042667
TGGA 0.058581702 0.27340442 -0.45557195 -0.11218816 0.081033073 -0.31270185 0.14560047 -0.26624578 -0.023881802 0.095060378 0.047273196 0.022668893 0.11003456 0.15609017 -0.09273573 -0.011244485 -0.077987812 -0.42180127 -0.048820566 0.12404718 0.18934985 0.040131457 0.38600409 -0.0024674817 0.0064861788 -0.15349938 -0.15757605 -0.064262576 -0.30638856 0.31626448 0.18988262 -0.27882001 0.0029103984 0.25332609 -0.10469919 0.175477 0.027724493 0.098672092 -0.12104619 0.038542602 -0.3387244 -0.33143765 0.14717159 -0.19826373 0.12835838 0.1171098 0.057124142 -0.17444633 -0.31578958 -0.29788476 0.025723703 -0.30891582 -0.20522436 -0.10699932 0.59259224 -0.22853914 -0.10304809 -0.019026557 0.035575446 0.24574523 0.10666123 0.33883855 0.22063652 -0.13035616 0.16535382 0.075198054 0.029315835 0.39158455 0.015722342 -0.17747822 -0.47391412 0.28498781 -0.25572234 0.15615463 0.22801779 0.055372655 -0.046095915 0.19613297 -0.06801416 -0.049089815 -0.27122819 -0.23562728 0.089984708 -0.28510082 0.17843856 0.034335747 -0.17416184 -0.25949845 0.31750408 -0.18811923 -0.053807452 -0.092560641 0.18504323 0.0021828299 0.048710477 -0.022516545 0.26107508 0.070212111 -0.10676731 -0.3014369 0.11409745 -0.092869274 0.12169059 -0.2992622 -0.064814046 0.20475961 0.045058958 -0.30850014 -0.090775162 0.26612619 0.11372608 0.24862953 0.11069868 0.087243482 -0.083488315 -0.32856059 0.28681287 -0.50917619 -0.1303606 0.28480804 -0.046207722 0.011972268 -0.13133794 -0.0044508581 0.2092804 0.095620833 -0.047684781 0.14059442 -0.062429983 -0.15504682 -0.39169973 0.48908278 0.38567275 0.14676042 0.24825194 -0.092892259 0.18282887 0.1951578 0.13345496 -0.27687943 0.22020097 0.16463839 -0.23564591 -0.24823111 -0.058884677 -0.077439941 -0.015173147 -0.37177065 -0.066991046 0.13296892 -0.08059641 0.074785165 0.19914921 -0.041325875 0.10126063 -0.014024279 0.28502902 0.21180312 0.37935495 0.40185037 0.2193359 0.091033556 -0.071248285 0.13639255 0.28337261 0.09155871 0.26989734 -0.087280028 -0.25182545 0.29101866 0.10813279 -0.28250301 0.29294792 0.26891625 0.16181771 0.08645758 0.18502544 0.14790672 -0.23711985 -0.014441711 -0.10582874 -0.54985011 -0.24423952 0.13371919 0.29275501 -0.27524769 0.093157202 -0.1579273 0.28619811 0.010493279 0.46887267 0.010329269 -0.089441031 0.041803211 0.1417021 -0.13391955 0.078216732 -0.23333773 0.11769425 -0.12696429
CTGC 0.081635185 0.12294964 -0.026802132 0.35267872 0.18768032 0.10506428 -0.22470348 0.19737889 0.15808806 -0.62066334 0.24417719 -0.19428113 -0.028031586 -0.19014388 -0.12740234 -0.030322893 -0.37170196 0.20118794 0.19067977 0.046472926 0.19715185 -0.23432666 -0.69369173 -0.068000056 -0.092834823 -0.17464046 -0.13409534 0.44198444 -0.14249837 0.16645981 0.079599231 0.14175597 -0.079961725 0.31191117 -0.02446964 0.33789071 -0.39156339 0.01998518 -0.11016728 0.16266966 0.029567087 -0.11948057 -0.1031785 -0.13851914 0.36193952 -0.15502812 0.19425194 -0.13136949 0.16663076 -0.1320608 -0.085527435 -0.062280711 -0.22896659 0.28112569 0.057896022 0.25951055 -0.3860234 -0.15927035 -0.24695361 0.64270526 0.51676136 0.10176183 0.076097608 -0.43364644 -0.034897048 0.035245776 -0.59511411 0.013604787 -0.40889406 0.0063061006 0.41934273 0.060287353 0.0028924248 0.24139817 0.026490828 0.087953039 -0.31854659 0.14901668 -0.14310819 0.29933676 -0.44246259 -0.33555049 0.08544603 -0.32663041 -0.069610573 0.61404306 -0.25490817 -0.34947056 -0.9079231 0.69254118 -0.053827066 0.073515117 -0.029161649 0.4956775 0.2694115 -0.47349772 -0.54523039 -0.68906903 0.42443818 -0.39338881 0.050962362 -0.047756378 0.032701969 -0.26747334 0.13879958 -0.096811734 0.15603414 0.10787461 0.62438941 -0.10253026 0.0065522911 0.24174275 0.23311213 -0.26139209 0.12169091 -0.11423706 0.078820497 -0.73133618 -0.80545568 -0.028263137 -0.40563312 0.083063737 -0.4527759 -0.18344225 -0.66324109 -0.10474973 0.29341611 0.21530162 0.18744504 0.13934033 0.16539752 0.40562257 0.58702564 0.4020474 0.52840471 0.33171651 -0.14494741 0.17303491 -0.11304822 -0.002260675 0.24387436 0.35457808 0.55609608 0.64013612 -0.85418618 0.087429538 -0.15525872 -0.040175736 -0.18462417 -0.14988109 -0.47817501 0.31812358 0.046614069 0.36711648 0.53173387 0.074810736 -0.33109739 0.65675277 0.29280293 -0.24947388 -0.54224515 0.22548985 -0.34852505 0.38493896 0.86261922 -0.15667722 0.15476502 0.1449744 -0.32179353 0.22854747 -0.23171331 0.53816622 0.52863336 0.34217992 -0.049281083 -0.36124939 0.0093556978 -0.053289749 0.24142988 -0.18041909 -0.34372759 -0.057174016 -0.27079546 0.41989827 -0.45592108 0.058580875 0.58300555 -0.30797482 0.61488611 -0.40954062 0.67783278 0.3835735 0.43820006 0.04508299 0.036140312 -0.12788738 0.33960512 -0.072605163 0.0092290305 0.71018279
AAGA 0.11900551 -0.069255903 0.1037768 -0.64824283 0.32243562 -0.21601579 0.26542634 -0.29429504 -0.32601291 0.35396174 -0.080913521 0.014598236 0.28506899 0.49696887 0.35216048 0.013273532 0.16553371 -0.69579113 -0.35633901 0.17381962 0.22872445 0.30234212 0.89762884 -0.18162768 -0.13763818 -0.091137193 -0.028992809 -0.53504336 0.26111561 0.28257066 -0.15795802 -0.3819491 0.085174546 0.010849087 -0.016126411 0.014949621 0.4256902 0.026126741 -0.12590089 -0.16705893 -0.22695354 -0.37794539 0.34404385 0.024158722 0.11311072 0.39651033 0.025651982 0.1485396 -0.48676541 -0.13271615 -0.10605895 -0.30249617 0.23535733 -0.10711951 0.22801787 -0.60059291 0.5144493 -0.025618574 0.5377717 0.11569428 -0.40615252 0.24856068 0.093619727 0.62258935 0.10784123 0.15709989 0.75083375 0.61170357 0.39810151 -0.023684289 -0.88731664 0.19799514 -0.19200763 0.19547796 0.28023177 0.10913159 0.28788745 -0.079029039 -0.075224429 -0.66409403 0.28572977 0.16526689 -0.36956665 0.12938809 0.067258254 -0.35989314 0.26583812 -0.33222952 0.75314224 -1.012267 0.13176648 -0.062619723 0.19504051 -0.19149122 0.063454732 0.24780566 0.44790241 0.36826459 -0.3502923 -0.15733221 0.56832802 -0.031744655 0.0069030854 -0.11102855 0.14416857 0.24035656 0.048038013 -0.48110628 -0.85352963 0.092622794 -0.642636 0.041766871 0.035376854 -0.19333547 -0.51780528 -0.23244672 0.17566518 0.52606153 0.37304822 -0.0067336191 0.38506874 0.14473541 0.2596733 0.53725207 0.38743362 0.5519563 -0.505229 -0.23319788 0.29945108 -0.41856319 -0.51328242 0.3246564 -0.38510182 -0.33971792 -0.37093192 -0.54107392 0.29773885 -0.045631219 0.13890095 -0.73028356 0.43926883 0.022988191 -0.13610797 -0.45698899 0.19994241 -0.082882144 -0.084205136 -0.39332005 -0.30989772 0.082454845 0.32656336 -0.12441126 0.47797522 -0.048937619 -0.31816936 -0.12977499 -0.14398572 -0.30578512 -0.089126185 -0.12344095 0.28252178 0.10081912 -0.0397662 -0.29974866 -0.48749661 0.23006876 -0.26835269 -0.035572827 0.094428606 0.30404401 0.21049052 -0.78686076 0.26707795 -0.15318355 0.31058291 0.83440804 0.059350617 -0.21915527 -0.37552011 -0.078974701 -0.2565226 -0.89605099 0.20738593 0.47464442 0.51770538 -0.65451819 -0.18232934 0.37601373 -0.12798421 0.40702507 -0.31296545 -0.17143415 -0.26353699 -0.092032395 0.097170204 -0.14340514 -0.050618902 -0.43040198 0.26288724 -0.49440357
AGGA 0.13899821 0.32599759 -0.20973314 -0.3507393 0.3123959 -0.32308903 -0.032546613 -0.57270664 0.17034686 -0.18373108 0.10586064 0.10854983 0.095578298 0.37318248 0.0041220537 0.076213978 0.073025651 -0.949651 -0.22513612 0.14723402 0.017011259 0.20821923 0.44778851 -0.21859156 -0.4457761 -0.17197475 -0.35255876 -0.07751438 -0.23914789 0.22150379 0.051867444 -0.49233297 0.18765669 0.37641615 -0.13273282 0.34129328 -0.03419701 -0.23752728 -0.21834759 0.12333354 -0.22426523 -0.90103489 0.064473122 -0.47684193 0.55757147 0.043113075 0.26819745 0.19276604 -0.57927281 -0.09997277 0.064880155 -0.1496546 0.18511567 0.10502309 0.37146524 -0.61360401 0.50411606 -0.33115497 -0.065005146 0.13345747 0.12987147 0.2803708 0.46289197 0.3323622 0.36643422 0.12767807 0.42215595 0.42580524 0.26927435 -0.14808339 -0.72378427 0.20325214 -0.41014054 -0.0089409174 0.15008549 0.076776527 0.037741214 0.19128999 -0.065707244 -0.241119 -0.29104596 -0.44638255 -0.29127818 -0.42469862 0.037541941 0.018606549 0.058670159 -0.67422354 0.34685552 -0.54525846 -0.12505704 -0.17267318 0.068080872 0.078439154 0.39991036 0.41025886 0.4570021 -0.098472565 -0.039031975 -0.67256749 0.21831796 -0.09590771 0.31834522 -0.66890097 -0.070051715 0.31084991 0.14371769 -0.60317886 -0.13890389 0.54121244 -0.27305603 0.3786858 0.064790443 0.040020447 -0.052042242 -0.56185859 0.54367673 -0.44726032 -0.061617177 0.3344343 -0.056069009 0.044628955 0.27491096 0.32692155 0.16995776 0.4415105 -0.49431184 -0.051623177 0.2260557 -0.47894421 -0.66351008 0.85830575 0.47225329 0.14108828 0.20410748 -0.12132789 0.2566382 0.39226609 0.25017962 -0.57323593 0.62937188 0.18260014 -0.4047977 -0.40370587 -0.16577019 -0.062415693 -0.13766944 -0.55905062 -0.17888725 0.047373563 -0.044848952 0.010905693 0.55196661 0.028430197 0.012639636 -0.14813596 -0.089534521 0.22874229 -0.018132757 0.050623905 0.21684794 0.056332652 -0.58748496 0.1317136 0.51113808 0.28177518 0.18922265 0.15504771 -0.500826 0.61133993 0.089163981 -0.50142515 0.64410055 -0.022019679 0.1668652 0.54386449 0.20094648 -0.074052572 -0.48849437 -0.29527393 -0.35710487 -1.0037013 0.31852072 0.23955372 0.34722987 -0.36218479 -0.26708472 -0.17799206 0.28414595 0.36056423 0.5758059 0.095532238 -0.12850919 -0.080345489 -0.20209025 -0.11413165 0.33267757 -0.33112514 0.2332318 -0.086366557
CAGA 0.13364111 0.27322689 -0.20510012 -0.22896869 0.11360298 -0.30128402 0.018544234 -0.013003702 -0.021789774 -0.037428692 0.059677053 -0.13348088 -0.15568267 0.48656383 0.15212592 0.093322612 -0.10194575 -0.41254529 -0.23834108 0.06360589 0.37700197 0.12105036 0.47244763 -0.07897447 0.095493279 -0.034701969 -0.010814597 -0.021381076 -0.22972487 0.13544457 0.14141987 -0.17784658 -0.028192639 0.08195091 -0.097057857 0.098120742 0.039326746 -0.22122343 -0.21537846 0.060878653 -0.29846495 -0.39769897 -0.019123178 0.063918568 0.06626159 0.066500671 0.1346209 0.0080256527 -0.14238255 -0.30162743 0.19081585 -0.11504228 0.11800038 -0.18666239 0.24130516 -0.3146593 -0.23273806 0.011018978 0.30622315 0.22959667 -0.031715706 0.2383742 -0.075724959 0.14772066 0.20981653 0.16868564 0.22372663 0.25881556 0.1086467 -0.25237954 -0.36022258 0.39398667 -0.095149308 0.071579881 -0.1060097 0.10821517 0.12790729 0.13465957 -0.027199157 -0.2296616 0.078954414 -0.068254642 -0.16584373 -0.23525509 -0.011299252 -0.18192194 0.032440435 -0.010739751 0.29600221 -0.13279405 -0.16861244 -0.077890001 -0.12948216 0.083221108 0.1201938 -0.019757075 0.23212852 0.32779983 -0.18352827 -0.077000633 0.28984889 -0.034087468 -0.042665195 -0.10603877 0.047268882 0.10528842 0.088171519 -0.16966552 0.071573339 0.1111458 -0.096834116 0.27634972 -0.046123058 0.33626935 0.061770141 -0.29318807 -0.042791527 -0.12717517 -0.22688386 0.12328973 0.0040560733 -0.018555596 -0.078442603 0.025703244 0.25366685 0.22610818 -0.16137962 -0.031795293 0.28202194 -0.44358519 -0.1629896 0.22884537 0.34805068 0.023410594 0.0082719866 -0.24028799 0.15099709 0.24891317 0.029601077 -0.41243008 0.37861526 0.29064217 -0.18059064 -0.013434457 -0.27840123 -0.080477133 -0.19331738 -0.11187139 0.0051127421 0.050984371 0.23360215 -0.090065055 0.25649795 0.089681558 -0.0064844433 -0.18051852 -0.17035158 0.10424425 0.12991089 0.0063200053 0.16087128 0.039420396 -0.23232165 -0.06347663 -0.074766316 0.22927755 -0.28429481 -0.10874579 -0.42527154 0.049243473 0.042260464 -0.29719302 0.17003347 -0.20070234 -0.039742917 0.15659128 0.27982357 0.0068481667 -0.29272342 0.18319777 -0.35553628 -0.61092883 -0.10185987 0.11697698 0.18661107 -0.34995213 0.15148698 -0.061005712 0.22169507 -0.064519547 0.17263046 0.12740488 -0.27274501 -0.14968866 0.21348895 -0.040748913 0.043671574 -0.041548911 0.25103036 -0.16372734
GCAG 0.073989391 0.26049128 0.2475017 0.088843852 0.22789674 -0.040909234 -0.40410027 -0.015534653 0.13594052 -0.43512967 0.28772593 -0.31253171 -0.21437761 0.22591309 -0.26993215 0.01357202 0.055753931 -0.50898689 -0.22135937 0.14290556 0.043608278 0.0088120643 0.084999055 -0.056183897 -0.02630163 -0.17158976 -0.27151245 0.15446097 -0.30296996 0.13443765 0.0089822831 -0.26917869 -0.43110514 0.10833868 -0.029961031 0.40557569 -0.12759325 -0.26857573 -0.163918 0.32278955 -0.17045617 -0.5092904 -0.30858323 -0.24981207 0.1262565 -0.18124953 0.0037083628 -0.21999097 -0.034113411 -0.25036067 0.030876836 0.092449263 0.19780251 0.023586608 -0.090478487 -0.29699451 -0.12368857 -0.023614727 -0.22945642 0.25657186 0.14139247 0.021259777 0.19745968 -0.051849261 0.4137215 0.13572317 -0.087707229 0.10467292 -0.2229667 0.30896029 -0.2879625 0.32552719 -0.10786246 -0.47339299 -0.14246024 0.094460651 -0.59183812 0.36076188 -0.21595295 -0.41540504 0.0024348183 -0.082691096 -0.52471328 -0.41993138 0.14031447 0.062080681 -0.065668285 -0.082244202 -0.3015255 0.14130114 -0.11543402 -0.055946894 -0.27247024 0.2474627 0.033761594 0.072658502 -0.1574164 -0.25397691 0.10543772 -0.71715105 -0.284756 -0.36902303 0.24855979 -0.26385817 -0.31278577 -0.1917416 0.018324286 -0.15490057 0.32176763 0.56615293 0.42802235 0.46988025 -0.19641194 0.58700627 0.078382097 -0.44042665 0.356148 -0.74860889 -0.66292048 0.40421128 -0.21973793 -0.16693334 -0.20821488 -0.07170298 0.042870905 -0.042626169 -0.1554275 0.27054474 0.48987556 -0.2419225 -0.43307039 0.71870017 1.2073163 0.33965769 0.48850724 -0.10720705 0.25821656 0.7459138 0.049523734 0.099513642 0.50852364 0.14073944 -0.042707164 0.2314616 -0.39141607 0.24539995 -0.5908457 -0.20325409 -0.12079401 0.034105312 -0.031026538 0.0088712461 0.18745835 -0.0035369354 0.30790439 -0.0017294257 -0.15320289 0.26951021 -0.081733748 -0.30729505 -0.2180458 -0.39302826 -0.66705704 0.42416954 0.27526459 0.064906582 -0.16215323 0.2619155 -0.81861353 0.38245624 -0.22833093 0.17928229 0.5583086 0.039448839 -0.16542226 -0.20256658 0.67498225 0.059001226 0.055460893 0.12718032 -0.051861055 -0.052914355 -0.24707693 -0.034984212 -0.24244785 -0.034279127 0.48427692 -0.23323694 0.33077273 -0.58039302 0.43263274 0.42489034 0.048409242 0.070742883 -0.021258699 -0.049077258 0.46759716 -0.24213678 0.2209558 0.4172731
GAAA 0.1238737 -0.3724705 0.29739079 -0.80424809 0.22873008 0.06678395 0.29635021 -0.11850057 -0.4460983 0.37009385 0.042141572 0.15727535 0.34042734 0.14743531 0.69686157 -0.04949151 0.13513488 -0.72867751 -0.60773677 -0.039720051 0.19844255 0.24479593 0.80389553 -0.17567368 -0.24632132 -0.094618179 0.090255678 -0.61387801 0.33177668 -0.029677173 -0.3017987 0.06603884 -0.083480343 -0.29116446 -0.1758465 -0.30613956 0.43040335 0.0091255354 -0.043202911 -0.10627919 0.1440019 -0.13486262 0.11740764 0.15498017 -0.22397093 0.41372067 0.097972684 0.15565589 -0.43346632 -0.22983448 -0.19859523 -0.36884248 -0.091562599 -0.31120133 -0.15512154 -0.45107439 0.58342659 0.050869983 0.40047458 -0.3010498 -0.62778777 -0.11439944 -0.22316891 0.77318984 0.11446591 0.22832087 0.4444727 0.51544929 0.41156024 0.1304456 -0.78095269 0.29300427 0.096670717 0.12124754 0.18542187 -0.17261054 -0.061156332 -0.081232354 -0.032057047 -0.87126696 0.54911095 0.68195456 -0.4350813 0.20855148 0.23048455 -0.70624197 0.28134695 0.0024187767 0.63151741 -0.80797333 0.20655367 0.00064952031 0.14049236 -0.36036044 -0.18016607 0.22088613 0.58994341 0.7834878 -0.48178098 -0.0093741836 0.32005897 -0.022924399 -0.17552888 0.17578593 -0.17242511 -0.0098314481 -0.13715507 -0.29175708 -0.9199062 -0.017210251 -0.41636562 -0.1086496 -0.11424091 -0.048297137 -0.42799497 -0.098085463 0.19151884 0.63312846 0.47345838 -0.41573295 0.69975436 0.24413007 0.24375705 0.4363777 0.48101139 0.33565247 0.062014554 -0.12219258 0.3139272 -0.38770536 -0.25396559 -0.0089311656 -0.4803279 -0.27851626 -0.64420038 -0.55944353 0.45316759 0.016735481 -0.13027044 -0.43866169 0.12465705 0.0078163147 -0.24393119 -0.01842024 0.18275562 0.00080996845 -0.13633043 -0.25948164 -0.29193205 -0.076865442 0.35989276 -0.24997124 0.094970897 -0.19306949 -0.83633947 -0.18076327 -0.22468184 -0.56789106 -0.19254456 -0.19229186 0.04313951 0.050049052 0.34537697 -0.34094042 -0.81792521 -0.0099513354 -0.68138337 0.046235178 0.48671588 -0.19004731 0.26266614 -0.45510152 -0.1239456 -0.11002055 0.079288788 0.59292847 -0.051795933 -0.26002911 -0.14608371 -0.11017641 -0.005271032 -0.35689354 -0.078682035 0.27166191 0.45883581 -0.48622942 -0.12334467 0.59026307 -0.4785777 0.25542781 -0.80524921 -0.57124829 -0.30427447 0.059836935 0.030507408 3.6484141e-06 -0.22765931 -0.22249885 0.047715444 -0.48416442
GAAG -0.013274298 0.0086146342 0.60008383 -0.34669086 0.53425825 -0.184258 -0.22816883 -0.10516338 -0.23293692 -0.28979489 -0.19019489 0.18720531 0.22384948 -0.041903075 0.60199398 -0.20854041 0.1250592 -0.95933044 -0.49370232 0.19300769 0.08722657 -0.074112929 0.39939171 0.008752468 -0.22706167 -0.072706066 -0.026189964 -0.26180169 -0.18324761 0.24155281 -0.27310917 -0.038525715 -0.24791248 -0.16089721 -0.16489211 0.22141658 0.21583487 -0.025105633 -0.3139421 0.20083596 -0.027396975 -0.49542543 0.04102347 -0.27037439 0.02799112 -0.034147255 0.24030849 0.23051032 -0.42366841 -0.46402264 -0.19971803 -0.04769576 -0.12577702 -0.11297358 -0.070523508 -0.59128755 0.50286275 0.067522369 -0.32377738 -0.034783334 -0.21084811 -0.13397424 0.211795 0.29235244 0.61352956 0.3330611 0.50398427 0.52674896 0.11445605 0.0084551359 -0.78503239 0.31204611 -0.10658582 -0.07007423 0.055301979 0.11567248 -0.2552807 0.12053429 -0.2157073 -0.55843484 0.26864544 0.31883094 -0.33929276 -0.2945143 0.39882332 -0.32392427 0.36515546 -0.25820419 0.27881777 -0.28719467 -0.048458368 -0.0082494374 0.10033347 0.14147311 0.10939026 0.31715479 0.46267697 0.73683012 -0.40218008 -0.4326295 0.3143051 -0.45587543 0.17806216 -0.17169663 -0.30609208 -0.043759551 0.12123299 -0.53425545 -0.32687792 0.26945218 -0.25091535 0.32150272 -0.14246535 0.06058716 -0.48149812 -0.53772807 0.61186749 -0.23651086 -0.1031808 0.078607075 0.24839368 0.19502006 0.16901676 0.4680059 0.29207662 0.33482638 -0.13836221 0.16947021 0.39093554 -0.59753704 -0.332178 0.59489614 0.27523553 -0.086053133 -0.1874164 -0.43194452 0.45338941 0.59264451 0.054432735 -0.22420703 0.48686427 0.21904698 -0.30204353 0.022687422 0.14582266 0.09415935 -0.45569265 -0.3672449 -0.16690785 -0.003844951 0.46004096 -0.14341362 0.29075822 -0.16702382 -0.46661076 -0.21498489 -0.058130939 -0.029303795 -0.34041011 -0.15993261 0.088866256 -0.3372936 -0.32696056 0.08495146 -0.17064378 0.15643641 -0.44567353 0.19016591 -0.3264437 0.266083 0.15443225 -0.32318607 0.23557824 0.15465644 0.16472448 0.42150909 0.32784232 -0.15606911 0.064830847 -0.0060876398 -0.10547669 -0.49617231 -0.00065465772 -0.039171744 0.52629429 -0.28771913 0.097462192 0.17045721 0.0044890447 -0.44019589 0.10811538 -0.0058759246 -0.1865501 0.01025203 -0.10557716 -0.36134112 0.23866063 -0.69353598 0.34716728 -0.26429358
ATTT -0.17316371 -0.36647975 -0.092588514 -0.026525127 -0.37358445 0.45087269 0.87562174 -0.16154821 0.087908268 0.78885663 -0.23077588 0.58961093 0.29879406 -0.35296753 0.18303131 0.43826243 0.42847669 0.67039931 0.0040952675 -0.072053805 -0.46083492 -0.21427263 -0.042532071 0.18748415 0.24996129 -0.14220048 0.27130136 -0.77883387 1.0008273 -0.61370951 -0.43872684 0.2889955 0.3803091 -0.31852582 0.05243754 -0.74218392 0.45507276 0.09210448 0.10684297 -0.48302284 -0.04258284 1.0985734 0.40083247 0.47059476 -0.95535928 0.34433803 -0.34137908 0.044306766 -0.25162145 0.56387872 -0.35565472 -0.2227447 0.033897124 -0.44057035 -0.60453987 0.23821768 -0.059639268 -0.13185677 0.36853001 -0.60325038 -0.80812138 -0.2638905 -0.3500514 0.85972428 -0.34277627 -0.11165778 0.37030196 -0.2127535 0.3530964 0.37379694 0.46169531 -0.20848176 0.33087653 -0.28571677 0.18988816 -0.8247245 -0.29673406 -0.34301734 0.3393499 -0.32526198 0.59659648 0.68194032 -0.17966682 0.83050132 -0.058358487 -0.44822767 0.18823959 0.64248431 0.6702984 -0.60327983 0.45376399 0.11429209 0.43171212 -0.78866738 -0.2448023 0.61732137 0.31827775 0.61625808 -0.34177428 0.63982278 0.12226465 0.57511085 -0.38140625 0.56172007 0.25582922 0.10985788 0.011042982 0.1737026 -0.83469927 -0.46460569 -0.30458185 -0.76442158 -0.029046055 -0.096042678 -0.26484829 0.83390588 -0.27086172 1.303413 0.86479157 -0.25499183 0.45512822 0.11427713 0.32980224 0.397715 0.3502304 -0.26326051 0.092807136 -0.23873349 -0.52386218 0.39399707 0.29366049 -1.0438149 -1.145131 -0.34457612 -0.59298831 -0.0088630738 -0.15681492 -0.62179482 -0.13965577 -0.021402027 -0.72936118 -0.43829402 -0.15769781 -0.25072467 0.74825352 -0.068027601 0.36295322 0.13965161 0.031751178 -0.0018112987 0.50423622 -0.34382358 -0.36862981 -0.42767635 -0.8324002 0.070661761 0.5508914 -0.64723361 -0.10163728 0.036062073 0.35920921 -0.24908812 0.89145935 -0.21876821 -0.68960345 -0.28071436 -0.090576693 -0.064419799 1.0592992 -0.41587892 0.35000515 -0.35692477 -0.81661832 0.029154574 -0.074570961 0.15059169 -0.6952585 -0.17830846 -0.10387778 -0.20975254 -0.089000352 -0.017571805 0.64839089 0.26675603 0.58239096 -0.18654899 -0.84357578 0.49359486 -1.1641784 1.3745092 -1.2498235 -0.57491159 -0.44227621 0.16876379 0.10358004 0.20937383 -0.77413219 0.58467227 -0.28238809 -0.61828721
AAAT 0.095723122 -0.41052419 -0.025595766 -0.6860677 -0.13727778 0.15444484 0.58667833 -0.16720603 -0.19943009 0.66195309 -0.080893174 0.6531716 0.2646451 0.14655274 0.55427879 0.25110444 0.37782359 -0.062446259 -0.20341128 -0.4340879 -0.12192881 0.22852261 0.38131788 -0.10065342 -0.10822655 0.083537407 0.24628767 -0.61895138 0.69809425 -0.54205018 -0.30212879 0.21281405 0.18512997 -0.40123048 -0.15306824 -0.58666468 0.55696577 0.10053278 -0.16148379 -0.18836923 -0.035479993 0.5106883 0.38302958 0.61574495 -0.42937294 0.76517576 -0.07679937 0.11282137 -0.31496933 0.28281203 -0.20255184 -0.22322269 0.24976423 -0.40390953 -0.17972378 -0.27568582 0.26570451 -0.15549076 0.6614396 -0.47441429 -0.85461426 -0.065621614 -0.37950942 1.0205084 -0.02344129 0.089350186 0.63779098 -0.030835753 0.50344437 0.12806951 -0.398195 0.10303476 0.12699978 -0.085707016 -0.068432614 -0.65823925 0.14390928 -0.16758215 0.12471713 -0.66080439 0.5495739 0.62656802 -0.31664464 0.77313954 -0.01217066 -0.8004573 0.26355737 0.5166738 0.90072 -1.0020654 0.3112002 -0.17708293 0.36878341 -0.87291598 -0.35259122 0.2690022 0.36045799 0.60106206 -0.50556606 0.43495914 0.062662445 0.30526873 -0.34940532 0.42048171 0.014004217 -0.0053293668 -0.36864787 -0.15332946 -1.0141467 -0.16218233 -0.50587183 -0.5130868 0.030296985 0.13852173 -0.36068743 0.10259817 -0.14038698 1.367775 0.85093522 -0.44781816 0.56527656 -0.0099072307 0.49464908 0.26466173 0.45701808 0.22917689 0.051964466 -0.36009324 -0.019152679 0.13915701 -0.015898077 -0.73543978 -0.80270201 -0.44097197 -0.79682779 -0.43391976 0.24842995 -0.45404348 -0.1480092 -0.39209998 -0.29764473 -0.31946817 -0.27906141 -0.43360502 0.78282291 -0.070534639 0.20817015 -0.012538384 -0.21760824 -0.059267547 0.32241085 -0.35355338 -0.065569602 -0.23097065 -0.76586801 -0.0587244 0.25838253 -0.71693432 -0.29837966 0.014799712 0.34531328 0.14665696 0.8581394 -0.61888641 -0.92263341 -0.082017854 -0.51228756 -0.21196342 0.88402867 -0.35769671 0.44432133 -0.68816346 -0.43443048 -0.2598314 -0.084139153 0.53858781 -0.66872418 -0.12145218 -0.42007676 -0.13787568 0.15767023 -0.065722741 0.50788486 0.070921749 0.35149705 -0.32011741 -0.7718398 0.6758858 -1.0134522 1.2767009 -1.3001909 -0.75898772 -0.50129521 0.020278366 0.1250774 0.30275843 -0.64527714 0.42852896 -0.031387627 -0.81610602
CAGG 0.066841409 0.63103968 -0.54382473 0.17642148 -0.02779619 -0.39768001 -0.40848711 -0.31705433 0.20882225 -0.29973149 0.21958387 -0.22228469 -0.27407444 0.41771665 -0.21703778 0.10723238 -0.037638128 -0.63260353 -0.1065036 0.12787609 -0.041515455 0.29445827 -0.084235527 -0.0095769009 -0.33890489 -0.067149438 -0.27485925 0.098022893 -0.46709245 -0.031514395 0.050198279 -0.19305827 0.0031873635 0.36201406 -0.063375749 0.36053178 -0.50253975 -0.49456939 0.044864908 0.24289374 -0.11702731 -0.5714761 -0.42428619 -0.45965102 0.49029031 -0.50057942 0.18864639 0.035238534 -0.057018697 -0.12919958 0.08227323 0.18395801 -0.16028506 0.12497991 0.4351505 0.022725055 0.072113223 -0.29734054 -0.11284401 0.1349106 0.47694185 -0.018219147 0.35754281 -0.30052853 0.15312895 0.1442391 -0.33148581 0.13796441 -0.077965707 -0.37272725 0.14461474 -0.045523603 -0.30239546 -0.078867577 -0.25037417 0.057232771 -0.028980298 0.11323427 0.14853176 -0.10801371 -0.26454493 -0.3543469 0.058420375 -0.91611576 -0.21685837 0.21624157 -0.20406242 -0.23751612 -0.088499188 0.28928474 -0.4440231 -0.27998212 -0.4335283 0.64344418 0.27089968 0.034357972 0.039233111 -0.59740382 0.17120779 -0.27041072 0.07335896 -0.13639459 0.10895638 -0.69035292 0.31839949 -0.072272651 0.32627898 -0.030950507 0.55561763 0.28040105 0.32924113 0.63812244 -0.16954692 0.42961624 0.3542023 -0.22246899 0.13712977 -0.87654752 -0.38203344 0.63277495 -0.38523206 -0.25389031 -0.040405419 -0.18320441 -0.37476397 0.2819241 0.05768675 0.40968248 0.34357432 -0.23662198 -0.28609484 0.77227128 1.0929685 0.27399129 0.50950754 0.13050596 0.043981954 0.41241157 0.0017282929 -0.074461602 0.40097344 0.13058923 -0.054633237 0.098721504 -0.4010129 0.23310399 -0.014714558 -0.23578312 0.16919574 -0.069649138 -0.34459805 0.017706681 0.38972434 0.22656645 0.61380124 0.0074050222 -0.28177246 0.45463204 -0.0099208346 -0.037703086 -0.091045305 -0.016568201 -0.72173595 0.31099218 0.52423728 0.12410203 0.14395657 0.29223529 -0.78146476 0.36954314 -0.15995994 0.020861596 0.30037338 -0.20285037 -0.088000529 0.0045374236 0.24440014 0.13313013 -0.38256437 -0.31232587 -0.19194476 -0.56713516 0.056160182 0.25967619 0.014107264 0.0078919278 0.25813884 -0.2256991 0.49471748 -0.017937107 0.62866747 0.05385733 -0.08193633 -0.13929856 0.14402223 -0.19872499 0.15622351 0.20408851 0.051163785 0.25756344
AAAG 0.17107359 -0.1967485 0.14419837 -0.50293708 0.149157 -0.15731603 0.20556964 -0.21329241 -0.18749611 0.47895247 -0.15080391 0.15001683 0.25613138 0.38561666 0.48975164 0.25268868 0.020148175 -0.41670713 -0.45235473 -0.021787602 -0.0013526276 0.2170379 0.53569347 -0.23102227 -0.0058855945 -0.060112059 -0.18265218 -0.22933912 0.32393587 0.03776665 -0.03935346 -0.046805203 0.23337133 -0.05502994 -0.062776692 -0.011485608 0.48321024 -0.046797629 0.049946379 -0.20161667 0.030076714 -0.1775713 0.37157133 0.10028542 -0.0079805814 0.35790431 0.015581189 0.05204162 -0.25585571 0.064234503 -0.17134944 -0.12219504 0.059098873 -0.12688614 -0.037604198 -0.18435375 0.59971148 -0.04784558 0.46647575 -0.13240716 -0.53005058 -0.06559395 -0.048371568 0.55553854 -0.070783682 0.16448793 0.575665 0.22661909 0.52281964 0.09163861 -0.64005238 0.16934237 0.13966399 -0.053991754 0.0025663804 -0.19129661 -0.016545765 -0.049885079 -0.052850172 -0.67647547 0.28611276 0.39711756 -0.58616394 0.1140571 0.18860383 -0.33303833 0.19934483 0.1305283 0.63660729 -0.73111314 0.10287055 -0.082869254 0.15230243 -0.16171111 0.034787167 0.25631499 0.46520868 0.45032719 -0.41742676 -0.058114365 0.25201887 -0.0025238397 -0.070981219 0.037528887 -0.0052641123 0.074660286 -0.0072171972 -0.39322355 -0.86166888 0.0092498045 -0.53572488 0.00062239711 0.058325291 -0.071442202 -0.32499442 0.013666408 0.00053348497 0.47983027 0.25508824 -0.086608022 0.45710781 0.28288004 0.54367954 0.45785841 0.15391733 0.41265088 -0.19457375 -0.20380959 0.35219017 -0.034124911 -0.073319137 0.095002815 -0.53023958 -0.3726446 -0.64865971 -0.47664961 0.21793471 -0.20329678 0.091525905 -0.3672238 0.21207182 -0.13109595 -0.076700911 -0.20870006 0.3035984 0.11271221 -0.095512256 -0.34526768 -0.14612633 -0.079869792 0.19224918 -0.25535947 0.2994599 -0.067544192 -0.61993623 0.027756663 0.12060506 -0.46511441 -0.42120507 0.11256884 0.38700339 0.11394194 -0.11359441 -0.27752402 -0.81795126 0.045774154 -0.45890436 0.1318244 0.28777632 0.10158295 0.031029722 -0.57398593 -0.20524338 -0.25844973 0.093964621 0.49028438 -0.18236482 -0.0047087693 -0.24869475 -0.31510448 -0.23199259 -0.34007186 0.70545614 0.37346473 0.37976411 -0.6094963 -0.68742365 0.28331506 -0.50383431 1.0330547 -0.69886553 -0.37427169 -0.19949688 -0.057967559 -0.060668685 0.038600802 -0.29644483 0.12868233 0.19662546 -0.51117331
CCCA 0.14242069 0.3271448 -0.28386834 0.38523006 -0.44057113 -0.56832546 -0.091653146 0.13208675 0.090636842 -0.05947547 0.13288002 -0.07953427 -0.38026437 0.64691633 -0.53624499 0.17698663 -0.50703412 -0.22820324 0.11713131 0.058113463 0.12461993 0.27080959 0.036600977 0.098522753 0.13306457 -0.0080691567 -0.21298833 0.44555089 -0.57542688 0.11314259 0.58012271 -0.09756697 0.082277909 0.35594118 -0.083870724 0.59316558 -0.69500244 -0.54804707 0.084341623 0.06060997 -0.51429576 -0.34283632 -0.4335627 -0.18094018 0.0085911583 -0.12031157 0.19735375 -0.27010217 0.091834307 -0.012485519 0.054733798 -0.038959324 -0.200294 0.31080392 0.38268703 0.0082404017 -0.62380642 -0.19075295 -0.25105935 0.72238994 0.45782629 -0.083077282 0.22046693 -0.52289236 -0.019836156 0.19539784 -0.64275491 0.0092036836 -0.34578899 -0.19140822 0.4332304 -0.27713203 0.25930798 -0.09362898 -0.25935009 0.17160784 0.019267915 0.12933816 -0.080148615 -0.12083994 -0.19963028 -0.30490476 0.073346369 -0.75020152 -0.24553511 0.55070084 -0.61682129 -0.079613343 -0.49660698 0.39542547 -0.53203827 -0.30671936 -0.66086286 0.6047911 0.54335892 -0.1724169 -0.17203584 -0.70724696 0.39470151 -0.11136129 -0.37695444 -0.0048778728 0.51004475 -0.74667603 -0.13856351 0.019892057 0.51909256 0.052295942 0.74278462 0.30473411 0.38386002 0.30575836 -0.3844842 0.19572896 0.97241485 0.070050322 -0.46239498 -0.75165182 -0.5581587 0.44590661 -0.46596047 -0.080015518 0.12667581 -0.1327929 -0.39979702 -0.29135615 0.400123 0.0098249055 0.24117057 -0.25729972 0.26912132 0.37113249 0.48195279 0.47809848 0.061915401 0.28629434 -0.034619205 0.23631653 -0.11799432 0.13872297 0.15267856 0.226606 0.44580507 0.10230022 -0.3223964 0.14162286 -0.091649793 -0.1884253 -0.21263976 0.1014345 -0.44326222 0.64208716 0.52091491 0.41585752 1.0914919 0.029447304 0.17700608 0.55924225 -0.013476565 0.15763846 -0.44588664 0.4318575 -0.47146329 -0.18884222 0.77953589 -0.36581632 0.56514341 -0.25664911 -0.91912872 0.067235857 -0.27217758 0.50982642 -0.018300207 -0.23349434 -0.44092661 0.055454627 0.069835193 -0.14315426 -0.32050413 -0.24043567 -0.067293242 -0.061277479 -0.21885985 0.057717815 -0.16458096 0.35219932 0.096768305 -0.18186241 0.61123729 -0.57892179 0.52488196 0.5097723 0.27953655 0.086607538 -0.15706484 -0.26458517 0.2481014 0.12586141 -0.096649781 0.48541099
GAGG 0.062776364 0.41801867 0.16665514 -0.086857915 0.15751065 -0.30301365 -0.51877677 -0.52290833 0.25184786 -0.51883614 -0.021103127 -0.00028383802 -0.16158691 -0.065996103 0.14736433 -0.33923656 0.036477357 -0.93892193 -0.38735992 0.16981079 -0.0054052249 0.034687452 0.034488432 0.047914129 -0.39502013 -0.19012922 -0.30427706 0.051720474 -0.29699853 0.47041777 -0.39861646 -0.45386326 -0.041037451 0.22616169 0.14520669 0.66105282 -0.33347595 -0.41599527 0.05847428 0.29606828 -0.032458708 -1.0045973 -0.44764468 -0.9821679 0.41530082 -0.52773237 0.42280009 0.038747102 -0.41390118 -0.52469122 0.15179688 -0.1282393 -0.16339108 0.064110428 0.11782787 -0.1928575 0.59449691 -0.31853455 -0.36865962 0.35167637 -0.070601657 0.15399987 0.35051689 -0.078484669 0.67703611 0.4104872 0.1888501 0.47738749 -0.029395854 -0.029925084 -0.60127008 0.17506225 -0.32822344 -0.33778685 0.00023945559 0.24147974 -0.36901149 0.11252536 -0.074986875 -0.43234903 -0.089275815 -0.22689182 -0.17459616 -0.70951271 0.12497319 0.08609128 0.030006938 -0.51611435 0.16440554 -0.24098784 -0.24681889 0.1018232 -0.10866903 0.49266124 0.14379218 0.60684222 0.053848881 -0.19711517 0.083644971 -0.55499369 -0.090632997 -0.35875151 0.40196961 -0.48401254 -0.086800486 0.081220508 -0.029475149 -0.7488215 -0.23407459 0.25703731 -0.07406503 0.56260455 -0.21251544 0.24257931 -0.16190931 -0.40807739 0.9621222 -0.84614438 -0.28668204 0.43415633 -0.25827035 0.027498137 0.015766701 0.27319419 -0.10343801 0.47947031 -0.33804393 0.55839169 0.59401441 -0.61674887 -0.7650587 1.1512688 0.89601511 0.20239127 0.27661872 -0.066581734 0.41394237 0.77686387 0.198283 -0.1859757 1.0205599 0.45049933 -0.23268837 0.047908656 -0.29576015 0.060518567 -0.64687103 -0.69680768 -0.10521531 0.12770136 0.083993651 0.0004327952 0.63225204 -0.12913547 0.12291118 0.051976461 -0.1886021 0.43712184 -0.27202877 -0.27816457 -0.31530324 -0.4714973 -1.3310412 0.370689 0.25019124 0.21096581 -0.21925046 0.2831901 -0.90147913 0.86010647 -0.45805481 -0.20056507 0.49615613 -0.083421521 0.1689589 0.39497912 0.50987309 0.45045444 -0.26666439 -0.23740184 -0.38087645 -0.74651968 0.15206769 -0.052209917 0.35542768 -0.036643386 0.47039774 -0.14149696 0.91451746 -0.66603428 0.97352284 0.21289621 0.078519583 0.10646904 0.11751144 -0.46101364 0.65287304 -0.59349144 0.23920934 -0.044509858
TGAA 0.054532394 0.0077915029 -0.22327712 -0.47447577 0.20956087 -0.20130843 0.46977034 -0.32102558 -0.3812609 0.54865724 0.013112606 0.24425198 0.36220121 0.16662468 0.21171635 0.14605342 0.17343748 -0.17571448 -0.059266653 0.0066701369 0.23587373 -0.017240327 0.38383082 0.095179811 0.028570093 -0.088583872 0.095276125 -0.32966781 0.18323062 0.12070308 -0.004110978 -0.036136735 0.034419745 -0.022822669 -0.23373677 -0.27589023 0.53014857 0.34252405 -0.21885359 -0.1254123 -0.30762196 0.051408842 0.47917548 0.28989527 -0.19949883 0.58890742 -0.023178067 -0.15138489 -0.35158482 -0.2021689 -0.23358674 -0.30473426 -0.04279023 -0.26831192 0.24705918 -0.43202513 0.063383721 0.12534143 0.30330348 0.01982257 -0.22753762 0.30296063 0.023517862 0.30502233 0.058262438 -0.029353416 0.3167012 0.38758162 0.22515285 -0.092900544 -0.47758892 0.33433583 -0.15123224 0.28998584 0.30028543 -0.17464276 0.12724599 -0.12776846 -0.0048358426 -0.2864801 0.041244306 0.3054342 0.10416625 0.26933026 0.23313427 -0.42805314 0.087365545 -0.061149258 0.40306616 -0.71239686 0.29146042 0.012969339 0.44466451 -0.46227217 -0.31600812 0.19700736 0.061224014 0.38781396 -0.25745979 0.022842545 0.31721249 0.2163482 -0.12043961 0.18239138 0.038998079 0.10926856 0.024597121 -0.16355315 -0.60104311 -0.023091253 -0.34304914 -0.20273973 0.16534759 -0.020399528 -0.44872239 -0.13008277 0.11224393 0.29972863 0.43783453 0.037070952 0.33356231 0.15856522 -0.04464902 0.34683198 0.25966012 0.14456324 -0.077653676 -0.13054159 -0.039664075 -0.0073550856 -0.27048734 -0.1366633 -0.28953168 -0.22036882 -0.14928062 -0.32978818 0.18071482 -0.2022246 0.065486707 -0.35255691 -0.014796466 -0.14918067 -0.15548413 -0.36243689 0.25312209 -0.0051846229 0.15776217 -0.030532949 -0.0013571397 0.057527427 0.17094626 -0.14963137 0.0046413629 -0.14700769 -0.20113881 -0.089638732 0.26113325 -0.19686075 0.17810257 0.091240488 0.2676782 -0.018245408 0.6095165 -0.15951021 -0.29850629 0.076154821 -0.0026160791 -0.20839988 0.36640567 0.10324796 0.42901945 -0.52732342 -0.028418845 0.25105226 0.21900988 0.49815413 -0.038476776 -0.065449528 -0.1134631 -0.049480569 0.014634124 -0.36844918 -0.12849423 0.35232648 0.33383238 -0.54161745 -0.084910311 0.28501642 -0.31281224 0.41507813 -0.41957834 -0.41289654 -0.44298613 -0.098580696 0.48279303 -0.049842365 -0.24484052 -0.099669695 0.014444682 -0.45188588
TGTG 0.17299347 0.57031983 -1.1750326 0.21717519 -1.1237257 0.13654798 0.46669939 -0.28473324 0.0099302307 0.37679756 0.10968931 0.65473121 0.2268679 -0.46920016 0.065826036 0.33178622 0.75806195 0.076759048 0.4742327 -0.32616222 -0.74114883 -0.01324403 -0.69154757 0.27292249 -0.71955431 0.21787867 0.19368309 0.23783031 -0.0744709 -0.34847873 -0.63527673 -0.0046277544 0.20055279 -0.035693757 0.084463097 -0.42357361 -0.55892336 0.04187559 0.061354682 -0.6265499 0.59647542 0.07210584 0.047779612 -0.18911235 -0.021665541 0.43174711 0.072518885 -0.345532 -0.17240782 -0.51363039 0.34411523 -0.40261629 -0.39829144 0.039558183 -0.10746029 0.87780303 -0.61372393 -0.27220094 -0.15671986 0.27641603 -0.33884722 0.1061812 -0.046543028 -0.42303959 0.74600649 -0.56787002 -0.18205167 0.19740233 -0.055068344 0.0036665087 0.33283463 0.067660637 0.30281359 0.031658225 0.05095562 0.43898952 -0.50479269 -0.28927097 0.40246356 0.2561743 -0.23806126 -0.34485137 -0.21765365 0.3370997 -0.93117934 -0.43848127 -0.31730971 0.24187371 0.57721913 -0.41853637 -0.14326017 0.17658293 0.25529781 0.21315515 -0.59898102 -0.088425353 -0.25447166 -0.45190141 0.010084249 0.14016075 0.57710946 -0.097503975 -0.15722869 0.12626094 0.40769517 0.097420529 -0.29764304 -0.50540924 0.27798894 -0.56167644 0.10429436 0.26547179 0.36329022 -0.21318376 -0.69326586 -0.30918866 0.59997082 -0.44370434 0.42626855 -0.11131181 -0.18350792 -0.30952021 -0.4953343 -0.024320867 0.016212586 0.038582642 -0.055978663 -0.31359044 0.37832078 -0.014845356 -0.67135769 -0.28369132 0.28075922 0.28647831 0.096543461 0.66139966 0.1425698 -0.2616657 -0.17458069 -0.13466306 -0.62380189 -0.0016087319 -0.39771315 0.47097209 0.13356392 0.012547802 0.44639981 -0.064876206 0.36464158 -0.36582622 -0.64148438 -0.048377734 -0.020640519 -0.22269246 -0.4268083 0.088029042 -0.3066189 0.18250853 0.48523638 -0.23429768 -0.018002646 -0.1198398 0.1249482 0.19107437 0.0018757342 0.34679821 -0.33347839 -0.39015225 -0.038284793 0.181134 -0.19303077 0.44582447 -0.25740069 0.28443563 0.54884177 0.096255057 -0.44241065 -0.23700103 0.050650883 -0.36149064 -0.25545195 0.49351844 0.2925767 0.084404416 -0.21269982 0.041480038 0.43564388 -0.24782185 0.13490038 -0.11657725 0.61799294 -0.28706908 -0.089808039 0.13699202 0.22726656 0.0085565345 -0.28326407 0.081106044 -0.27199754 -0.24132636
TTTG -0.20624195 0.10269281 -0.33178398 0.062773831 -0.55854803 0.18881176 0.69793677 -0.17508852 0.052733403 0.52393574 -0.1395949 0.47123984 0.16093493 -0.36944893 0.17310156 0.10668661 0.30939439 0.34684604 -0.11507598 -0.15085289 -0.47070798 -0.064467788 -0.028552467 0.18984389 0.047300782 -0.093493976 0.29425782 -0.48440138 0.35233542 -0.37227139 -0.36440584 0.16740656 0.24497752 0.061490938 0.049105827 -0.32726872 -0.20021729 0.28633633 -0.11477153 -0.36704618 0.050619196 0.71339977 0.061125703 -0.030907849 -0.60670966 -0.031195546 -0.19339243 0.01548008 -0.37494242 0.34359539 -0.02166985 -0.40634727 -0.1011546 -0.28766429 -0.28380761 0.4827919 -0.10180996 -0.1022067 0.25723645 -0.79832345 -0.6753335 0.014640477 -0.28182968 0.48197904 0.089747719 -0.15010057 -0.096414834 0.2696465 0.13390274 0.18163754 0.47744527 -0.37551424 -0.084447637 -0.083906367 0.35870466 -0.1671996 -0.31495038 -0.20470276 0.24917558 -0.0092191184 0.36439019 0.44770527 0.070042044 0.44066057 -0.1035355 -0.088577799 -0.11036108 0.44292921 0.3474468 -0.4427399 0.23004176 0.19169506 0.078222193 -0.76722282 -0.4265601 0.68522441 0.17875102 0.56556726 -0.3540625 0.43701914 0.15118076 0.14223702 -0.17573825 0.57388866 0.43019953 0.31081757 -0.051492136 0.11785671 -0.47497159 -0.38895908 -0.058379628 -0.12136067 0.13019428 0.10264365 -0.11544511 0.38836098 -0.32617509 0.47698885 0.31324807 0.12912051 0.37069681 -0.015842542 -0.063866757 0.36920562 0.21059699 -0.2446873 0.2628774 -0.2179583 -0.30098733 0.16969816 0.0977709 -0.65328157 -0.57118636 0.063724585 -0.39329398 0.15982203 -0.17646372 -0.32440591 -0.030148096 -0.093484208 -0.46267891 -0.5001334 0.033931073 -0.17161381 0.50532955 0.02885836 0.16494262 0.16848803 -0.25863865 0.14711346 0.1341943 -0.36601454 -0.52252525 -0.34415382 -0.40613261 0.00074267265 0.3605454 -0.35978436 0.08708781 0.14293237 0.010405025 -0.071674131 0.60191041 0.1713617 -0.42356193 -0.175749 0.1511735 0.004475811 0.64710236 -0.47690362 0.078378312 0.047579408 -0.52184343 0.48252967 0.28700671 0.14015406 -0.37949264 -0.10544456 -0.024958115 -0.19867942 -0.16302039 0.21590266 0.28166136 -0.0097733317 0.25451565 0.26521692 -0.39006743 0.28138405 -0.43673494 0.66123343 -0.48444429 -0.2340039 -0.39745033 0.39310741 -0.03323466 0.093719885 -0.49116352 -0.10921016 -0.37007025 -0.66592616
AGAG 0.006296413 0.14682777 -0.26090908 -0.061683055 -0.028814342 -0.70390952 -0.07373485 -0.39621177 0.14628929 0.12008256 -0.22903866 0.25516149 -0.054277543 0.32795465 0.25078014 -0.10812231 0.079397202 -0.76272476 -0.2956222 0.14113878 -0.030142156 0.25610277 0.3716068 -0.038092796 -0.25559127 0.088589586 -0.17980906 -0.027654983 0.021356918 0.17747255 -0.32257178 -0.38186067 0.26557162 0.38632891 -0.26267308 0.26476112 0.32470736 -0.24679942 -0.050431769 0.032104559 -0.18898782 -0.71425194 0.19134359 -0.27704349 -0.0069950386 0.38526776 0.07211522 -0.15982319 -0.40716341 0.19440705 -0.38640735 -0.026332587 0.097339131 0.054201107 0.2803418 -0.13159493 0.58667141 0.020320697 0.16737546 -0.028353127 -0.34327456 0.11841536 0.35721567 0.15722704 0.33547035 0.15379816 0.47193521 0.14897062 0.21393785 0.0086239949 -0.59100723 -0.047012527 -0.2236643 -0.23831254 -0.31365573 0.22814763 0.0020935189 0.19043918 -0.15387392 -0.4238441 -0.21017443 -0.30749404 -0.41040653 -0.41115946 0.24182208 0.10154641 0.23597334 -0.32228583 0.39937237 -0.666426 0.16793945 -0.5309031 -0.27626553 0.22792189 0.065466791 0.25630224 0.14096074 -0.16719449 -0.065330327 -0.22952461 0.1146419 -0.58244741 0.0010997446 -0.14155042 -0.054266144 -0.072952718 0.16843343 -0.61739683 -0.38316804 0.25428155 -0.2239347 0.54635429 -0.037349466 0.12727714 -0.18210062 -0.53591406 0.20920727 -0.49600044 -0.10150012 0.50244796 -0.092712685 0.14939617 0.46115381 0.090592317 -0.11912963 0.57781476 -0.026371907 -0.11976802 0.41814038 -0.39084905 -0.53310364 0.89500546 0.43916655 0.20052102 0.069185548 -0.26288858 0.070622183 0.43764687 0.27811036 0.090225667 0.51578146 -0.018401245 -0.23715129 0.14792779 0.3536455 0.29674301 -0.28957391 -0.48828736 0.042424656 -0.21130936 0.031456593 -0.10679296 0.59510434 0.21118109 0.0067907018 0.033066891 0.28839979 -0.12589864 -0.22991139 0.29016989 0.23984972 -0.014787047 -0.8121714 0.11701856 -0.12277993 0.12394202 -0.0058547216 0.40073717 -0.47188851 0.35450962 -0.020196434 -0.87342483 0.04441775 -0.17950831 0.29995823 0.44126832 0.14537492 0.22881299 -0.28949544 -0.38806993 -0.35285065 -0.46486148 0.79203224 0.18878213 0.11374986 -0.19793196 -0.1085967 0.085762404 0.1163239 0.093660221 0.40935045 -0.0012878706 0.023813291 0.083787963 -0.077177681 -0.19303949 0.14371277 -0.11256 0.16404083 -0.073549606
TCCT -0.062149469 -0.036918305 -0.46201798 0.59633356 -0.27216455 -0.20678973 -0.52717483 0.50938708 0.1189969 -0.16182233 0.096386023 -0.46873724 -0.59489518 0.26497793 -0.19006315 0.043671094 -0.69894731 0.45249942 -0.036494303 0.15770233 0.16593829 -0.055068083 -0.034226257 0.10371718 0.32684842 -0.06065426 0.088117629 0.31865996 -0.30027395 0.30384111 0.6442104 -0.12453297 0.37006003 0.1757973 -0.19217061 0.20446093 -0.56957662 -0.37113968 0.028649148 -0.090096034 -0.21070382 0.11037009 -0.25535855 -0.17739435 -0.062921487 -0.16378157 0.120245 0.24996741 0.43760228 0.027413901 0.016077671 0.13357745 -0.1379572 -0.080179997 -0.21532899 0.15546601 -0.88407356 -0.16944271 -0.4768661 0.17263682 -0.042045251 0.013482072 -0.42521131 -0.15301141 0.082307093 0.23820226 -0.55796701 0.04621413 -0.11354967 -0.18281703 0.87673908 -0.06688159 0.20147868 -0.47275382 0.045749001 -0.11971143 -0.34666505 -0.0043484857 0.35484907 0.56005782 -0.15474282 -0.17316142 0.25536636 -0.39041069 -0.11189975 0.39532116 -0.23034044 0.2902807 -0.31396809 1.1339601 0.096771866 -0.082968503 -0.30132526 0.41817176 0.56355447 0.017563846 -0.042416301 0.15656072 -0.080246411 0.29642689 -0.3823452 0.49916252 0.10911614 -0.022267094 0.21442963 0.39916572 0.13274506 0.32167396 0.32096371 0.17510663 0.24224789 0.020243054 0.056726553 -0.11899915 0.57787001 0.20204888 -0.72315335 -0.18327494 -0.26464698 0.21718386 -0.10414594 0.28484663 0.12290294 0.19649546 -0.44099119 -0.48188695 0.28201413 -0.42213839 -0.45924354 0.035097606 0.69764709 -0.23095717 0.015630037 0.65164769 -0.083016403 0.11916792 -0.14738573 0.081506498 0.082740091 0.095866293 -0.45240897 0.11014763 0.39276963 0.045396317 -0.23826574 0.23115996 -0.070199095 0.24470939 -0.044203836 0.13264237 -0.14554459 -0.14720276 0.17114845 0.52067757 0.59322059 -0.098659329 0.90648586 0.47805426 0.050273653 0.49494073 -0.24840572 0.58549118 0.18776876 -0.15046833 0.67462635 -0.062024347 0.60235524 -0.061208557 -0.25459161 -0.1146312 -0.022346176 0.42555329 0.41524562 0.039677817 -0.10558118 -0.21099418 -0.0078957127 -0.036198881 0.19826214 -0.12749706 -0.18792073 0.40921247 -0.1702576 0.0049825427 -0.07347656 0.4177765 -0.10243591 0.12831557 0.16810435 -0.48341766 0.064114958 0.23727491 0.33429006 0.14318496 -0.062528729 0.026876075 -0.34965238 0.36904329 -0.27642098 0.11014967
CTCC -0.023369959 -0.46116343 -0.39595574 0.94766879 0.27233905 -0.17911449 -0.83175308 0.93629169 0.20990469 -0.53231663 -0.017412495 -0.68439895 -0.16021644 0.29229435 -0.23588456 -0.11099767 -0.8191154 0.17151044 -0.094211385 0.036677506 0.24428412 -0.12328235 -0.48886451 -0.084058672 -0.13695346 0.16775921 -0.18566662 0.60813731 -0.16356523 0.12163807 0.46029177 0.24183211 0.13757527 -0.01093807 -0.24262118 0.29287177 -0.30206162 -0.58654022 0.33899727 0.19561322 0.025569219 0.0046495697 -0.39184371 -0.2228858 0.22576044 -0.11722 0.26224256 0.088179573 0.68067151 -0.15700993 -0.36733541 0.33780849 -0.11336537 0.39916533 -0.061590407 0.37666279 -0.50970966 -0.13474055 -0.19597587 0.48286337 0.34136117 -0.22617449 -0.024292551 -0.60552406 -0.10904126 0.34450814 -0.61704236 -0.273285 -0.42926526 -0.42696172 0.69234222 -0.24580784 0.22542593 0.032110516 -0.4451789 0.47564179 0.032201871 0.054007288 -0.086125098 0.49094528 -0.35691398 -0.18984756 0.294857 -0.56502593 0.081895664 0.66142476 -0.10475639 0.19212259 -1.4163378 1.0842346 -0.0090215579 -0.43056768 -0.48520288 1.1094447 0.71152812 -0.81530726 -0.25582141 -0.62182111 0.13630246 -0.069991469 -0.38566479 0.026351864 0.11918983 -0.39048603 0.038567845 -0.42942855 0.37583339 0.32267907 0.40479681 0.054604031 0.054853667 0.25463271 -0.08574558 -0.32931751 0.37448257 0.1178065 -0.77446693 -0.84054208 -0.94762522 0.33498111 -0.22463691 0.21920349 -0.13926756 -0.20147908 -0.88792312 -0.27427462 0.57917005 -0.11478071 -0.16025916 0.088210098 0.90502089 0.10712726 0.38546813 0.69644135 0.17729959 0.055648211 -0.38276088 0.083007134 -0.11882674 0.3302801 -0.535483 0.13805883 0.64173836 0.43411893 -0.26575744 0.56706244 -0.019438013 0.10689945 0.23111041 -0.37105799 -0.34161451 0.047094829 0.31604365 0.8307687 0.73798978 0.13353035 0.39944696 0.51484686 -0.20047177 0.26747817 -0.49958795 0.52038491 -0.0096302982 0.14620109 0.9876855 -0.2954241 0.45779306 0.47647238 -0.4298315 -0.073846526 -0.097571537 0.63721079 0.57594305 0.14712436 -0.22044496 -0.53403032 -0.084823973 0.079326987 0.2384488 -0.20825125 -0.045201469 0.180044 -0.28232443 0.45079187 -0.38398904 0.19290413 0.071642682 0.15418272 0.25972882 -0.59573984 0.38695651 0.26784241 0.54391438 0.094266653 -0.069116734 -0.12932956 -0.23293744 0.33556309 -0.10830626 0.86678481
CCTC -0.14830756 -0.28211272 -0.23051062 0.59487468 0.039657071 -0.37218916 -0.88139075 0.63328469 0.21651596 -0.58184189 0.091423064 -0.55657387 -0.63574213 0.18171462 -0.22362787 -0.037595656 -0.76451343 0.40142617 0.088771813 0.32528296 0.41671848 -0.2916474 -0.46276364 -0.10132503 0.079943322 0.16351642 0.098328851 0.79370135 -0.48987311 0.39446351 0.63989204 0.11392602 0.21882172 0.20600487 -0.41175708 0.27950126 -0.57729125 -0.18946159 0.019802755 0.22031923 0.2322672 -0.12629488 -0.52181607 -0.0989784 0.23292992 -0.40170568 0.22072461 0.29336089 0.69152534 -0.077544697 -0.13373487 0.5816521 -0.086384125 0.52955127 -0.20370798 0.29176226 -0.4450722 -0.18826546 -0.93764353 0.36522707 0.58883852 -0.41476795 -0.12525152 -0.59062731 -0.16839518 0.28555998 -0.64437217 -0.52256763 -0.34593379 -0.40469038 1.0503851 -0.32093197 0.13346288 -0.084091179 -0.4509379 0.38491401 0.17330922 -0.10186925 0.042566158 0.83501107 -0.30779642 -0.58869028 0.41563246 -0.40639812 -0.23017572 0.57461488 0.12962413 -0.15065098 -0.94411969 1.5422527 0.027217723 -0.070280954 -0.27876991 0.8636831 0.60926688 -0.55839056 -0.19375241 -0.20602949 0.39961138 0.034727938 -0.2832076 0.085004665 -0.044051122 -0.37016958 0.093948446 0.066800892 0.70794964 0.50164789 0.96308744 0.015843868 0.069022685 0.2687394 -0.13529254 -0.089680076 0.64544702 0.00095948321 -0.87711918 -0.84472477 -0.57801521 0.36660182 -0.2621344 0.56394225 0.20282386 -0.22819535 -0.8382411 -0.15764138 0.57847869 -0.24653113 -0.44092634 0.054187462 0.79323834 0.12387186 -0.036960326 0.36371568 0.09602727 0.012027055 -0.33879942 0.14883693 0.20449001 0.083199345 0.26413858 0.4607996 0.76778394 0.3635686 -0.28417295 0.34989214 -0.21703006 0.086642787 -0.090057999 -0.025262654 -0.31353706 0.19420297 0.17835446 0.90088761 0.75678486 -0.064287387 0.39266583 0.47513098 -0.023660364 0.28659678 -0.57732505 0.53264642 -0.31544957 -0.1354492 1.1424628 -0.11771858 0.5085308 0.24982202 -0.46013325 -0.0093124136 -0.19352953 0.55185896 0.61407226 -0.045353226 -0.19898337 -0.35997266 0.012879208 -0.27622223 0.21900445 -0.34922498 -0.5791676 0.12701799 -0.18900518 0.41586065 -0.68181175 0.18697506 0.14594446 0.14206411 0.4468345 -0.73094839 0.34607753 0.2714504 0.55219764 -0.30050826 0.23232405 0.1544224 0.13982086 0.50060856 -0.21524078 0.91150481
TTCT -0.11207431 -0.40483016 -0.065844826 0.25723797 -0.43569243 0.025665797 0.10452445 0.25000021 0.24186569 0.48203868 -0.16374686 0.11939377 -0.17113404 -0.058064453 -0.051698018 0.070199132 -0.15717572 0.78608298 -0.021502504 0.071017541 -0.17665145 -0.15556711 0.020594433 0.19686531 0.38395822 -0.0013876535 0.37920082 -0.24143085 0.42830905 -0.13320173 0.14576213 0.069490433 0.26790667 -0.070552975 -0.22860374 -0.26089746 -0.22147176 -0.11974248 0.19749849 -0.23967171 -0.14897086 0.77063882 -0.18094313 0.096341953 -0.5850907 -0.086612269 -0.065074094 0.024915736 0.081775531 0.34150648 -0.25217789 0.012444327 -0.074229971 -0.30949494 -0.42371574 0.38965508 -0.53393281 -0.077688053 -0.018264476 -0.22871071 -0.47472593 -0.2204807 -0.44771606 0.22100206 -0.17936535 0.16915441 -0.17109665 -0.19405128 0.080640964 0.14347136 0.75918573 -0.29044622 0.39953211 -0.48898208 0.15744527 -0.54723859 -0.40896478 -0.17113139 0.31815735 0.12985134 0.14326288 0.45220864 -0.0051248353 0.26216409 -0.046714846 -0.040359158 -0.00092741981 0.50918764 -0.12314109 0.069431774 0.37080392 -0.13171567 0.060835775 -0.29073635 0.079324506 0.37639248 -0.048293885 0.3884162 -0.20258832 0.57926476 -0.31398687 0.38383189 -0.097042039 0.3261362 0.014137725 0.21333492 0.13315068 0.44198695 -0.25854114 -0.35883784 0.014510832 -0.41314206 -0.0063097375 -0.1348139 0.28158003 0.62707579 -0.51581323 0.38910159 0.12248772 -0.00060606829 0.29154307 0.28085372 0.15924034 0.31996962 -0.24651317 -0.35753074 0.2867291 -0.063506328 -0.65240288 0.25483766 0.58079445 -0.60694206 -0.48336887 0.040469538 -0.39726964 0.14118914 -0.29113558 -0.30116725 -0.063124537 0.42976609 -0.41569623 -0.26255539 0.34819832 0.019859254 0.35404003 0.18741345 0.078377359 0.27089414 0.00092499709 0.14168651 0.11829473 -0.21060465 -0.22887373 0.090936735 0.018756792 -0.079316594 0.6552121 -0.24950638 -0.17636997 0.35965845 0.025643032 0.17995819 0.52097028 -0.31911659 -0.13717426 -0.15696631 0.20055461 -0.077567182 0.4820931 -0.44190082 0.039103288 0.25056502 -0.29741585 -0.060363032 -0.11855123 -0.11309063 -0.27779323 -0.14926849 0.14986184 -0.18231824 -0.15640059 0.26307765 0.12739597 0.096868336 0.24002539 0.28664434 -0.44924214 0.42191863 -0.36002192 0.36213347 -0.69742793 -0.25481236 -0.031308662 0.29192778 0.095539548 0.1230345 -0.63774955 0.55052483 -0.42114016 -0.27101284
CCCC 0.025799608 -0.33287793 -0.27848631 0.58930242 -0.12448608 -0.54405159 -0.75393534 0.55674392 0.040391814 -0.59204584 -0.21113779 -0.092825174 -0.37646624 0.30350646 -0.26557544 0.1647909 -0.58804351 0.11618542 0.42751762 0.16357577 0.20254953 0.24795638 -0.54466027 -0.16493073 -0.13231707 0.30107802 -0.40407735 0.7199381 -0.45039365 0.10435966 0.53685492 -0.0032000397 0.23634252 0.056231935 -0.17919803 0.80693758 -0.56555241 -0.42385429 0.19226737 0.23796433 0.080257758 -0.30109912 -0.34147817 -0.17562035 0.57742512 -0.36155602 0.22891614 0.17224938 0.77274126 -0.011747241 -0.24833468 0.7410444 -0.37769759 0.82522064 0.12381618 0.23285033 -0.35091868 -0.018023791 -0.62710708 0.85507691 0.44252262 -0.35934076 0.46629426 -0.63566083 -0.026649177 0.51892757 -0.76283437 -0.27310842 -0.64478433 -0.17438889 0.61720777 -0.35033369 0.28395215 0.15385795 -0.69187361 0.43055537 0.026747288 0.085540958 -0.18745142 0.50076282 -0.30526835 -0.5229274 0.069543034 -0.7946946 0.050025854 0.85398149 -0.17401932 -0.4128907 -0.6714803 1.5615534 -0.46730608 -0.4215301 -0.53992927 1.0907226 0.54421133 -0.59067136 -0.23363647 -0.95192832 0.4250401 -0.14780867 -0.62162262 -0.33832639 0.28269404 -0.89474821 -0.33204618 -0.4397153 0.4678438 0.31098756 1.1795372 0.47305116 0.52567601 0.66023439 -0.058542419 -0.34319875 0.63116556 -0.21195777 -0.43192104 -1.1291314 -0.72252846 0.30861095 -0.60127336 0.061951481 0.40698043 -0.39935407 -1.1014768 -0.26310825 0.2962099 -0.083763063 0.15914188 0.25671694 0.60808885 0.43532842 0.44336605 0.35006058 0.28355101 0.33284679 -0.20257878 0.52028549 0.031682048 0.47246981 0.057932906 0.45919025 0.75848055 0.57987541 -0.49652371 0.2861881 -0.24600464 -0.19938985 -0.18155433 -0.23216487 -0.86842811 0.45392662 0.39895976 0.8069948 1.2876257 0.21353763 -0.096393593 0.68405336 -0.15453564 0.048780058 -0.75897753 0.47343013 -0.75021946 -0.098423526 1.1642184 -0.42845601 0.51989675 0.37797993 -1.1425973 0.36989602 -0.48620787 0.74583232 0.8916316 -0.044591796 -0.29539293 -0.34972143 0.28492802 -0.33993253 0.26257583 -0.28042865 -0.052075174 0.25660414 -0.33372843 0.40707669 -0.8133859 0.36818406 0.47961661 -0.34758013 0.56650114 -0.6909765 0.74263388 0.55345744 0.65466011 -0.31894925 -0.22807117 -0.13857152 0.28540868 0.1860303 -0.023607139 1.174433
GAGA 0.064173251 0.14154854 0.14052023 -0.5359202 0.061025083 -0.10986161 -0.048074704 -0.23282844 0.061472941 0.027020285 -0.065524079 0.12346485 0.0037962631 0.11958521 0.42271921 -0.211959 0.18730755 -0.71702993 -0.3896423 0.20114331 0.10141731 0.41399512 0.61919028 -0.074479446 -0.46423331 0.088359907 -0.0941936 -0.32835424 0.1763474 -0.013115044 -0.48650852 -0.15234303 -0.019755973 -0.13503672 0.13987643 0.18092233 0.0094393464 -0.25198275 0.1458635 0.066737846 -0.016767014 -0.47518358 -0.24906939 -0.34926775 0.32703152 -0.25171569 0.061695427 0.19980225 -0.29125592 -0.1086469 0.088668756 -0.13424751 -0.031085121 -0.17117888 0.18644477 -0.47256514 0.62883085 -0.065276831 0.17590092 -0.050804865 -0.091144681 0.031512279 -0.002158131 0.4282881 0.2919808 0.26174837 0.42463887 0.5312742 0.23779233 0.030130023 -0.70246202 0.213944 -0.15641172 -0.14199066 0.21850933 -0.021097291 -0.11413484 -0.023860844 0.10042251 -0.49777314 0.31514278 0.027620951 -0.37010676 -0.2557123 0.22966778 -0.18326578 0.070890009 0.059466388 0.49874744 -0.75771576 -0.19224814 -0.15497164 -0.1102697 -0.098721139 -0.08534757 0.40503988 0.26463997 0.061797436 -0.19501373 -0.11928596 0.25275064 -0.12331057 0.20531122 -0.31424081 0.11354582 0.055147152 0.13120298 -0.32279265 -0.11920519 0.38571265 0.075706407 0.3676711 -0.19863546 0.37449586 -0.20136942 -0.52359039 0.32333609 -0.47440532 -0.22473863 0.36107177 -0.0076403893 -0.075546786 -0.12477784 0.13895465 0.36607111 0.60747403 -0.34161142 0.23894253 0.40951076 -0.33149436 -0.61679763 0.56373805 0.37144622 0.053338736 -0.19776306 -0.086707763 0.48438981 0.48713595 0.088526756 -0.12764229 0.58670753 0.32591406 -0.40977654 0.24176656 0.077564918 -0.0096310042 -0.16701473 -0.27101374 -0.047438849 0.040269438 0.097203344 0.0040928405 0.19776125 -0.11196709 -0.28819105 -0.028854856 -0.37323451 0.17276782 -0.031456541 -0.15721807 -0.17398025 -0.35616651 -0.50741309 -0.054202512 -0.13981301 0.24989617 -0.45563781 0.084580757 -0.36269507 0.34342271 -0.31647393 -0.058938697 0.25385088 -0.22625785 0.12300758 0.47289911 0.53769922 -0.04771553 -0.23093279 0.042993091 -0.10607443 -0.60747772 -0.055701986 -0.22507739 0.61980605 0.043108836 0.48663771 -0.029709373 0.38566041 -0.40337959 0.25613299 0.089709155 -0.087618656 -0.08240559 -0.079108283 -0.32417175 0.32973102 -0.71876568 0.30589691 -0.31893602
TCTG -0.055215899 0.26335359 -0.062931329 0.48582944 -0.18934777 -0.17110758 -0.34072471 0.23979254 0.13646188 -0.057112493 -0.014822836 -0.176678 -0.2832458 0.023316093 -0.10594869 0.19868818 -0.27578864 0.17054003 -0.11485516 0.031052062 -0.11819697 -0.16349176 -0.24171929 0.13457383 0.24514295 -0.19713755 0.30015045 0.088254847 -0.25119406 0.11957096 0.38582128 0.035992645 0.058159947 0.44190216 -0.13250849 0.081231527 -0.49501419 -0.11518691 -0.21540782 0.060990181 -0.22469953 0.31982169 -0.12365329 -0.18745433 -0.11729208 -0.16586711 -0.14549738 0.023423081 -0.055552807 0.10876589 0.062234823 0.17820242 -0.091477409 -0.18094946 -0.020753594 0.23238035 -0.41129771 -0.1623008 0.0027092504 -0.0089974441 -0.086528525 0.017223673 -0.078277834 -0.030064415 0.15887454 0.057336938 -0.30586737 0.32285002 -0.13741635 -0.027145263 0.45512217 -0.047850613 0.015541113 -0.16584618 0.037154384 -0.022744926 -0.33505231 0.10188238 0.12702987 0.080052882 -0.12214713 0.05601396 0.097185105 -0.22738965 -0.25125158 0.10828537 -0.10569672 0.15172167 -0.29518762 0.30892023 -0.022974774 -0.057260063 0.064261325 0.15677479 0.13505003 0.22573595 -0.084880739 -0.027056338 0.052787721 -0.0037148683 -0.03421206 0.16049156 -0.048753716 0.1439015 0.084344171 0.22296707 0.011978046 0.14280778 0.061929934 -0.32764131 0.025991183 0.15670595 0.10218822 -0.068175845 0.29852378 0.27252918 -0.28204376 -0.064125091 -0.11779355 0.32227203 0.01387662 0.131641 -0.0097116977 0.40343279 -0.25021026 -0.30490831 0.26538482 -0.1155007 -0.27371094 0.10019895 0.40868211 -0.12734237 0.13029975 0.084294751 -0.0018144245 0.10288838 -0.19730371 -0.15306373 -0.015252564 -0.10205735 -0.12873544 -0.14771655 0.32767263 -0.18759163 -0.11443463 0.22867401 -0.066707365 0.1665685 -0.02448331 0.2835764 -0.0031216322 -0.036809482 0.0056699933 0.20668513 0.24795003 -0.1137275 0.39298004 0.031547245 -0.044762786 0.26459318 0.042965289 0.13511758 0.11298274 0.066253021 -0.0005668173 -0.010455501 0.24603091 -0.009200491 -0.030498302 -0.12261672 0.018752975 0.25606215 -0.16795532 0.21599206 -0.11986199 -0.1182441 0.022724193 -0.27022511 0.069221154 -0.2891286 -0.46057677 0.0049821585 -0.19857849 0.4291676 -0.12028609 0.013708236 -0.1126261 0.057296649 0.02518267 0.12602024 -0.10970742 0.032261685 0.074464642 0.11863061 0.089380637 -0.09920761 -0.23178972 0.35605678 -0.21837929 0.016808636
TGGG 0.10288446 0.75887978 -0.72566181 0.26306465 -0.36191687 -0.32298619 -0.6997183 -0.58994621 0.29500666 -0.41154054 0.3690052 -0.3147333 -0.27194631 0.11664537 -0.52586085 0.0039172531 -0.079724699 -0.48227996 0.013317504 -0.10671527 -0.16582197 0.34721845 -0.090067998 -0.090437561 -0.34648564 -0.25660589 -0.45333743 0.31772128 -0.55707568 0.032942548 0.27323407 -0.32251132 0.23423354 0.44439653 -0.018328093 0.10971849 -0.64777279 -0.55310309 0.12668386 0.097469538 -0.12585451 -0.37495357 -0.27709422 -0.59884226 0.36183751 -0.30605042 0.10712248 -0.15114644 -0.3085568 -0.1978811 0.17421566 0.045712166 -0.2983675 0.077345736 0.45811647 0.34408867 0.021146899 -0.41032141 -0.020343279 0.22516899 -0.088443205 0.19449601 0.2381447 -0.16802286 0.26615447 0.093133561 -0.21339169 0.064859591 0.035778046 -0.039632279 0.059303947 0.095076919 -0.10873198 -0.54390854 -0.079796508 -0.15674311 -0.46227574 0.084383398 0.27564183 0.044234946 -0.37780863 -0.4848114 -0.0064134076 -0.44822991 -0.25282326 -0.048051253 -0.34217682 0.12705253 0.15261306 0.20389068 -0.40788266 0.046388451 -0.1991946 0.39955398 0.12727265 0.13051359 0.06397526 -0.82750201 -0.0078323241 -0.29962173 0.047664654 0.0091850869 0.14589961 -0.58334094 0.3550922 0.24941503 0.068329833 -0.19763796 0.30556536 0.15894246 0.25296316 0.60146654 0.094494268 0.45311442 0.32694793 -0.0322592 0.10566676 -0.93260098 -0.034205426 0.64630872 -0.46053633 -0.14709315 -0.10887127 -0.080336876 -0.41099927 0.035927329 0.086097918 0.33064944 -0.079711556 0.14133276 -0.24601032 0.41840938 0.86999607 0.4992986 0.43596005 0.35044324 -0.12837507 -0.058023032 -0.062913105 0.035465989 0.088591583 -0.12959163 -0.097988509 -0.050927009 -0.14964265 -0.0084723057 0.01836469 -0.29474443 0.29430085 -0.092340663 -0.5937888 -0.03485442 0.22002891 0.19084385 0.34353107 0.19640225 0.10303054 0.24951541 0.088551097 0.28677016 -0.10768179 -0.047891818 -0.63348246 0.3174988 0.4800474 -0.051890336 0.22563426 0.34067982 -0.55557036 0.31215984 -0.41513973 0.356491 0.31820473 -0.16415344 -0.012767908 -0.095312379 0.16174768 0.2225641 -0.25031519 -0.35539335 -0.038786754 -0.22788158 0.1678922 -0.11577452 0.12892267 0.084384747 0.14904813 -0.34850311 0.59179991 -0.045368519 0.78248417 0.14266899 0.010816413 0.32518789 0.095877491 -0.036815617 -0.055555407 0.62177575 -0.24309564 0.12105879
GGAA -0.0070072012 0.23452114 0.090127252 -0.5703423 0.15243579 0.030048648 -0.11619091 -0.34671631 -0.28853434 0.010534454 0.25679967 -0.035613429 0.17486213 0.034872696 0.31962678 -0.088858739 0.23213655 -0.77218312 -0.41682136 0.099865764 0.076143451 0.19184707 0.45836854 0.01260046 -0.16946039 -0.14784966 0.017789725 -0.28269854 -0.18155469 0.079926223 -0.057828519 -0.0052190903 -0.022348518 -0.1371738 -0.14315464 -0.15513383 0.11203783 -0.082224324 -0.21720119 0.029912684 0.085946314 -0.36569154 0.044560865 -0.094756417 -0.065155186 -0.066481501 0.13169189 0.16085975 -0.49577865 -0.30867407 -0.17489338 -0.26604307 -0.10559978 -0.17430282 0.076685861 -0.3869051 0.34096009 0.040026452 -0.22785181 -0.27639964 -0.2176127 -0.041338135 0.029781172 0.45911756 0.2994681 0.15478428 0.32531485 0.29264343 0.37087852 0.063597009 -0.42153251 0.13835427 -0.026870981 -0.039923176 0.25304836 -0.17814097 -0.14387067 0.073479369 -0.077332124 -0.37173462 0.13279302 0.2935968 -0.17453524 -0.14533719 0.27845651 -0.32236415 0.090486392 -0.19459441 0.46799383 -0.088909917 -0.062503651 0.080132253 0.016744876 -0.10683301 0.17325443 0.27058131 0.48603988 0.55911118 -0.35283551 -0.33819947 0.10999193 -0.068960018 0.067512184 -0.089433104 -0.21954672 0.18256728 0.049254939 -0.2084932 -0.3709273 0.48384616 0.011482516 0.16722265 -0.050069217 0.054795012 -0.37205803 -0.29235303 0.34022194 0.021473328 0.30801946 -0.21394418 0.40586165 0.16429719 0.27405179 0.35796815 0.24104737 0.28821665 0.062873557 0.075311258 0.26296449 -0.60850853 -0.4577243 0.36008736 0.034170136 0.25496018 -0.2342795 -0.27891266 0.4498927 0.49443001 0.067911938 -0.38085553 0.27155563 0.22864543 -0.354031 -0.011726214 -0.17772172 0.25598392 -0.43391123 -0.43389884 -0.10166775 0.11645111 0.11223641 -0.1469768 0.26043451 -0.082781665 -0.37761435 -0.14402743 -0.11677853 0.13519068 -0.042894978 -0.20068456 0.073697977 0.014143645 -0.025630655 -0.15569343 -0.13178469 0.10210185 -0.30634776 0.16482915 0.14133975 0.08880908 0.10883916 -0.33478102 0.45347711 0.15457866 0.081326202 0.59696645 0.087055802 0.01641289 -0.14792323 -0.20628245 0.1059081 -0.52750331 -0.12983245 0.011901645 0.50491756 -0.35512254 0.15650626 0.28417888 -0.22949831 -0.082115583 -0.12792407 -0.26616567 -0.30292702 0.068948604 -0.05687486 -0.035217922 0.044976071 -0.38393605 0.15689203 -0.26909983
GGCC -0.0045746472 -0.13913456 0.67476153 0.23609816 0.16561155 0.055609569 -0.72116357 0.057872877 0.1954931 -0.71669567 -0.25336245 -0.34717813 -0.13424446 -0.28959677 -0.030944558 -0.28729907 -0.25757197 -0.28690124 -0.25373447 -0.12459664 -0.11158282 -0.048671387 -0.59002072 -0.11422173 -0.3513957 0.10849304 -0.35535404 0.20346656 -0.0051943483 0.11076862 -0.11702579 -0.26749086 -0.041351732 0.19291624 0.17775455 0.46554038 -0.21034776 -0.44844523 0.29301625 0.33785325 0.24478735 -0.72763819 -0.49252111 -0.57551575 0.64944416 -0.49716538 0.2784417 0.2576904 0.146377 -0.25508583 0.1044137 0.35996708 -0.34713221 0.20500229 -0.13498774 0.2213445 0.26263991 0.11683162 -0.27688241 0.19105341 0.1213863 -0.019565973 0.17645833 -0.4242723 0.33420798 0.34464723 -0.47697341 -0.016960111 -0.23808394 -0.0049747406 0.20216905 -0.036553394 0.086270183 0.13100459 -0.28306356 0.14464439 -0.28222674 0.39253917 -0.076668456 0.12370529 -0.61919957 -0.33226267 0.10743621 -0.99783552 0.22026062 0.41484562 -0.20919587 -0.57443309 -0.69826674 1.2794179 -0.081818812 -0.035485342 -0.36094347 1.2239112 0.36913988 -0.31471655 -0.22966203 -0.94588852 0.52653241 -0.51881826 -0.46002707 -0.44469175 0.37940153 -0.41721943 -0.11454442 -0.36830553 0.066435009 0.13076492 0.82696158 0.32452229 0.29203272 0.44782135 -0.030123735 0.013353655 0.33917278 -0.44036067 0.21801186 -1.5887251 -0.88638711 0.30666104 -0.64365149 0.041320458 -0.2724013 -0.31532183 -0.84924114 0.11545034 0.12947761 0.49201602 0.51973563 -0.10587808 0.16684148 0.78329945 0.90803128 0.43263945 0.67257875 0.0033646729 -0.041405275 0.64125848 0.073976375 0.4655512 0.4486264 0.42120028 -0.021824315 0.55344892 -0.9020772 0.14201982 -0.39073709 -0.2587879 -0.0094782831 -0.033500034 -0.65376151 0.28721568 0.21414874 0.28533411 0.63979954 0.21840823 -0.58476537 0.72714841 -0.1392515 -0.24089848 -0.54909551 -0.069880739 -0.75064588 0.40414613 0.64038044 0.029636882 0.10285403 0.66253865 -0.56264126 0.23220487 -0.51902252 0.34917897 0.57383978 -0.10524618 0.080672629 -0.26443377 0.41181079 0.36327073 0.18021891 -0.090852842 0.24915956 0.21124531 -0.24696873 -0.15867265 -0.52354199 0.2893889 0.64991808 -0.34173948 0.78110331 -1.3246205 1.0115668 0.30999616 0.61107022 0.030523375 -0.24543259 -0.12964195 0.78625625 -0.22829892 -0.23774521 0.95826918
AGCA 0.037890755 -0.029779926 -0.067683794 0.023159936 0.086045727 -0.053007208 0.26544628 -0.028422726 0.2418088 0.52758676 -0.12228214 0.044692315 -0.039419837 0.54282653 -0.16375761 0.29011127 0.0011332999 0.062561564 0.0068006041 -0.094911821 -0.045114513 -0.0059590181 0.25696659 -0.025753248 0.059031058 0.05483105 -0.36356008 0.19525248 -0.04567825 0.013924014 0.34798679 -0.35124382 0.23233858 0.39386699 0.082318515 0.18890142 0.026693102 -0.23492214 -0.12936088 0.016553812 -0.40035689 -0.17810617 0.46566916 0.029117174 0.16697571 0.55221063 0.10481826 -0.15018742 -0.044793274 0.31529501 0.099294737 -0.068827122 0.62115097 -0.25437105 0.19805373 0.027101081 -0.31855291 0.0066094855 0.23425432 0.21280484 -0.024920808 0.064364225 -0.0029373413 0.057274342 0.19677486 -0.19343001 0.27687737 -0.14414409 0.22730163 -0.12248655 -0.32400036 0.23374313 -0.059314482 -0.18623944 -0.25222576 -0.15126893 0.27907732 0.25449002 -0.047446236 -0.24317656 -0.065660082 -0.33711353 -0.21188325 -0.16587271 0.09601476 0.10443829 0.10943216 0.2264006 -0.4348368 0.1871783 -0.057931166 -0.30146089 -0.22932079 0.31603426 0.26021305 -0.26104307 -0.062048171 0.023994112 -0.10188291 -0.10128295 -0.015614985 -0.16126876 0.24551773 -0.47961655 -0.047895756 -0.0042861667 -0.034764223 -0.061129361 0.028978573 0.33607143 -0.0189177 0.080030359 0.023576044 0.40174705 0.16075408 -0.37102637 0.12482213 -0.35948184 -0.57369703 0.37176231 -0.2458533 -0.13905895 -0.078831524 -0.069626376 0.0030980757 0.21364066 -0.37839216 -0.14232942 0.1326959 -0.23637132 -0.35832265 0.2973735 0.56451386 0.18236288 0.16425301 -0.22422452 0.086069837 0.26172966 0.16939709 -0.12538399 0.52260292 0.15147392 -0.042366806 -0.16498876 -0.057543863 0.2717624 -0.43172854 -0.4872489 -0.037038334 0.048122574 -0.15951511 0.015719188 0.3109982 0.061789736 0.34675521 -0.069557481 0.12346499 0.29448533 -0.25102681 -0.1635047 0.27152899 0.14187641 -0.37820873 0.17790087 0.10685159 0.36071357 -0.030621681 -0.24462128 -0.53042126 0.23185013 -0.014774343 -0.16894755 0.44810769 -0.093924806 -0.12160255 -0.0061152489 0.29405224 0.56058365 -0.14640711 0.04163434 0.11072352 -0.11217912 0.10632989 -0.051147673 -0.12978871 -0.045965109 -0.30375874 -0.049111258 0.0087922206 0.30386385 0.25981939 0.32796648 0.16652685 -0.18630965 -0.21603939 0.086572498 0.036940951 -0.10555495 0.20371908 0.041465681
CTTT -0.18729605 -0.25776705 -0.23231368 0.14862181 -0.32114166 0.068861999 0.031586736 0.18730617 0.090889275 0.12036075 -0.1976392 0.16365042 0.040831529 -0.10138471 0.089032218 0.24402623 0.24890286 0.7342751 -0.046490159 0.050603427 -0.30140588 -0.2353791 -0.00039436622 0.1278978 -0.068025239 -0.21703897 0.62289155 -0.60981452 0.69868106 -0.56881195 -0.32794926 -0.043815844 0.31167957 0.078315534 -0.26189321 -0.42088428 -0.071001925 -0.20517813 0.0029950417 -0.40337539 -0.040898751 0.59152263 -0.02115426 0.16920103 -0.53984547 0.12562247 -0.081356414 0.0070376312 -0.050072186 0.90557873 -0.25630292 0.065519661 0.22889075 -0.099594586 -0.59337425 0.10755455 -0.42250729 -0.18916264 0.081016637 -0.4874219 -0.72717756 0.087599479 -0.36029768 0.53506112 -0.2412665 0.05272435 0.028310528 -0.05251031 0.09300223 0.19552618 0.62748212 -0.32988435 0.31582737 -0.50445378 0.12626497 -0.56859785 -0.29120609 -0.35376102 0.44642979 0.03806879 0.17558143 0.24899128 0.021348173 0.27796924 -0.1930857 -0.20506345 -0.015856845 0.29651916 0.060979918 -0.23210658 0.32816091 -0.10028551 0.059773199 -0.59149396 0.16532947 0.64707589 0.046080347 0.27102691 0.039764676 0.5253951 -0.25801343 0.57384425 -0.15380557 0.35513133 0.26146281 0.35851666 -0.046030592 0.26702681 -0.32410553 -0.28395993 -0.086673997 -0.2624104 -0.037839442 -0.24772236 0.08816573 0.53500223 -0.54039395 0.35666123 0.38762006 -0.22574697 0.29973561 0.42784747 0.31651002 0.55772001 -0.30639628 -0.26435861 0.33339909 -0.16314517 -0.52725273 0.1696685 0.33966112 -0.38327265 -0.6061855 0.0049112453 -0.39892775 0.27863142 -0.28480899 -0.22915582 -0.28319424 0.33662933 -0.66324687 -0.37135813 0.10248636 -0.13049473 0.27033961 0.10372575 0.20043135 0.27801269 0.0070453906 0.049773861 0.28304058 -0.44735825 -0.17711891 -0.074502923 -0.2076719 -0.14388014 0.59906328 -0.2608968 -0.15552802 0.27878481 -0.17730424 0.23212729 0.35966453 -0.16448216 0.080369361 -0.029919405 0.24473754 0.095535569 0.32078415 -0.3675186 0.12260897 0.11562367 -0.28536469 -0.11589526 0.1133943 0.16991957 -0.4153977 -0.10385798 -0.019918839 -0.37619045 -0.19242124 0.092292331 0.24122235 0.24415481 0.35297385 0.25310907 -0.42216301 0.46000123 -0.5343014 0.74299592 -0.8422479 -0.30629972 -0.22281936 0.14074698 0.1612767 0.16863069 -0.72826684 0.514395 -0.46197921 -0.25277841
TGCT -0.058534343 0.50681323 -0.20506704 0.3993012 -0.24632853 0.23289339 -0.033724435 -0.15912603 0.3950426 -0.037300702 -0.082534976 0.22008602 0.032800317 -0.3087402 -0.26462141 0.30358499 0.12474968 0.35316661 0.35856244 -0.091980755 -0.28572208 -0.25771636 -0.56562912 0.29519543 0.27240923 -0.23366444 -0.03026633 -0.056145728 0.027306674 -0.1373698 0.11273045 -0.10255453 0.31199282 0.34525099 -0.097618051 -0.03049876 -0.36354238 -0.20274267 -0.225826 -0.14359909 -0.36401772 0.15092206 0.28988183 0.058622025 0.17743917 0.034922611 0.083702765 -0.041213289 -0.28232038 0.29735947 -0.077812821 -0.052469339 -0.072364405 -0.31566232 -0.043952547 0.27253923 -0.61341828 -0.22214839 -0.042420935 0.10785408 -0.14620183 0.060792007 0.024628812 0.081454322 -0.028871769 -0.28587019 -0.014900609 -0.02656902 0.1655032 0.16743098 0.63203049 -0.1359528 0.16697514 -0.18379927 0.1535473 -0.66819996 -0.23167671 0.18603756 0.17760116 0.18445487 -0.38847882 -0.18916599 0.11499374 -0.10271585 -0.24397896 0.084437698 -0.23015244 -0.11007594 -0.010661383 0.6935305 -0.019871119 -0.0043277568 0.30247703 0.15620156 0.44984689 0.12393937 -0.032421891 -0.20624211 0.21382675 -0.2218844 -0.069984563 0.32682502 0.21540727 -0.22970231 0.31282282 0.25189906 0.12136473 0.11131484 0.38158309 0.14172302 0.19383819 -0.13060333 0.21130574 -0.060586259 0.1335633 0.050789565 0.08873459 -0.23959237 -0.037278887 0.18567486 -0.40043274 0.066186793 -0.11471839 0.013868334 -0.40151983 -0.37844056 0.26001292 0.0023329081 -0.1623982 0.18501678 0.0078003104 -0.024044638 -0.051136076 0.33239377 0.32791945 0.47980157 -0.027405862 0.030817216 0.072260253 -0.10440228 -0.15009865 0.20187937 -0.18166208 -0.062840827 -0.48789108 0.0706053 0.13962977 -0.28423324 0.14438349 0.13246277 -0.19632107 0.25597692 -0.047139935 -0.19042633 0.13848481 -0.041068211 0.50306541 0.35505319 0.249532 0.13173558 0.11329966 -0.10164842 0.064012676 0.19256307 0.53743976 0.032073047 0.39896229 -0.082212105 0.032185789 0.12149692 0.16027623 0.25990745 0.19285914 0.15366474 -0.062180538 -0.13654643 -0.28123197 0.30620325 -0.16448951 -0.25015074 0.15401787 0.042147115 -0.081926234 -0.35809135 0.14916323 0.12206117 -0.092853151 -0.42499447 -0.038527861 0.09421549 0.35150397 0.0186342 0.18960664 0.046005078 -0.19142526 0.078500472 0.080864385 0.10579842 -0.10963734 0.043160006
GCCC -0.033663448 0.0051992303 0.26388142 0.6433385 0.140616 -0.099516295 -0.66878456 0.21910387 0.17250983 -0.89482141 -0.037577681 -0.35316491 -0.22739226 -0.0026235532 -0.30655098 -0.044395011 -0.39532861 -0.15954585 0.11143311 -0.00503761 -0.044668689 -0.10130486 -0.47886178 -0.27295971 -0.043651387 -0.0071416451 -0.55971998 0.42418742 -0.4442353 0.13386635 0.17933458 -0.19409983 -0.12128916 0.20378745 -0.029106446 0.8938632 -0.48876685 -0.087105162 0.16861945 0.38586599 0.069877014 -0.47118405 -0.57063907 -0.39485589 0.61723101 -0.42266074 0.25882283 -0.13866059 0.39086041 -0.21938814 0.13519256 0.37285578 -0.24566042 0.69411296 -0.095137253 0.2153971 -0.19410537 -0.070117198 -0.54596531 0.60349149 0.37888008 -0.34448874 0.56602204 -0.67389858 0.051180687 0.19675918 -0.68035996 0.03115686 -0.68519163 0.13045536 0.23811181 -0.15592287 0.18848221 -0.00039319805 -0.45180717 0.35953271 -0.42209357 0.29989356 -0.22385751 0.12594597 -0.44237873 -0.36245346 -0.064578734 -0.7365467 -0.11766473 0.50870693 -0.38596335 -0.46186358 -0.75246781 1.3807168 -0.42240325 -0.029738968 -0.35570216 1.0034523 0.33176211 -0.57907921 -0.21494646 -0.77866197 0.46552062 -0.43127751 -0.42283496 -0.44594565 0.45879039 -0.66858739 -0.065596782 -0.48034889 0.25069103 0.12001169 1.0059807 0.34476191 0.32968313 0.64891726 -0.1402539 -0.098606929 0.42320731 -0.30550569 -0.0070682415 -1.1937256 -0.96774101 0.35211569 -0.75563109 0.019848235 -0.082197718 -0.37038341 -0.87977809 -0.21018265 0.27762091 0.36983421 0.37827164 0.1942303 0.39919737 0.81550729 0.70754778 0.21186829 0.51270944 0.37454909 -0.054498937 0.6497364 -0.22181502 0.3955842 0.43188727 0.36442924 0.46302474 0.64602643 -0.63929737 0.14430338 -0.23053269 -0.29139116 -0.39777595 0.034462433 -0.56692094 0.60162669 0.10527661 0.52168512 0.93025088 0.22764403 -0.12451055 0.58364004 0.008602934 -0.16868481 -0.9002046 -0.041271046 -0.6277346 0.37185466 1.0338923 -0.43048063 0.29743969 0.59882462 -1.0435076 0.46860343 -0.46937981 0.91627347 0.5755592 0.055984404 -0.065208547 -0.39123541 0.14156656 -0.24660158 0.17237234 -0.17625041 -0.11002368 0.24830016 -0.26034698 0.17193638 -0.61154091 0.45713407 0.53846896 -0.4260405 0.80560827 -1.3504283 0.83720267 0.64024609 0.58438355 -0.20633349 -0.19803557 -0.23651537 0.7989949 -0.42679054 0.057991508 1.065895
GCCA 0.070389219 0.31466684 0.24478751 0.18135767 -0.046494085 0.046913199 -0.11092485 0.067723788 0.23281081 -0.29012215 -0.04846862 -0.20496584 -0.34311232 0.23573439 0.086766519 -0.0043856693 -0.11990113 -0.20490657 -0.054977708 -0.0092233913 -0.16524744 -0.02661895 -0.021317855 0.13562454 0.1752957 -0.029865332 -0.098026939 0.022809472 -0.27165237 0.21931036 0.0042314655 -0.27697676 -0.074486122 0.018741105 0.34137082 0.47346717 -0.31544501 -0.27966821 0.22327037 0.10265242 -0.23735432 -0.30652165 -0.389094 -0.23142166 0.032745238 -0.36969891 0.1070898 -0.24318944 0.1706274 -0.4125599 0.39582101 -0.17164209 0.10678703 0.018277396 0.058494542 0.077285253 -0.39761496 0.050974756 -0.27129894 0.37697127 0.14104009 -0.10854893 0.25239196 -0.30989563 -0.03385542 0.0029860474 -0.1341491 0.075407803 -0.17503147 0.17052382 0.060988732 -0.0015621367 0.17270418 -0.021884849 -0.092662476 0.1671192 -0.031766105 0.19683985 -0.021644598 -0.11310042 -0.10295065 -0.15113124 -0.096699409 -0.35387191 -0.12417064 0.21963529 -0.13697995 -0.44832116 -0.056591339 0.39002359 -0.53569323 -0.079480737 -0.31132516 0.71160889 0.16424944 -0.27622747 -0.081373498 -0.1329484 0.03745161 -0.15027592 0.019336807 -0.24819165 0.38417628 -0.25189793 -0.11246476 -0.19715099 0.023374258 -0.025735525 0.62550128 0.091372244 0.29647273 0.3902761 -0.2227786 0.066254444 0.35630801 -0.33221927 0.018154992 -0.65402114 -0.70256317 0.3512499 -0.44526878 -0.14800747 -0.032863516 -0.011292427 -0.16939467 -0.07234405 -0.10728849 0.367347 0.42231062 -0.55187219 0.11045224 0.34007597 0.37593305 0.20376882 0.14361712 0.23700207 0.019637438 0.49089086 -0.07411024 0.09237314 0.55217868 0.39551952 0.1842363 0.42363355 -0.50520498 -0.048366565 -0.4053261 -0.26861057 -0.083585069 0.29715651 -0.11780967 0.39251179 0.34515923 0.13844873 0.5710454 -0.065862469 0.022028852 0.2959643 0.12895899 -0.33627132 -0.10400517 -0.10353578 -0.32422891 -0.07077916 0.074478477 0.032634642 0.03571035 -0.10113349 -0.74810421 0.31704783 -0.43103275 0.16517808 -0.012239079 -0.25789222 -0.22211829 -0.15608048 0.21219477 -0.14726646 0.097099066 0.23604198 -0.31842855 -0.089040138 -0.25975984 0.065208614 -0.094487034 0.15549293 0.48158082 -0.48642728 0.63829303 -1.0929768 0.45588133 0.47244066 0.21375498 -0.24576446 -0.13885498 -0.42018336 0.59705359 -0.47779715 0.39959699 0.40216056
