256 200
TTTT -0.67792797 -0.18636504 0.40757498 -1.9843308e-05 0.74317896 -0.77824068 0.77369332 -0.84660363 0.087385461 -0.48682225 0.65693802 -0.59322202 0.16258469 0.31792718 0.52964455 0.14509562 0.42699665 0.12089876 0.050328527 0.15157816 -1.3942044 -0.1500439 -0.47939461 -1.0150214 -0.45488289 0.31662422 -0.83668095 0.80232865 -1.3458917 -0.42617586 0.1446569 -0.17204154 -0.010835821 -0.22581984 -0.11328697 -0.62698382 -0.24911796 0.20623995 -0.44882807 -0.15138102 -0.43678433 0.95002419 0.51663941 -0.22098668 0.6832431 -0.14789042 -0.20377161 0.38313073 0.011939305 0.24608871 0.3392505 -0.46575576 0.75937378 -0.45859772 0.59038669 -0.58426994 -0.59088534 0.20659989 -0.22609361 0.12188043 1.1031095 -0.88733768 -1.6753846 -0.46233061 -0.49968556 0.24264918 0.60353845 -0.19155303 -0.35558921 0.46128714 0.79402006 0.31124207 -0.086763911 -0.14894825 0.25269303 -0.2390883 1.073351 1.2818846 0.85072052 1.0530009 0.82326454 0.44959691 -0.24017046 0.13443968 -0.14537561 -0.048772659 0.0028323994 -0.48165831 0.48714611 0.32714164 0.83024263 -0.76072508 1.5502133 0.048037216 -0.43927184 0.10058195 1.6999174 -0.20271532 0.79962885 -0.19120905 0.056494441 -0.62474287 1.5153899 -0.22240174 -0.67550087 -0.53395689 0.34196085 -0.50375879 0.10010303 -0.070276 -0.4375726 0.62249368 -0.72247887 -0.52933735 0.52858865 0.285754 0.90070993 0.40339652 1.3449712 0.23096925 -1.5002469 -0.089728542 0.19543982 1.1075431 0.67333025 0.25420114 0.3111454 -0.1704815 0.24012968 0.014745835 -0.6006797 -0.82035184 0.19612803 0.52799147 -0.19495712 -0.80958927 0.16604164 -0.53773046 0.26441145 0.32607964 0.15827951 -0.20761496 0.65070552 0.62172198 -0.011213989 0.58464086 -0.46126422 0.044744682 0.30101889 -0.13193423 0.68596745 -0.22055443 -0.42775527 0.33673173 -0.96285117 -0.24296685 0.82984537 -0.11573568 0.26008716 1.1943924 0.33087754 0.60988277 -0.16925451 -0.23618172 -0.95457488 -0.12422987 -0.45616546 -0.11149424 0.92864448 0.76178914 0.88064307 -0.87676966 0.96668404 -1.1644895 0.3155489 -0.49733594 1.1209607 -0.88492358 -0.44120118 0.59430176 -0.24201733 0.13892223 0.79742813 1.7640396 0.3730835 1.4320041 -0.55787164 -0.70475888 -1.4189233 0.62661242 -0.75266582 0.34423715 -0.094087362 0.36609989 -1.0364224 0.24724974 -0.49927163 0.39455858 0.056179989 0.4300417
AAAA 0.79707491 -0.33925349 0.06239925 -0.17094529 0.14493969 0.32893008 0.80552399 -0.54656953 -0.13522118 -0.024325779 0.27661416 -0.15013075 0.36987156 1.0250272 -0.099477112 -0.75167811 0.099146925 1.1032429 -0.17096171 0.54401451 -1.5023366 -0.33537826 -0.0065284343 -1.0391808 0.095219344 0.047059048 -0.54653615 -0.02611977 -0.72261596 -0.76797646 0.47409686 0.57045501 -0.40412223 -0.27249232 0.018268486 -0.70068973 -0.83132869 0.62040842 -0.27315626 0.16704215 -0.094210416 0.68141741 0.48561487 -0.51767027 -0.041160557 0.24521765 -0.19922233 -0.91121113 0.2589446 -0.26222423 -0.42406926 -0.46057725 0.78584301 0.53145266 1.0409089 -0.58100474 0.094299346 -0.19313762 -0.0099446094 -0.3378261 0.021935722 -0.26310536 -0.9173038 0.38150707 -0.2226579 0.63084167 0.50540137 -0.64594299 0.092630185 0.37203121 1.2623681 0.66219401 0.062825568 0.42223802 0.17912814 0.77592289 0.37409306 1.5711429 1.0377516 0.57665998 0.60585618 0.97140199 -0.17808203 0.60858309 0.80683416 0.58963037 -0.38664064 0.023847274 0.31464103 0.72960532 0.97957778 -0.1105613 0.62249339 -0.24228251 -0.6348868 -0.010253452 0.79633725 -0.72274101 0.6436404 -0.62936181 -0.81098819 -0.82720584 0.26116183 0.020083919 -0.84459025 0.89710701 0.25369892 -0.9784013 0.19539115 0.97056144 -2.1599269 0.1528127 -0.5613668 -1.3863144 1.1286492 0.22203 0.45488402 -0.75111884 0.85039848 0.86298341 -1.6952699 0.15826978 -0.14982617 1.7650692 0.40094143 0.038279541 -0.88345188 0.25656486 0.36625633 -0.7505095 0.58948147 -0.17645921 0.3102963 1.4433551 0.085279278 -0.37408778 0.22582678 -0.27887666 0.27097335 -0.46259829 0.1674944 -0.42490062 -0.066699371 0.74647212 -0.39636549 0.30292949 -0.368891 -0.065686874 -0.15403718 0.84027332 0.51297522 0.027221292 0.074796066 -0.61713266 0.66889566 0.23874275 0.021608613 0.14003043 0.95080048 -0.011209269 0.6832149 -0.53670484 0.1610264 -0.11820921 -1.1409066 -0.66265404 0.028427461 -0.0080557447 -0.083727695 -0.33739877 0.95913452 -0.35762194 -0.00066943606 0.16085097 -0.74416518 -0.21034037 0.37128136 -0.41281769 -0.69039565 -0.78071684 0.52102208 -0.18846422 -0.2985349 0.48884386 0.24516807 -0.13122267 -0.31012857 -0.3292504 -0.8621785 -0.2463925 -0.10884225 0.061516516 -0.1367455 0.35072014 -0.70740038 0.16869469 -0.40631106 0.04476298 0.37639508 0.58969951
CCTG -0.70589906 -0.086923383 0.23548988 0.30994174 0.11561891 0.082614265 -0.24248378 0.06218525 0.17989266 -0.11195654 -0.57868916 0.39399508 -0.28663045 -0.058078706 0.011612217 0.063231423 0.46495396 -0.048592772 0.097631969 -0.41297933 0.63849193 0.37744427 0.10717586 0.49742475 0.18445256 -0.3165206 0.20138241 0.12161137 0.46763453 0.53126544 -0.59707737 -0.51670974 0.15756406 0.010021986 -0.2036732 0.53749275 0.38551629 0.018112807 0.43106979 -0.064421348 0.1888838 -0.85618544 -0.18262511 0.17584908 0.15446886 -0.37642276 0.4808054 -0.12440649 -0.89394683 0.064063855 0.0032166678 0.39339554 -0.5453999 -0.52784485 -0.52293485 0.13325901 0.03029567 0.26351559 -0.24035151 0.021033078 -0.61114413 -0.23899816 0.41605076 -0.26877579 0.15856567 0.12871772 -0.17247696 0.071688078 0.17130239 -0.1545109 -0.97241938 -0.43617526 0.028274391 -0.52410328 -0.24555242 0.069167927 -0.34211856 -0.40608433 -0.27496967 -0.036389012 -0.21220218 -0.38727656 -0.027803821 -0.2275513 -0.34262142 -0.32126039 0.25474635 -0.17143762 0.041634612 -0.34492016 -0.59834385 0.5391342 -0.31123576 -0.061930578 0.69504583 0.22409979 -0.63202959 -0.11759935 0.14959311 0.29026979 0.18340628 0.24360156 -0.50926918 -0.052998777 0.51488167 0.076834597 -0.28118151 0.17937626 -0.075792126 -0.46078953 0.60399187 -0.59528768 0.30763495 0.23357962 -0.72213006 -0.094765529 -0.52761388 0.6160652 -0.36549443 -0.19016185 1.0308057 -0.35429153 -0.096166566 -0.62253505 -0.30398285 -0.2841292 0.23613784 -0.071889766 0.084511526 0.19997559 0.063872643 0.079854108 -0.30037847 -0.55687273 -0.057210408 0.2830317 -0.097290181 0.43679449 0.2281608 0.038446572 -0.0019016669 -0.091845363 -0.058532815 -0.13375592 0.11449243 -0.25026476 0.27053925 -0.077953704 -0.0031690483 -0.15631554 -0.24143718 0.25125104 0.13079791 -0.12287403 -0.24873205 -0.079792283 -0.26141003 0.29521653 -0.32647991 -0.22758465 -0.16691019 0.10646193 -0.26416662 0.026479576 0.72654504 0.24395078 0.094998643 0.19590357 -0.16785061 -0.25074008 -0.49277678 0.077999413 -0.55911559 0.41833112 0.33933342 0.2288034 -0.33846056 0.4045324 0.50514954 0.28436163 -0.16183142 0.24129471 0.084982999 -0.29343575 -0.011324785 -0.13125476 0.079083994 0.019083314 1.0814075 0.32071477 0.19494632 -0.16338129 0.18093003 -0.29009378 0.67170185 -0.60530967 0.059464376 -0.17023721 0.074967831 0.16657621
CTGG -0.3491208 -0.013177568 0.18238124 0.27536276 0.39299819 0.19551988 -0.16735217 0.2817542 -0.037253339 -0.10482002 -0.29275846 0.12439334 0.12704411 -0.095885724 -0.016260885 0.063567139 0.61130279 -0.26184767 0.14973842 0.14845583 0.4443742 0.31624052 0.19855995 0.32206178 0.41199547 -0.30920911 0.032216989 0.23706952 0.24026109 0.62797314 -0.32167459 -0.22409642 0.0099499505 -0.082307272 0.009086444 0.29046384 0.54790324 -0.21049905 0.2964468 -0.16910209 0.047982275 -0.50614166 -0.27467853 0.21483968 0.072474979 -0.45066035 0.19390158 0.26385686 -0.40196753 0.08596959 0.31086415 0.56927228 -0.51396435 -0.2924144 -0.46268803 0.33826381 -0.076985255 0.16365205 -0.13591661 0.044277504 -0.46208239 0.15324557 0.47941232 -0.58818036 0.28683546 0.018251248 -0.18634196 0.24386728 0.2627995 -0.2703644 -0.69195336 -0.31394404 0.0066520483 -0.30559656 -0.18379185 -0.36946687 -0.3123233 -0.47124052 -0.21341933 -0.24410275 -0.20904951 -0.45730463 0.11918973 -0.27134818 -0.30793026 -0.496764 0.22201814 0.16096677 0.24928953 0.10501294 -0.35505435 0.26251066 -0.47598317 0.54237044 0.25764772 0.043339502 -0.33158359 0.26662916 -0.017005494 0.0083834324 -0.046821307 -0.21769917 -0.33163309 -0.15110163 0.47736919 0.14700341 -0.18183164 0.090847187 0.071592964 -0.035698242 0.43314368 -0.66317153 0.084591478 0.19941485 -0.29047126 -0.068693489 -0.50287944 0.40607506 -0.42789948 -0.040814076 0.76679844 -0.15229467 -0.27386707 -0.49454308 -0.36598182 -0.25981438 -0.090197168 -0.099503256 0.17907405 0.33395875 0.28880993 0.020931968 -0.1793163 -0.39655623 -0.066831432 0.24213737 -0.29464895 0.21049982 0.17029192 -0.085564695 0.1751287 0.034233846 -0.086513065 -0.10924526 0.33173704 -0.39721802 0.08899387 0.20416361 0.092914283 -0.11237728 -0.41741404 0.31556422 0.25730944 -0.36280259 0.20405319 -0.039291568 -0.024192851 0.083949193 -0.10587211 -0.51529014 -0.44254112 -0.58990371 -0.27952087 0.078732386 0.85940427 0.014333582 0.2081494 0.14310873 -0.50348312 -0.18847635 -0.65052444 0.59850329 -0.67293477 0.33168852 0.1818037 0.68708831 -0.60362476 0.55528831 0.28184342 0.31661254 -0.22067162 -0.1349926 -0.20124175 -0.6902101 -0.27111638 -0.50901216 0.3098568 0.30859962 0.79608381 0.092995204 0.39368257 -0.047058545 0.26867077 -0.024321364 0.52615082 -0.20463987 0.01384361 -0.1782607 -0.14942546 -0.044023905
AGAA 0.73245806 0.001623285 0.15863498 0.06859152 0.040526208 0.0001344866 0.56536061 -0.30665937 -0.015034217 0.23967728 0.3300373 -0.022647675 0.20137887 0.23035492 -0.20332804 -0.43231627 -0.10003121 0.10864393 -0.22962214 0.21287325 -0.51629627 -0.32978699 0.1729451 -0.23687734 0.12738976 0.030970931 -0.10560472 -0.30128172 -0.10094015 -0.016995667 0.26738846 0.1550722 -0.1330357 0.20663451 -0.02108332 -0.50722945 -0.42016608 0.19971567 -0.29427075 0.19169393 -0.10039467 0.015984358 -0.067711942 -0.05119193 -0.35459727 0.12389807 -0.11461308 -0.13044733 0.45299593 0.18437523 0.13704377 -0.026753677 0.19644828 0.36425418 0.34324223 -0.014632421 0.05904039 -0.55466688 0.22308049 -0.067395166 -0.10318474 0.2948989 0.48397091 0.0057930429 0.23219047 -0.10789191 0.32894903 -0.10532372 0.16053039 0.3252745 0.60177863 0.079934023 0.28504485 0.32675475 0.069819987 0.39785784 -0.0012122486 0.265926 0.058935292 -0.57790077 0.29716408 0.4191741 -0.24924524 0.10821941 0.24671261 0.50962657 -0.015303893 0.05817252 0.12295751 0.66351914 0.26277661 0.13221455 -0.17896292 0.22858837 -0.36041412 -0.052643154 -0.20867403 0.04706531 -0.31384003 -0.16048899 -0.61976963 -0.47233662 -0.11405081 -0.10571 0.044502202 0.54887402 -0.11934315 -0.31667587 -0.056777053 0.43867058 -0.70266509 0.034287449 -0.21288715 -0.39504442 0.84968299 0.61257482 0.046083886 -0.46617144 0.10257111 0.41740257 0.025582295 -0.06809593 0.066671029 0.69004983 0.19006903 -0.11157336 -0.42561024 -0.092152484 0.32182708 -0.18884355 0.20292182 0.11707838 0.25754228 1.1693623 0.14885315 0.047174595 0.072322056 -0.28913623 0.073140495 -0.31058422 0.45188698 0.11277281 0.20280683 0.27066228 0.065135546 0.23801306 -0.010677964 0.12246272 -0.076469965 0.12410399 -0.15459147 -0.099347278 0.44051573 -0.61501873 0.49951157 0.38797402 0.26227376 0.31460097 0.49443525 -0.42266363 0.1192871 -0.63197255 0.10473859 -0.082790919 -0.44450736 -0.081507318 0.16335621 0.33300632 0.15154609 -0.18650225 0.24244282 -0.010326781 -0.25488478 0.090181105 -0.25695801 -0.27211264 -0.081644006 -0.0047877324 0.11475171 -0.2998718 0.25352922 0.24515532 -0.31300372 0.11418083 -0.27483609 -0.68917489 -0.14519566 0.39002708 -0.64132655 -0.6035918 0.22334321 0.32663739 0.027063498 0.06360884 -0.28424439 0.38980609 0.060169917 -0.4249762 0.41089788 -0.14592119
CCAG -0.38556716 0.043353237 0.24515313 0.35866854 -0.22549699 0.19493021 -0.16022435 -0.047393598 0.14354177 -0.025150374 -0.58765149 0.38728666 -0.27630776 -0.0030967216 0.07602863 0.14701647 0.45774242 0.26763016 -0.030691558 -0.2554926 0.35564068 0.36469984 0.33237427 0.16367967 0.34098411 -0.37215909 0.17444529 -0.014863009 0.48185197 0.51157361 -0.38300142 -0.15758632 0.04064263 0.071932957 -0.054458015 0.29681629 0.69228142 -0.28403392 0.077335246 -0.27918711 -0.14675499 -0.69147521 -0.36676404 0.19250235 0.056980364 -0.51763994 0.31462231 0.024042092 -0.27292317 0.18147004 -0.24364439 0.31834379 -0.36284432 -0.19044726 -0.32160121 0.32466254 -0.0064945519 0.17950359 -0.27592897 0.084274381 -0.52151752 0.06480284 0.75880975 -0.22648166 0.31713673 0.13819149 -0.21696815 0.13221453 -0.088696733 -0.13066965 -0.44973838 -0.15166481 0.17935325 -0.13985075 -0.32651603 -0.04908067 -0.30986917 -0.48254836 -0.25194475 0.035840228 -0.20700677 -0.075513311 0.057842355 -0.19846776 0.063617997 -0.35508639 0.093457676 -0.1439818 0.23450653 -0.45909351 -0.4118917 0.18768206 -0.1864538 0.25711101 -0.030455891 -0.10163067 -0.95716852 0.1576684 -0.064487889 0.41967997 0.0056478162 0.37746981 -0.59542799 -0.052061554 0.7053616 0.22048388 -0.25391027 0.32358855 0.054338161 0.0077165323 0.19306986 -0.56357551 0.43863568 0.22785999 -0.59287691 -0.19814156 -0.58534265 0.39994946 -0.47079095 -0.083679691 0.95475978 -0.076045163 -0.019733215 -0.49048865 -0.33824787 -0.39127153 0.19695723 0.028570825 0.10915395 0.31856993 0.11888915 0.3148751 -0.051909227 -0.44509029 0.26027799 0.41910097 -0.45453581 0.35627773 0.014516467 -0.24769053 -0.34989241 -0.15373957 -0.37958571 0.023385741 0.13001956 -0.24589223 0.085039459 -0.0033010156 -0.052381009 -0.11609899 -0.47175807 0.22257049 0.3560389 0.047696754 0.0084206173 0.16789086 -0.1082333 0.21261582 -0.03415158 -0.36948261 -0.048871133 0.007198792 -0.36118343 0.246279 0.46614578 0.079137191 0.1504751 -0.091316365 -0.30976743 -0.32866383 -0.42488623 0.13747391 -0.88519835 0.530945 0.14812906 -0.014182097 -0.54765058 0.39122772 0.76760411 -0.050928451 -0.035769816 0.26759312 -0.27810279 -0.27849448 0.20435613 -0.41754338 0.30748039 -0.015945397 0.91459018 0.26803103 0.39353198 0.099027023 0.22216338 -0.17333168 0.73128885 -0.47533017 0.0052425051 -0.19399936 -0.19029702 -0.13557653
GCTG -0.20606422 0.13186052 0.11627039 0.044304632 -0.046854652 -0.048891034 -0.18562417 0.067251801 0.26777619 0.037773568 -0.12758258 0.39134884 0.0085758474 0.18097773 0.25102946 0.29284653 0.44751039 -0.31589079 0.24683759 -0.13777836 0.83411044 0.10876164 -0.11707452 0.55738842 0.18413842 -0.35203859 -0.10547012 0.13438578 0.18899369 0.37283766 -0.12661619 -0.46723855 0.0068418602 0.062982798 0.096397758 0.52094042 0.38573533 -0.34124172 0.31361192 -0.014609947 0.51069123 -0.6254456 0.31548876 0.40277752 -0.1456511 0.31095284 0.32479107 0.38300857 -0.057722434 0.12486998 0.63607639 0.090979569 -0.45982707 -0.095062569 -0.45457011 0.40362981 0.24062647 0.1886318 -0.040776078 -0.053437538 -0.42611846 -0.32715562 0.38068095 -0.10263442 -0.17935607 -0.091291964 -0.21369857 0.082458504 0.36746311 -0.31739762 -0.6931628 -0.26808411 -0.008275656 -0.41317132 -0.26393071 -0.13003936 -0.29198757 -0.66266167 -0.24494231 -0.10377458 -0.25417486 -0.46117818 0.35690576 -0.19165945 -0.55554718 -0.28403756 0.31488928 -0.16218226 -0.27792498 0.013309834 -0.31167266 0.69956917 -0.44013044 -0.37302029 0.90356529 0.21800458 -0.59484339 -0.046449903 -0.17983392 0.076991148 0.16308738 0.21961753 -0.086980976 0.099932306 0.19591989 -0.29501367 -0.47627705 0.19373463 -0.1557015 -0.40978256 0.54562384 -0.39984483 0.51590401 0.27897096 -0.59407854 0.16970703 -0.40109354 0.49294037 -0.3011581 -0.2341897 0.58737385 -0.15665272 -0.46047056 -0.47071981 -0.25702384 -0.00074090826 -0.094801068 0.018472746 0.11904799 0.1098525 0.059409339 0.051293805 -0.061845507 -0.49736935 -0.22907224 0.24053593 0.13706526 0.52988434 0.18363295 -0.15532039 0.08508227 0.31265569 -0.50336301 -0.18984972 0.48598269 -0.39273641 0.30253404 0.33567953 -0.0052089742 -0.34742317 -0.54300791 0.34860805 -0.038143057 -0.16864945 -0.087060608 -0.22567733 -0.016091807 0.33368918 -0.037785463 -0.13644262 -0.35120749 -0.060325932 0.05362983 -0.37759453 0.9424001 0.19869268 -0.063110806 -0.16888365 -0.47562003 -0.50067025 -0.60947073 0.76444823 -0.33412617 0.49447823 -0.11681317 0.49487042 -0.61102223 0.77048934 -0.030342206 -0.054002531 0.1715994 -0.2096262 0.24419825 -0.21499796 -0.051006138 -0.29319525 0.1407727 -0.11629932 0.56424785 -0.25634524 0.50291467 -0.13724621 0.33876047 -0.23937868 0.31933033 0.000577342 -0.0077179866 -0.11166833 0.23291777 0.027685434
CAGC -0.18082374 0.12306562 0.34911707 0.40303943 -0.61173928 0.3182019 -0.69979966 0.39307567 -0.19513676 -0.19560039 -0.74062598 0.21590863 -0.14453757 0.14314121 0.26735079 -0.031147236 0.26656109 0.11279783 0.23545794 -0.20078179 0.68805534 0.14609875 -0.070587344 0.29132795 0.15528664 -0.31802356 0.41044271 -0.12371482 0.47059995 0.13201778 -0.16095071 -0.27948594 0.14948249 -0.42473242 0.12864742 0.43402341 -0.082513385 -0.055281479 0.4821662 0.085048623 -0.0177042 -0.35782829 0.37760133 0.088864036 0.29826578 -0.27064556 -0.051382359 -0.45534298 -0.15283136 -0.062321998 -0.035710804 0.49594143 -0.26575124 0.18220331 -0.47500995 0.047723006 0.25650015 0.3612785 -0.31990176 0.35684431 -0.48538136 -0.32607639 0.88459915 -0.19454995 -0.081921443 0.41093242 -0.46182987 -0.11101165 0.18658656 -0.1205999 -0.5494529 0.20077875 0.33811152 0.12203122 -0.60255474 -0.20833719 -0.43542811 -0.77515519 -0.28916621 -0.34156573 -0.39382592 -0.75787002 0.1960063 -0.016721873 -0.21338114 -0.099795692 0.059673585 -0.13209315 0.047146361 0.16368617 -0.40553853 0.29150096 -0.27845332 0.20413037 0.17618681 0.085338347 -0.78927928 -0.4333944 -0.13326211 0.52766275 -0.29783398 0.4038834 -0.52604163 0.0068510273 0.58199513 0.25909865 -0.23110649 -0.016926067 0.072481751 -0.42758107 0.11374763 0.035981614 0.82653391 0.07452251 -0.33653966 0.042245802 -0.60346544 0.18606332 -0.92939067 -0.50709414 0.69976139 0.11083613 -0.34153467 -0.96972793 -0.65468621 -0.11977408 0.29549709 -0.46111926 -0.014420094 -0.20666328 0.079303727 0.21311554 0.044021372 -0.6880278 -0.14176406 0.062103465 -0.33121297 0.41093457 0.1914241 -0.024153661 -0.0402666 0.31753626 -0.73920155 -0.35944763 0.15395021 -0.2823441 0.2410928 0.77784938 0.066601045 -0.11883348 -0.56441045 -0.0018173795 0.088433765 0.18738167 -0.14075501 -0.16578709 -0.35487154 -0.0024668877 -0.32040861 -0.069138952 -0.44798291 -0.14236534 -0.059417784 -0.12251683 0.22795288 0.0052277418 0.26960737 0.095748968 -0.43035904 -0.45190012 -0.1817105 0.30285519 -0.29183248 0.42695698 -0.22630778 0.31286386 -0.44322339 0.044491328 0.61373979 0.002265793 0.17191467 -0.0032871715 -0.099873178 -0.17122142 -0.24141641 -0.30052024 0.23497751 -0.037618831 0.84190947 -0.11107007 -0.056295455 -0.17622674 0.05021473 -0.07704369 0.39327124 -0.34141162 0.24607575 -0.27541098 -0.39824489 0.17680356
GGAG 0.23931122 0.36472499 0.14266689 0.033035234 -0.26670733 0.18059123 -0.028774161 0.18173087 -0.095027953 0.06039523 0.32594138 0.51792568 0.17657115 -0.23596054 -0.01817213 0.016903061 0.23917952 -0.257415 -0.018813569 -0.3292343 0.55360311 0.20142522 -0.24488026 0.43571216 -0.13088302 -0.24693865 -0.42644361 -0.11950962 0.098183878 0.49800146 0.021365447 -0.22472371 -0.39848322 0.37887895 0.17266183 0.058141608 0.43885657 -0.0076930425 -0.054776132 0.22449848 0.47739482 -0.64275628 0.24405006 0.49877828 -0.28503683 0.44986713 0.34582499 0.42278978 0.037781321 0.17682427 0.80375141 0.13596407 -0.22531657 0.20020628 -0.056409076 0.11604254 0.0083112773 -0.19322178 0.17514074 -0.18402232 -0.19800448 0.0085870968 0.50217742 -0.32840791 0.23991218 -0.32826784 -0.041055463 -0.14034733 0.49416193 0.014807267 -0.31504107 -0.69339949 -0.058269471 -0.41054818 -0.25586918 0.087043025 -0.32669774 -0.34820774 -0.2069025 -0.50614041 -0.068064302 -0.16754842 0.097534865 0.12311652 -0.27142847 0.072599784 0.46169126 0.23029669 -0.021811966 0.037080277 -0.78638685 0.6168763 -0.58956748 -0.4339475 0.64881676 -0.26270974 -0.68684393 0.42370659 -0.69731414 0.11611757 -0.24582095 0.37183616 -0.46427605 -0.16384286 0.64282089 0.0044408347 -0.38109693 -0.11843613 0.093989149 -0.3253423 0.28529188 -0.44377154 0.34631729 0.3352305 -0.72095948 0.536255 -0.50849086 0.12631933 -0.58681589 -0.1340818 0.98514265 -0.40449613 -0.53798091 -0.22841915 -0.40343356 -0.12273107 -0.5812397 -0.098763213 0.15968822 0.16937849 0.18698367 0.27836615 0.18654889 0.044574995 0.17216241 0.76656818 0.3235254 0.53758317 0.05676249 -0.23564711 -0.21792668 0.40675467 -0.66547674 0.1086866 0.516155 -0.26875016 0.2427243 0.6400516 -0.33783421 -0.52797151 -0.87819493 0.32815507 0.5791167 -0.47416601 0.018907106 0.13665615 0.64805621 0.562886 0.30948424 -1.1200486 -0.83471137 -0.66882992 0.26840901 -0.25406876 0.98806351 0.091160111 0.16943219 -0.24661517 -0.68460816 -0.66828227 -0.49307862 1.5307002 -0.94239807 1.0413355 -0.40026066 0.41224965 -0.58719635 0.92197871 0.17819549 -0.31149358 0.4567036 -0.058388658 -0.25802937 0.14308879 0.2332381 -1.0058072 0.31474787 0.16615978 0.43691805 -0.60385501 0.39536014 0.16856039 0.33680865 -0.20295206 0.14270861 0.39195022 0.22955497 -0.39746803 0.095591918 -0.26616448
TGGA 0.26829979 0.29219913 -0.16054231 -0.073494114 0.083914444 0.14344765 0.21697882 -0.11672599 0.085542105 0.14602858 0.017067961 -0.05225705 0.18469708 -0.097793236 -0.11765779 -0.035009518 0.043337561 -0.073466279 -0.10308677 -0.017385237 -0.38168308 -0.14365686 -0.079102643 0.042850796 0.080844596 -0.059023727 0.0754086 -0.0074805059 0.15711546 0.3696546 0.025875999 -0.10757061 0.081253394 0.14797086 -0.14770964 -0.20025827 0.45648947 -0.046832319 0.033127986 -0.37780824 -0.037823621 -0.070495635 -0.18217297 0.24197786 -0.45103657 -0.076219819 -0.064493485 0.69376945 0.13417891 -0.22327745 0.033336286 0.44992912 -0.18763453 0.25035709 -0.069801278 0.47154918 -0.073444925 -0.09851031 -0.0032413718 0.076225355 -0.075268678 0.3143073 0.74617261 -0.098389119 0.008648579 -0.21825753 -0.069245696 -0.12034233 -0.074209042 0.32246685 0.27868515 -0.28378627 0.029995196 0.12672913 0.10252333 0.35504219 -0.089118138 -0.0061037638 -0.46851808 -0.2967484 -0.0472732 0.065591238 -0.066938333 -0.37151527 -0.19178221 0.26992252 0.15155503 0.15654579 0.10249467 0.040884092 -0.17325775 0.14745235 -0.20832328 0.26526144 -0.35227707 -0.12536593 -0.42328942 0.081099294 0.21738 0.028905697 -0.045696795 -0.13929123 -0.47872618 -0.22760484 0.35237876 0.22680785 -0.22678028 0.25986019 0.039182547 0.24779341 0.017461378 -0.29678044 0.15896539 0.20928802 0.061627261 0.062090505 0.0044528586 -0.3272976 -0.12582225 0.29902408 0.54654264 -0.041821789 0.35273615 0.013577924 -0.29225293 -0.15088263 -0.19981118 0.16143349 0.1639751 0.15840939 0.16716103 -0.022981295 -0.04623761 0.21590312 0.18536638 0.12770574 0.018676447 0.043130398 -0.071115844 0.048105679 0.21684222 -0.083937861 0.18661603 -0.24076404 0.14605552 -0.10998286 -0.3237811 0.017419111 -0.16890854 -0.09494213 -0.28450435 0.036721691 0.33543721 -0.35786846 0.41091546 0.11012319 -0.28141671 0.041002575 -0.046133235 -0.38087475 0.13988924 -0.36938858 -0.016656073 0.31816486 0.17403993 -0.014478842 0.17922993 0.21641709 -0.12268674 -0.014595564 -0.44194195 0.53092039 -0.56251675 0.43560162 -0.15870358 0.21297924 -0.099031344 0.45942476 0.21127956 0.051914982 -0.020847538 -0.00079320261 -0.34129772 -0.14685506 0.28682691 -0.7672559 0.29776281 0.27197701 0.042311311 -0.38397667 0.10284206 0.038856015 0.070055343 0.028147042 0.17030004 -0.081838816 0.12748292 -0.23942229 0.33812794 -0.12425632
CTGC -0.2431123 0.053841528 0.22124991 0.25210184 -0.010514674 0.097893044 -0.26546162 0.13040654 -0.035886902 -0.024056241 -0.58298826 0.40154046 -0.15946035 0.16846323 -0.09813495 0.19155471 0.24131709 -0.13013846 0.21315368 0.10351724 0.42883995 0.11219013 0.071854591 0.30501702 0.267822 -0.2733804 0.13984869 0.33525726 0.32772872 0.33500463 -0.18790053 -0.21610135 0.21794033 -0.21856759 -0.04846124 0.53331244 0.12457781 -0.24477458 0.32998246 -0.081689648 0.16484953 -0.49124727 0.11071758 -0.058763932 0.11691411 -0.0079487683 0.24525766 -0.054400425 -0.45350555 -0.091500893 0.020005682 0.2626434 -0.69675469 -0.2465481 -0.63305765 0.33570573 -0.0013532639 0.61808944 -0.53183806 0.22091444 -0.54235101 -0.49573597 0.59995747 0.015487847 -0.064101785 0.3753871 -0.402605 0.11829865 -0.0051248823 -0.4242222 -0.98400515 -0.1552715 0.25556779 -0.26679078 -0.19586055 -0.10478029 -0.11107528 -0.53263885 0.088583298 -0.14803529 -0.46444106 -0.51420474 0.1557872 -0.32318956 -0.23513469 -0.33805022 -0.0023593558 0.08490257 -0.16698527 0.14886895 -0.35064551 0.59378606 -0.23413521 0.20591393 0.71193296 0.0041156495 -0.29565603 -0.33937919 0.29528865 0.26231542 0.031839117 0.23569903 -0.31155291 0.20590763 0.22393766 0.23999782 -0.19639561 0.48821157 0.0030244056 -0.63704002 0.65704751 -0.41804582 0.62234759 0.14334357 -0.27518776 -0.19007172 -0.51985294 0.60029054 -0.23151036 -0.34363624 0.50688183 -0.039172061 -0.20192418 -0.89718503 -0.31822094 0.10572588 0.39927414 -0.21361865 -0.25165924 0.0020699908 0.14642236 -0.05042873 -0.19321634 -0.89696097 -0.23148268 -0.30156812 -0.16072595 0.24631274 0.13373446 0.087002695 -0.080631778 0.050680701 -0.078458481 -0.34219283 0.086356819 -0.38288942 -0.10143484 0.069378704 -0.059016887 0.19873324 -0.27563563 0.36278683 0.055453591 -0.09619195 -0.056650575 -0.25630274 -0.55353022 0.12446702 -0.45983174 -0.010743559 -0.40376422 0.24291024 -0.025324367 0.012766983 1.0877497 0.30445513 0.027412159 0.089318149 -0.49944249 -0.47113609 -0.65951735 0.22482057 -0.17567502 0.13899083 0.16095696 0.53468496 -0.36412624 0.43748391 0.27070066 0.1561809 -0.34921807 0.016217247 0.21995357 -0.57038242 -0.27733642 -0.21058473 0.051737513 -0.038767114 0.89341736 0.18719992 0.17810354 -0.015059868 0.34034839 -0.19146809 0.51675266 -0.29663512 0.084257893 -0.14907165 0.17962414 0.32570618
AAGA 1.0037452 -0.011013123 0.3043704 0.20506541 -0.10811379 0.26736686 0.33331102 -0.032994539 -0.0002983938 0.14406809 0.29260263 0.0063490649 0.50568855 0.45833042 -0.074505575 -0.4207508 0.018937998 0.41444775 -0.19872536 0.21172841 -0.6075353 -0.42563996 0.033073697 -0.31419936 0.064371295 0.0763999 0.014658231 -0.11028222 0.13466276 -0.1410789 0.32027858 0.12646066 0.1226287 0.35351133 -0.097706512 -0.56315756 -0.055273816 0.13951455 -0.11076427 -0.11873991 0.097572193 -0.078712702 0.032243934 0.024450917 -0.7099849 0.29613179 -0.083942883 -0.068193324 0.60869324 -0.048583776 0.13720661 0.065656401 0.33973557 0.5234614 0.55920398 0.058265977 0.11471191 -0.34244412 0.19846308 -0.062399667 -0.14088306 0.19440897 0.46570075 0.15387917 -0.12367005 -0.17900179 0.21191314 -0.23756422 0.27221382 0.35444289 0.67040908 0.055936061 0.32506013 0.45215729 -0.029543022 0.7714175 -0.18238065 0.67947906 0.064150818 -0.23547809 0.34597257 0.3544088 0.13506372 0.34582171 0.26463917 0.49867877 -0.17247023 0.080558978 0.007167188 0.38904855 0.20759457 0.20225661 0.12200412 0.06047871 -0.78325099 -0.028406428 -0.097916469 -0.090085492 -0.10916182 -0.28334877 -0.19567811 -0.60061616 0.01148755 0.15657474 0.070937015 0.71961915 -0.25106248 -0.055558447 -0.10746157 0.37916729 -0.58991647 -0.17597875 -0.086677641 -0.45785913 0.86408478 0.41195333 0.067791767 -0.601237 0.075306132 0.50544614 -0.009082037 0.054921571 0.16484708 0.79505342 0.13950177 -0.090091512 -0.4314563 0.29607123 0.30908373 -0.13598581 0.41536328 0.10521227 0.15374532 0.96058983 0.11157124 0.13578761 0.13999262 -0.1247072 -0.13647459 -0.25452772 0.23340903 0.17694658 3.3903994e-05 0.17077735 0.1346512 0.34872952 -0.0076873521 0.13459109 -0.22628823 0.38882637 0.00025014352 -0.11430234 0.62058014 -0.37490478 0.93978226 0.22519749 0.010674843 0.48907691 0.19104551 -0.25951558 0.30185533 -0.81190938 0.34482843 -0.056044374 -0.33252296 0.1128452 -0.04984162 0.39144334 0.015041804 -0.22852975 0.22726025 -0.36242673 -0.3573193 0.093421295 -0.50673443 -0.48629752 0.064635731 0.034661945 -0.11593763 -0.69831359 0.23935281 0.11854339 -0.37788853 0.095513038 -0.21533537 -0.81236273 -0.15198533 0.49415952 -0.80223882 -0.80277157 0.30557457 0.21367073 0.31622338 0.056380033 -0.20807347 0.21153742 0.1959518 -0.23408766 0.48555067 -0.26615116
AGGA 0.3955287 0.15338552 0.33780801 0.13415308 0.05624285 0.2089386 0.4855184 0.023172703 -0.014947935 0.25121388 0.3771815 0.22688146 0.18907849 -0.13416345 -0.16534261 -0.38193595 0.16862804 0.0089847408 -0.33266282 0.0099789063 -0.19228788 -0.048808403 0.0057169204 0.19932894 -0.028716987 -0.22501555 -0.045020998 -0.22837585 0.073329411 0.40056106 -0.0126997 -0.2953704 -0.19896412 0.21131441 -0.010135815 -0.26247004 0.14806047 0.041577376 -0.0076472405 0.13928415 0.14906067 -0.36284307 -0.059789829 0.29137418 -0.44866702 0.17874935 0.19824232 0.35892177 0.38081878 0.19270174 0.36589241 0.40942329 0.11709817 0.1968649 0.17580262 0.50498396 0.10887182 -0.58407468 0.088470921 -0.13415176 -0.19808759 0.22307925 0.8897208 -0.21939148 0.035530996 -0.36365244 0.044499163 -0.25900325 0.49137601 0.41692612 0.5274381 -0.18177734 0.05666941 -0.12689559 -0.12316529 0.54699105 -0.043374762 0.20360956 -0.10730528 -0.55925876 -0.073508598 0.074028477 -0.31008849 -0.20698577 -0.36848441 0.56260699 0.21632451 -0.13050967 0.10698167 0.40093467 -0.54163992 0.30346891 -0.3096402 0.012191023 -0.019022718 0.026217304 -0.53258914 0.027631477 -0.33639377 0.0123954 -0.29611152 -0.29435748 -0.21564147 -0.13579696 0.5575701 0.43820885 -0.46553281 -0.038301811 -0.01720316 0.2062349 -0.55593622 -0.25764591 0.46416128 -0.1784569 0.12906091 0.68132675 -0.48763847 0.062755086 -0.20837642 0.1926077 0.51744521 -0.26007876 -0.039143261 0.15026462 -0.018799813 -0.088535756 -0.47264424 -0.084636815 0.45522955 0.058126021 0.12766834 0.063533567 0.18108578 0.45294416 0.040524118 0.068748005 0.13223849 0.12181284 0.15919749 -0.17192777 0.28364801 -0.0023901521 0.13072406 0.087137632 0.29310867 -0.017343931 0.080600798 0.26956886 -0.2829009 -0.09034925 -0.54096806 0.2579326 0.66509873 -0.52014327 0.29978266 0.1753398 0.082594685 0.60460806 0.1673265 -0.65883428 -0.014899984 -0.71404535 0.041866601 0.090881854 0.58097047 0.072025739 0.21335052 0.26561752 -0.11598622 -0.49027428 -0.44176942 0.56069875 -0.90007716 0.50596547 -0.48570493 0.040805276 -0.52770847 0.8554219 0.51599669 -0.33449396 0.37420031 0.1038873 -0.35900885 -0.054153051 -0.10252199 -1.0775876 0.14109066 0.34573916 0.067640886 -0.7495113 0.50644588 0.047961466 0.17801809 -0.27400512 0.15872462 0.12067579 -0.036898214 -0.4227204 0.5696581 -0.22915146
CAGA 0.18959774 -0.014691403 0.063810527 0.20256834 -0.14033644 0.092439175 0.095447153 -0.07012587 0.17053546 0.11463252 -0.15714164 0.15422665 0.12150656 0.067271762 -0.00370737 -0.11232097 0.072619751 0.23262219 -0.036859866 -0.072040759 -0.13883539 -0.0065789605 0.097067453 -0.037208922 0.00049263582 0.098600075 0.059700336 -0.10101192 0.10282636 0.16219629 0.018810926 -0.077175647 -0.11858206 0.13430656 -0.043370433 -0.052220844 0.14417297 -0.056219269 -0.01868438 0.11767375 0.068272911 -0.22460741 -0.077771127 0.019944189 -0.52920139 0.056200556 0.130619 0.038335726 0.15889493 0.04690592 0.033782989 0.26690879 0.12255494 0.18577184 0.11186311 0.087049559 0.019352268 -0.26935276 -0.063037597 -0.11760268 -0.12479575 0.020151583 0.50438941 0.016101431 0.18543783 -0.12995398 -0.065726422 -0.0044066003 0.18216412 0.087390274 -0.0077670491 -0.076027229 0.1804764 0.18611692 -0.22548467 0.34073812 -0.2648783 0.14460729 -0.25633052 -0.23085769 -0.019514898 0.013639014 0.084497675 -0.10939143 0.076636568 0.1658401 0.071058817 0.051204633 0.20991001 0.023861321 -0.092279963 0.22852829 -0.095691651 0.14141133 -0.28557935 -0.067945309 -0.3858009 0.017620042 -0.031275611 -0.043980144 -0.16957706 0.017472465 -0.26664817 -0.077374719 0.29398614 0.62685257 -0.21870503 0.0030355165 -0.046347354 -0.040482104 -0.058930293 -0.12544398 0.16696304 -0.0034946976 0.29328084 0.19841354 -0.061259683 -0.052415654 -0.21495545 0.13036701 0.51233613 0.10862701 0.13408183 0.21322228 -0.17421585 -0.19102097 -0.25633442 0.12586226 0.27601951 0.16379656 0.1271179 0.21958023 0.027178915 0.21790886 0.14121686 0.14149933 -0.12231847 0.19032149 -0.065868266 -0.20619231 0.0047344766 0.093304954 -0.18920411 -0.040391721 0.077671215 0.11592647 0.15285067 0.1749606 -0.17090707 0.041983318 -0.19962686 0.11154217 0.24263383 -0.14316034 0.38795441 0.20219056 -0.13111021 0.19726259 -0.070068322 -0.33740985 0.19160222 -0.33869922 -0.0069913538 0.12227421 0.13041982 0.1039697 0.071603887 0.11513451 0.07556089 -0.12837495 -0.13161363 -0.14076789 -0.36211252 0.19074394 -0.12637408 -0.27322626 -0.046459537 0.041132648 0.29425529 -0.22406374 0.15820313 0.21085688 -0.18305255 -0.063438363 -0.077534862 -0.43595904 0.13964745 0.15878618 0.014143444 -0.19102384 0.35238758 0.22681363 0.32887992 -0.19299965 0.33819881 0.017184554 0.21582694 -0.12942953 0.095990077 -0.32725605
GCAG 0.065822244 0.21148545 0.42624825 -0.08987876 -0.19495578 0.066767879 -0.24699372 0.28259686 0.192406 0.10197207 -0.18741408 0.39390448 -0.038636263 -0.11393938 0.57766843 -0.055542976 0.51105809 0.26425296 0.10231802 -0.30880204 0.79966402 0.23605509 -0.073115192 0.61983353 0.017721407 -0.32975498 0.07012561 -0.35985154 0.42986691 0.36202526 -0.081084087 -0.47779447 -0.36719227 -0.084141545 0.40431482 0.50057435 0.26899573 -0.19335411 0.36380073 0.019931065 0.21183954 -0.38508189 0.41373712 0.41200313 -0.33882031 0.15405042 0.071530066 0.26283035 0.21032786 0.16838399 0.27405646 0.21292372 -0.11339195 0.25456816 -0.16635215 0.13700931 0.39859468 -0.086018227 0.07200104 -0.22335537 -0.43137971 -0.023187932 0.53653091 -0.29889533 0.040173989 -0.0403006 -0.33700493 0.037491668 0.17742346 -0.033044837 -0.37273481 -0.16603144 0.11049898 -0.22417305 -0.40688258 -0.13397488 -0.480674 -0.71882874 -0.24821651 -0.27199456 -0.10361446 -0.50262457 0.30500594 -0.10007457 -0.33438954 -0.34139091 0.39526096 -0.13535216 0.17198327 0.11554147 -0.34526443 0.26911059 -0.48961017 -0.35044104 0.31268218 0.26112241 -0.3675586 -0.049107574 -0.54992861 0.027483648 0.10847387 0.28626168 -0.16815658 -0.037899278 0.36370674 -0.30509609 -0.55710435 -0.15992436 0.015857419 -0.21634717 0.092902824 -0.23166177 0.34718636 0.041778933 -0.23127298 0.3151733 -0.41352716 0.19157346 -0.62317711 -0.31773451 0.63015562 -0.042175021 -0.5725581 -0.34859779 -0.33975762 -0.14102852 -0.30297735 -0.19339643 0.27276358 0.27431521 0.20203941 0.20355736 0.14047095 -0.071978018 0.021782815 0.32797155 -0.082238168 0.35587797 0.31868464 -0.36198851 0.062332921 0.39000306 -0.60377121 0.027269199 0.51162857 0.010484349 0.31105974 0.71023238 0.10638939 -0.15069419 -0.59727794 0.21872777 0.19415639 -0.32459638 0.055259306 0.029565716 0.097704202 -3.7312857e-06 -0.0019066614 -0.16399245 -0.57838607 -0.32993966 -0.0027345205 -0.45730159 0.34428149 -0.12307697 0.26952529 -0.26298726 -0.6213209 -0.56748348 -0.46011513 0.72425705 -0.47208777 0.57911527 -0.48072654 0.46983588 -0.59498942 0.43887654 0.30948609 -0.1829908 0.46274072 -0.14361604 -0.094945379 0.13279457 0.28628454 -0.4170486 0.46951777 -0.13332902 0.72826314 -0.39853579 0.57179147 -0.15100458 0.36169934 -0.018832926 0.35808173 0.26296645 0.099279754 -0.32811946 -0.040090106 -0.30011144
GAAA 0.82649398 -0.036099754 0.13407046 -0.1598725 0.022201763 0.18182066 0.36169493 -0.24134637 -0.051256176 0.3218019 0.35038435 -0.066277288 0.41439414 0.41350201 0.068000093 -0.22275262 -0.13788511 0.49728593 -0.42220408 0.01632851 -0.48414806 -0.44594175 -0.094676822 -0.31584066 0.066671699 0.36366826 -0.20311615 -0.28579348 -0.28230566 -0.48298123 0.39984199 0.13374142 -0.088751793 0.35282665 0.15763089 -0.41210979 -0.24779402 0.29582903 -0.15668653 0.23680064 0.23532423 0.043876953 0.073028505 0.12277891 -0.44364616 0.31178471 -0.048137549 -0.064992554 0.416237 -0.011215683 0.069724433 -0.37495309 0.30469632 0.45278046 0.51462704 -0.16041777 -0.13720043 -0.28555155 0.56313908 -0.26894605 0.089966394 0.2364199 -0.11888935 0.25282586 0.029228017 -0.22537324 0.53977454 -0.0699789 0.1367199 0.14079644 0.92654324 -0.0034493071 0.18207283 0.42312869 -0.034856603 0.26179633 -0.18233502 0.74152637 0.37984663 -0.28521007 0.63712347 0.54005742 0.10341842 0.24905322 0.23247357 0.45885068 -0.33273479 0.35156801 0.14606422 0.60812402 0.72128344 0.10748676 0.27693799 -0.26438814 -0.29441676 0.094102643 0.45007011 0.20301467 -0.053680822 -0.36550987 -0.43495035 -0.34813797 0.042849742 0.14054501 -0.37500045 0.52238309 -0.081668854 -0.4094508 -0.028869919 0.46148512 -0.54560041 0.11935223 -0.54254067 -0.39671168 1.0061396 0.30630052 0.51453918 -0.6483472 0.22384566 0.52747405 -0.55678844 0.14359419 0.16052805 1.0994989 0.13427468 0.05897579 -0.38158813 0.28133598 0.057873353 -0.31234825 0.24612364 0.04757781 0.30871004 1.0785078 0.20453836 0.2917611 0.32439497 -0.31670532 -0.004850761 -0.42217675 0.23942316 0.20423076 -0.17824617 0.28499681 -0.036956389 0.3352069 0.15851541 0.15326981 -0.2970379 0.20262359 -0.020214288 -0.25364995 0.1070773 -0.24317446 0.37155226 0.22306748 0.28950223 0.26800412 0.55074829 -0.074055068 0.19609579 -0.40594569 0.15667324 -0.1871976 -0.62373513 -0.23855238 -0.21140577 -0.091461621 0.20745112 -0.016473029 0.73422635 -0.17336373 0.19121513 -0.050734203 -0.49055523 -0.3909314 0.42973903 -0.16205311 -0.65042746 -0.59417433 0.42385718 0.030748773 -0.10782641 0.38682494 0.030377114 -0.17108683 -0.17752257 0.18856405 -1.0042677 -0.51055861 0.23957746 0.065199912 0.18647431 0.071443476 -0.26897436 0.18217656 0.19956867 -0.098046705 0.46544132 -0.15426919
GAAG 0.69148988 0.22790425 0.1869193 0.060735717 -0.22299375 0.16704626 0.09736751 -0.18723457 0.039715119 0.22003992 0.33992413 0.18348613 0.28255156 0.34601733 0.10319349 -0.15544282 0.065628923 0.21304327 -0.26443711 0.07208252 -0.1160363 -0.38785508 -0.033684727 -0.025535395 -0.0064169182 -0.018622512 -0.20948073 -0.46671292 -0.0023749014 0.017172137 0.29887858 0.089581013 0.035699476 0.45825225 -0.00032819487 -0.32129908 -0.035208341 0.074123576 -0.048305999 0.062668644 0.30585921 -0.44721934 0.12984955 0.175721 -0.38000867 0.25569916 -0.0076906537 0.018301832 0.49891022 0.15023641 0.22274712 -0.13764958 0.061717737 0.30437523 0.32100812 0.083324082 0.0067163683 -0.13286589 0.62194729 -0.092648424 -0.21640748 0.41796792 0.23784748 -0.034154847 0.06402833 -0.29518461 0.22133884 -0.1896615 0.32653749 0.088914558 0.37090433 -0.17107493 0.044542074 0.21136349 -0.19031422 0.41266271 -0.4046357 0.15013756 0.027901528 -0.48801294 0.37864849 0.26783529 0.1513727 0.21695638 0.040694132 0.34261844 -0.032332849 0.2342422 -0.047118399 0.29593569 0.13614155 0.58909082 -0.15795533 -0.19249386 -0.023970783 0.17030147 -0.28023013 0.16961239 -0.30227289 -0.12343895 -0.20526728 -0.34278053 -0.078786969 0.073760077 0.028383685 0.32042482 -0.29421571 -0.29724801 -0.13787518 0.15849267 -0.15168482 -0.3828668 0.062049143 -0.18917498 0.19522768 0.47427154 -0.062976852 -0.43566027 -0.3372739 0.16095908 0.21518128 -0.12700973 -0.2478295 0.49247697 -0.13534994 0.11330743 -0.40150574 0.28398541 -0.037025843 -0.17148013 0.53994262 0.21094567 0.24697532 0.55644637 0.14706825 0.6073128 0.39596164 0.095933311 0.04908254 -0.39655703 0.083868213 0.41162288 -0.34362179 0.16945833 0.26136163 0.05026862 0.12198151 0.39940292 -0.15783471 -0.16508354 -0.54258054 -0.074535683 0.53956103 -0.24415125 0.3375206 0.28986165 0.43682513 0.45583493 0.50713706 -0.50630146 -0.28997755 -0.63735807 0.26392463 -0.2581692 0.21769828 0.034299653 -0.071418688 -0.085926026 -0.46433172 -0.54942548 0.10200278 0.74316311 -0.32465518 0.50920755 -0.4250696 -0.016851814 -0.30364829 0.64161211 -0.26149714 -0.6492545 0.47066888 -0.11810746 -0.13126868 0.21455489 0.21665807 -0.86021847 0.082191356 0.28247321 -0.34937632 -0.73605955 0.46928775 -0.0069177756 0.3087098 0.026180802 -0.18335344 0.24741127 0.36113238 -0.35108548 0.34831956 -0.42218673
ATTT -0.052686282 -0.0026183801 -0.3048023 -0.17796974 0.21274836 -0.26211461 0.38125101 -0.53661895 0.20163254 0.11687539 0.28668478 -0.45172432 -0.1099143 0.52105987 0.07974837 0.16187088 -0.22686668 -0.026205586 0.12378756 0.096899047 -0.81525666 -0.33794546 0.082560651 -0.55961078 -0.22975644 0.20506246 -0.17924646 0.36363646 -0.77285641 -0.39724374 0.23001163 0.26876056 -0.14284453 0.0076770051 -0.10235418 -0.54066169 -0.39610723 0.18223919 -0.42863539 -0.056424275 -0.44273251 0.75817716 0.032124739 -0.30902621 0.38410899 -0.10150017 -0.46085823 -0.13075566 0.56075698 0.10843578 -0.027479647 -0.3349655 0.37603062 -0.062484104 0.58832723 -0.093017943 -0.20945668 -0.15025876 0.075812839 -0.14283602 0.86309254 -0.19972286 -0.82547903 0.26955903 -0.45877615 0.17006767 0.27237532 0.16145198 -0.29713887 0.44497237 1.0448465 0.33844465 0.26521397 -0.031345241 0.65511698 0.042385947 0.66558361 1.0381559 0.57056993 0.53958613 0.63591176 0.49292892 -0.35816705 0.12416875 0.43908191 0.18715827 -0.31226212 -0.14341444 0.30779737 0.23039994 0.74929613 -0.73704743 0.93959111 0.13895664 -0.82794243 0.058685176 1.3052785 -0.04588205 0.24036404 -0.3089045 -0.094796948 -0.60115343 0.7472741 -0.33322805 -0.91972482 -0.040717304 0.36262611 -0.57622111 0.09491659 0.29111335 -0.45279694 0.50478017 -0.86492676 -0.30583465 0.71893847 0.16952798 0.95313334 -0.087409697 1.0412472 0.28863844 -0.99834144 0.19316588 0.56226969 0.93100584 0.57888561 0.032599077 -0.031667963 -0.13800147 0.27981037 -0.13715924 -0.43863028 -0.37013605 0.18319343 0.82078654 0.043888893 -0.40164417 0.057992402 -0.54506683 -0.15715423 0.22633612 0.4513616 -0.20856525 0.81097233 0.075418554 -0.30027172 0.60038847 -0.26690784 -0.39159176 0.3544687 0.14843343 0.63103068 -0.253647 -0.65520072 0.052260246 -0.28959993 0.36489511 0.50520563 -0.094174929 0.34908211 0.94112122 0.65679526 0.44446316 -0.16100995 -0.16447411 -1.2573116 -0.10116541 -0.15563218 -0.1412717 0.88651985 0.64080083 0.90430456 -1.0457463 0.84257692 -0.89418328 0.47475877 -0.67285395 0.66355169 -0.69505292 -0.65219623 0.10269961 0.026050571 0.18178456 0.278779 0.75728595 -0.22162712 0.98531646 -0.68054646 -0.084385909 -0.91586244 0.40093094 -0.31172085 0.01474952 0.00049823686 0.15020938 -0.47363263 0.22476622 0.055437453 0.10885493 0.20366204 -0.11226034
AAAT 0.43804139 -0.15283421 -0.30947691 -0.23045722 0.14987557 -0.14575335 0.43368411 -0.41370857 0.017124698 0.18692574 0.31973287 -0.40757921 -0.007146772 0.46635839 -0.2754449 -0.37993816 -0.30499682 0.22549433 -0.20773087 0.22396106 -0.78826082 -0.4570635 -0.19514266 -0.58599615 -0.16303633 0.3418276 -0.26556677 0.076083474 -0.54223198 -0.56950396 0.37835285 0.40854204 -0.50248307 0.21439077 0.0065044384 -0.54809624 -0.66776997 0.47090945 -0.4192526 0.28344485 -0.35207745 0.88141036 -0.055659533 -0.28940392 -0.068227991 -0.055605136 -0.33815861 -0.12123115 0.82080817 -0.017379815 -0.21448928 -0.32702392 0.70591432 0.33148175 0.58732462 -0.2246083 -0.18054172 -0.32514095 0.16403246 -0.17407632 0.60726082 0.096076846 -0.70582032 0.35343659 -0.27545336 0.010991471 0.3314645 0.0026479075 -0.0020894436 0.35928559 1.2564186 0.44923317 0.084125191 0.26715508 0.38427213 0.2635273 0.38647673 1.0391639 0.35915378 0.23879382 0.62600332 0.63267845 -0.40916029 0.33064955 0.64099735 0.67318881 -0.41465259 0.14495356 0.22225891 0.14212446 0.70270211 -0.41440618 0.77331829 0.031688429 -0.91080135 0.16241485 0.98712772 -0.089654446 0.022095693 -0.21990454 -0.55813581 -0.28095621 0.17576391 -0.36086246 -0.48785603 0.26586223 0.35856491 -0.62902874 -0.0063669998 0.45262253 -0.97068614 0.5453316 -0.69895655 -0.43694809 1.0613821 0.32276204 0.67933571 -0.37776688 0.55409151 0.53810298 -0.8670271 0.28604862 0.42641249 0.99492258 0.58939296 0.14662088 -0.35103166 0.21061736 -0.066636272 -0.34137115 0.14995362 -0.19227052 0.15531801 1.002179 0.18073365 -0.15397364 0.24845089 -0.45722628 -0.060822178 -0.22881591 0.50165284 -0.085332505 0.13790068 0.21166205 -0.3388623 0.3703106 -0.12260817 -0.26147065 -0.074118763 0.17624624 0.28388181 -0.20321497 -0.18371479 -0.2908529 0.109555 0.29694238 0.46461153 0.14122741 0.65224165 0.53047228 0.71649206 0.069364406 -0.078055479 -0.046841741 -1.2304018 -0.23341215 -0.12547389 -0.061938286 0.70154297 0.34278956 1.0547744 -0.8270033 0.5800783 -0.5932377 -0.12522784 -0.80517322 0.56306493 -0.64234298 -0.3374199 -0.17630662 0.14549048 0.17472892 -0.037092112 0.4850024 0.010294107 0.49418437 -0.14886741 -0.024178535 -0.78957194 0.030615477 -0.052217428 0.022794928 -0.22934906 0.06548775 -0.32328174 -0.01484926 -0.16043422 0.12958653 0.16266868 -0.1154404
CAGG -0.31054029 0.088867955 0.070401534 0.33373496 0.09886004 0.55740273 0.016267901 0.16231723 0.11073206 -0.050178513 -0.18187152 0.40516099 -0.076869749 -0.21699592 0.00099725218 -0.2761097 0.62519056 0.064335428 -0.022771684 -0.18405718 0.083241604 0.30581656 -0.052766036 0.33444661 0.29447696 -0.49172732 0.33532107 0.11836621 0.22018568 0.38307118 -0.57646519 -0.62854958 -0.26121455 -0.23374242 -0.03910289 0.18104276 0.32530144 0.027974555 0.37901074 -0.2849583 -6.1015475e-05 -0.23645014 -0.057943616 0.23920538 -0.19775471 -0.40803501 0.44653183 0.3179926 -0.52683777 0.19379696 0.28337309 0.54030085 -0.23115444 -0.13924007 -0.17277765 0.14904247 0.069543511 -0.082941771 -0.26342058 -0.29528505 -0.21967523 -0.12404629 0.52305353 -0.33748111 0.055687606 0.063148394 -0.094474137 -0.0062410762 0.39841464 -0.0091861328 -0.051709179 -0.096093647 -0.10424349 -0.35448059 -0.25234103 -0.0091497693 -0.21948715 -0.31557235 -0.34601486 -0.16461624 -0.083463535 -0.19399935 -0.030806966 -0.080344521 -0.50605679 -0.0074503985 0.11803738 -0.11423374 0.33317897 -0.14844255 -0.5957275 -0.043441113 -0.1997015 -0.06313365 0.33075184 0.29277235 -0.49043146 -0.052090764 0.090835921 0.31418687 -0.11980759 0.20497234 -0.77116501 -0.10341452 0.89478695 0.28377977 -0.61341292 0.23981872 0.12718184 -0.074457467 0.22633159 -0.50033963 0.31858614 0.28729993 -0.25673532 0.03969555 -0.50697374 0.55135751 -0.4083699 -0.017293781 1.0475919 -0.18173991 0.037753865 -0.25260183 -0.49134657 -0.35039881 -0.03585954 -0.082702421 0.24561483 0.27044633 0.14945163 0.023380501 0.08744783 -0.54352582 -0.061522014 0.50136566 -0.29267362 0.40568703 0.13584055 -0.17456098 -0.076476112 -0.27235135 -0.34763101 0.13128962 0.3278006 -0.21840337 0.19921158 0.039938256 -0.32260254 -0.025219122 -0.54587734 0.44001597 0.26478416 -0.34126034 0.2488981 -0.12605377 -0.29076964 0.32120058 -0.047866549 -0.3950507 -0.18841815 -0.53634846 -0.093968898 0.061209764 0.59998149 0.26556876 0.043775123 -0.21653508 -0.36691573 -0.40891749 -0.38970989 0.380263 -0.83550048 0.54570085 0.12570043 0.26998171 -0.41843754 0.57263875 0.5775122 -0.033334728 0.16577132 0.25569555 -0.24816631 -0.31911793 -0.071397729 -0.60189736 0.02732328 0.16824935 0.86499035 0.011202802 0.33428302 -0.11048985 0.15887637 -0.22829321 0.56781983 -0.39028633 -0.045639317 -0.15680639 0.22876756 -0.058869861
AAAG 0.58761483 -0.052129179 0.12680867 0.021597385 0.24922769 0.12975369 0.69715422 -0.46363032 -0.056824442 0.13811228 0.45516914 0.052162349 0.14175934 0.62470752 -0.10529957 -0.50069457 -0.023668014 0.28845748 -0.16673119 0.30081904 -0.69082284 -0.35902762 0.1715977 -0.36236629 0.070675679 -0.038569629 -0.26512802 -0.088100523 -0.25023496 -0.25585628 0.16759929 0.36568487 -0.048361074 0.2506097 0.11373314 -0.59040403 -0.40842038 0.28560257 -0.2837559 0.055548355 -0.064718835 0.069370158 -0.0034527977 0.027378775 -0.097041935 0.0052345525 -0.092528313 -0.1596625 0.48850548 0.036152992 0.16853046 -0.3119739 0.28933266 0.16141078 0.55537856 -0.04729528 -0.11632799 -0.46961981 0.37484646 -0.20745865 0.0061188019 0.34821659 -0.026574288 0.092536867 0.056416698 -0.017890928 0.24199787 -0.019676238 0.35050261 0.1979595 0.93504894 0.11410961 -0.014884254 0.25654617 0.053877939 0.44845489 0.1227524 0.57034117 0.31889492 -0.32188898 0.39529353 0.4536469 -0.10783739 0.41631714 0.28556627 0.51722437 -0.21177034 0.035902359 0.10145336 0.2011597 0.29176706 -0.0081515294 0.5562225 0.21121272 -0.86279613 0.096810803 0.54565835 -0.18179451 -0.014938606 -0.25322238 -0.68630463 -0.66563445 0.048859902 -0.074217685 -0.30746201 0.41532773 0.074723303 -0.42234722 0.074825995 0.33978263 -0.73675406 -0.094719887 -0.24034782 -0.66152436 0.96228719 0.44467539 0.2401845 -0.6352843 0.33372828 0.60966867 -0.25001287 -0.026546385 0.077292234 0.76741487 0.26479936 0.015339781 -0.5678997 0.20870952 0.037432387 -0.27038595 0.3182402 0.034743849 0.23595019 1.0356964 0.12387538 -0.054124031 0.16804336 -0.2080089 0.023150777 -0.21080685 0.21239863 0.00099570851 0.13168563 0.4762556 0.075894594 0.31550685 -0.10486899 -0.10839824 -0.17407301 0.3131935 0.18426368 -0.00099803391 0.37617084 -0.28049022 0.39988586 0.20194291 0.52093643 0.38595477 0.64782572 -0.0629379 0.32593447 -0.61997002 0.095083147 -0.067673281 -0.49311864 0.016016897 -0.034178697 0.36510471 0.20701812 -0.10768779 0.47939071 -0.36539626 -0.083952725 -0.26712275 -0.32048628 -0.40486768 0.13350779 0.0080851102 -0.177388 -0.46191064 0.19867484 0.38680378 -0.20168725 0.32693329 -0.22842325 -0.30835691 -0.49060699 0.34806928 -0.6077438 -0.2592929 0.23135184 0.39111233 0.21337248 0.072759569 -0.22346275 0.14996801 0.01669869 -0.070303336 0.15745783 -0.237326
CCCA -0.81818515 0.0040185824 0.35306084 0.28399801 0.31315014 0.10237674 -0.03764344 -0.25368762 0.24407077 -0.044898845 -0.31810784 0.40508574 -0.55052084 -0.052971475 0.20332895 -0.027196048 0.37821478 0.50447047 0.21804619 -0.2479481 0.34603363 0.54274756 0.3866007 0.10304788 0.36395237 -0.39256573 0.15632486 0.32028452 0.45035666 0.39171869 -0.32992685 -0.16227326 -0.068871319 -0.14924091 -0.00033561297 0.34240553 0.61207998 -0.15431716 0.14804146 -0.12845635 0.080854788 -0.66939253 -0.069315769 0.24687403 0.24047454 -0.17253631 0.46385872 -0.21473899 -0.84777516 0.06753134 -0.22660294 0.20031825 -0.45432356 -0.6724813 -0.4428682 0.095797032 -0.15519787 0.15070394 -0.15497948 -0.060759839 -0.71152925 -0.065088347 0.47146639 -0.2128838 0.37525457 0.29763797 -0.43387741 -0.17717187 0.22346199 -0.19690573 -0.62576777 -0.20172532 -0.031397991 -0.46610656 -0.27838746 0.1667304 -0.34293336 -0.33033529 -0.035767443 0.25173506 -0.38197374 -0.39176583 0.072819993 -0.21005817 -0.29845726 -0.45515269 0.051016167 -0.40853614 0.18053298 -0.51316828 -0.52900118 0.5425477 0.14088738 0.12391102 0.19751145 -0.089590907 -0.65540361 -0.27130929 0.16892016 0.36737329 -0.077482231 0.54440355 -0.66888541 -0.10350806 0.39066666 0.14370354 -0.27387241 0.62571526 0.30271131 -0.54715431 0.57456565 -0.59501529 0.80133283 0.15120012 -0.54988003 -0.19157246 -0.50405377 0.34980452 -0.63362527 -0.13319205 1.026859 -0.2162697 -0.1971257 -0.79167318 -0.46275133 -0.12020286 0.2095222 0.14173573 0.14703009 0.31135938 0.14779882 0.18151891 -0.34459245 -0.71518964 0.081175692 0.23383194 -0.2578558 0.47688869 -0.0087264851 -0.024683993 -0.54302794 -0.050688405 -0.14359342 0.02620982 0.1710149 -0.17266576 0.066596866 -0.35623142 0.050867744 0.054956168 0.15359166 0.28368896 -0.0064946208 -0.00053973822 -0.10799405 0.041240044 -0.089764811 0.45041555 -0.036803704 -0.11942629 0.35966471 0.2309273 -0.39137796 0.20906419 0.28087986 0.027351003 0.040953416 0.00024416565 -0.10263708 -0.38148278 -0.65339983 -0.4006049 -0.52443296 0.13881108 0.19954972 -0.16357984 -0.57186258 0.073284425 0.69463503 0.15656321 -0.23369502 0.44089586 -0.30498326 -0.21838802 -0.084262237 0.12045019 -0.073514201 -0.093420006 1.2328675 0.29591608 0.49808839 0.23554243 0.2624861 -0.36564508 0.75741565 -0.50245345 -0.36502358 -0.090725496 -0.16664593 0.14525321
GAGG 0.41728446 0.11743082 0.40069848 0.23866625 -0.0071499525 0.14445266 0.19902849 0.44519836 0.007148067 0.18421155 0.45445269 0.47963098 0.31667045 -0.026042271 0.15566078 -0.076834224 0.44644648 -0.2300889 -0.099145234 -0.16119237 0.62288719 0.19892855 0.025468234 0.66251397 0.18235061 -0.4372282 -0.10936821 -0.069632605 0.35397658 0.09359207 -0.2080256 -0.53289419 -0.17730726 0.30599409 0.12282981 -0.034953579 0.74223363 -0.11571653 0.34960774 -0.18125562 0.39219475 -0.47260907 0.022572851 0.42365202 -0.30279446 0.50815403 0.39765564 0.23122725 0.11579362 0.20256183 0.70333135 0.38125634 0.069290265 -0.075250857 0.1195389 0.12262052 0.29526812 -0.31084579 -0.020499952 -0.22336297 -0.18037072 -0.037713043 0.73135298 -0.35014713 -0.25684398 -0.3204973 0.043881286 -0.30147898 0.73345613 0.090222329 0.13916858 -0.52044576 0.14832182 -0.20756032 -0.28072819 0.45275596 -0.27501813 -0.057722464 0.074805751 -0.29267669 0.15774482 -0.038986877 0.31528497 0.19798361 -0.49264479 -0.073038518 0.13815254 -0.23752049 -0.04425139 0.24145086 -0.56138372 0.34039119 -0.43049923 -0.22041652 0.046832066 -0.26400378 -0.50032026 0.42676747 -0.63880706 -0.16388476 0.14248985 -0.35345966 -0.088211387 0.4619441 0.50158215 0.13523848 -0.77388138 0.38349533 0.13637276 -0.063356981 0.17004095 -0.67415148 0.25464579 0.16246873 -0.30112708 0.42661753 -0.62405646 -0.016595922 -0.74907637 -0.02027653 0.79330254 -0.33517793 -0.53826267 -0.19583564 -0.2340828 -0.29948166 -0.65493971 0.079116583 0.23095225 0.040148236 0.3733055 0.12958759 0.18187721 0.20846391 0.06089953 0.73687506 0.15353222 0.37185895 0.069768265 -0.25342309 -0.083655737 0.51878077 -0.4956947 0.28194228 0.69387394 -0.33021408 0.5985105 0.4441022 -0.15999766 -0.15940687 -0.87996173 0.20067556 0.72048825 -0.38172418 0.34537402 -0.22745726 0.50160778 0.73323268 0.061640505 -0.96678013 -0.31861606 -0.88501596 0.18019204 -0.26282611 1.3134331 0.17872691 0.017306224 -0.17298642 -0.3927722 -0.80468416 -0.567514 0.81853187 -0.95203996 1.0208213 -0.65377402 0.24347496 -0.54377037 1.1621324 -0.0096846716 -0.44505271 0.42825082 -0.094467133 -0.12877566 -0.033848491 -0.1075324 -1.0894983 0.016970605 0.39754221 0.60234189 -0.56011307 0.55328715 -0.21265949 0.53195995 -0.2220237 0.34586197 0.11826693 0.31639057 -0.25086844 0.40049371 -0.28197357
TGAA 0.45839509 0.17013152 -0.34849524 -0.13953395 0.064372897 0.082722858 0.31502151 -0.32642725 0.15955982 0.15593314 0.08652395 -0.35229897 0.17032823 0.37493548 -0.046531748 -0.1027164 -0.27992091 0.09224689 -0.11149901 -0.0018984551 -0.79713494 -0.42137352 0.038016811 -0.53584731 -0.20237826 0.15993375 -0.064123288 0.13131848 -0.16579062 -0.12316891 0.28051308 0.15722899 0.050701633 0.27998891 -0.11641572 -0.41500834 -0.017670315 0.03129489 -0.24497113 -0.28099635 -0.24554989 0.30445102 -0.15326437 0.0027913898 -0.29834065 0.103397 -0.20500916 0.48122513 0.49585286 -0.085915983 -0.046818234 0.018304314 0.16548128 0.38177791 0.14112017 0.09921746 -0.10548886 -0.2590335 -0.0073884539 -0.096369967 0.046443503 0.30456972 0.35384658 0.21198374 -0.13424268 -0.25056359 0.20316228 0.027304117 -0.22652887 0.19343975 0.63600284 -0.14825143 0.28301775 0.32132399 0.29069445 0.36342996 0.031438082 0.36381692 -0.13439637 -0.21707095 0.377092 0.56738108 -0.018391209 0.012478562 0.31124821 0.29676196 -0.13945189 0.1832559 0.10904621 0.40378156 0.33145019 -0.11137553 0.13677411 0.17040357 -0.50737923 -0.063591562 0.09247946 0.16176413 0.032919168 -0.054091752 -0.19091849 -0.22553645 -0.052150052 0.034916051 -0.13289076 0.50787979 0.10213896 -0.10667327 0.047442432 0.44839767 -0.40473878 0.021152211 -0.23576549 -0.08070536 0.50284761 0.015804878 0.36793318 -0.54630071 0.256789 0.34237155 -0.076535441 0.17225611 0.3741937 0.51857781 0.03228059 -0.099196129 -0.18526088 0.24877538 -0.014151379 -0.0040108017 0.12126348 -0.031954493 0.047155526 0.79784518 0.36764228 -0.013493711 0.21369211 -0.15309422 -0.17189178 -0.01390666 0.42901272 0.16440259 0.20937946 -0.16072053 -0.13856152 0.25247175 -0.2116428 -0.16329625 -0.26626381 0.095449403 0.095655791 -0.11164168 0.23691708 -0.070247777 0.58750421 0.18138403 -0.16605836 -0.063427776 -0.040043291 -0.014402906 0.35720068 -0.27251297 0.20609142 0.18329352 -0.64565378 -0.0072039394 0.074903212 0.21570598 0.43052137 0.31576753 0.27170488 -0.24844152 -0.11637072 -0.11616365 -0.14685771 -0.35113007 0.40159762 -0.14658219 0.02473516 -0.024206704 0.021591825 0.01793313 -0.34443578 0.15536466 0.062690087 -0.29858196 0.030315626 0.23320571 -0.98550397 -0.31839174 -0.25194383 0.11296351 -0.10426559 0.029935597 -0.058329675 0.011350904 0.084493525 -0.00091104856 0.16828597 -0.16638547
TGTG -0.63773429 -0.0088586789 -0.61015379 -0.14302455 0.11642607 -0.25546491 0.30179873 0.15409112 0.33475676 0.26745269 -0.2696133 0.020803805 -0.11123934 -0.36265248 0.04221059 -0.14724953 0.1946633 -0.56939214 0.013801971 -0.47458237 0.052793071 0.096706688 0.15016405 -0.33814234 -0.63191766 0.42995906 -0.56735158 0.85341156 -0.035660096 0.18473363 -0.20246477 -0.80119133 0.089728445 -0.015858453 -0.040877711 -0.23081307 0.59143138 -0.20927352 -0.037562445 0.7828635 -0.0095117521 0.067201167 0.052613437 0.28876224 0.20776732 -0.10601816 -0.26524982 0.81634277 0.15089342 -0.0069251531 0.13823447 0.47896922 0.012361619 0.50963521 0.13046044 0.093542844 0.17302391 0.16522869 -0.21287966 -0.26935032 0.16361576 -0.032307528 -0.057594173 0.20869224 -0.69081807 -0.26338112 -0.44372013 0.42706704 -0.088401571 -0.38894644 -1.0352371 -0.45790029 0.67950785 -0.5069145 0.32645473 0.22475877 0.46029627 0.76485497 0.21358983 0.4254477 -0.69630384 -0.082215928 -0.5319128 -0.25256062 -0.39672813 -0.094169222 0.21250542 -0.067649007 -0.087677635 0.58775973 0.40933749 -0.1194899 -0.06915953 -0.56803125 0.21777864 0.33620003 0.11562617 -0.28013235 -0.37114069 -0.12385717 0.25405538 0.56643045 -0.56146216 -0.27550393 -0.5279302 0.56505066 -0.22127758 0.012581416 -0.20141487 0.29542655 -0.47764894 0.63036835 -0.59817845 -0.051676691 -0.21038991 0.39060298 -0.17217156 0.90620959 1.0498716 -0.38805759 -0.50963235 0.25143865 0.3363291 0.55040359 0.58560854 0.41297925 0.80337781 -0.16236095 0.063977391 0.07158912 -0.73888022 -0.08835984 0.37035578 -0.66761589 0.29414645 -0.1272644 0.22220467 -0.1703814 -0.097654156 -0.19910415 0.30702311 0.11646184 0.33116096 -0.075823762 -0.36051002 0.034921534 0.66566569 -0.021341074 0.10553648 -0.32180297 0.46021757 0.33596957 -0.028313074 -0.2410357 -0.40168262 -0.16606203 -0.55930912 0.19500872 -0.96030134 -0.026482375 -0.024040258 0.42809591 0.21979687 -0.40033215 0.73524714 0.24746592 -0.074370079 -0.25138175 -0.58019537 0.53087896 -0.22551002 0.52645218 -0.086914323 0.65109104 -0.73263711 0.38421369 -0.077089131 -0.015635421 -0.23434286 0.15551117 -0.0019117409 -0.10720327 0.10925239 -0.68513948 -0.44384703 0.5387485 0.18063094 -0.2789388 -0.19167627 -0.1127012 -0.26446339 -0.35628688 -0.11027317 -0.41468874 0.094092436 -0.411183 0.057573605 -0.03865305 -0.45872918 0.25841349
TTTG -0.31151667 0.092699841 -0.023790533 -0.079242848 0.59048653 -0.12310974 0.6350897 -0.42126229 0.18521671 -0.15633267 0.30704024 -0.34926611 0.13845234 0.25943279 0.22637843 0.057662126 0.16181202 -0.085205011 0.082971625 0.054171037 -0.66892296 -0.1779063 0.060973261 -0.60460138 -0.16542976 0.23517823 -0.33743066 0.5709725 -0.54210281 -0.1694327 -0.01601772 -0.12560715 0.057950862 -0.0015972924 0.053169329 -0.49086133 0.25109205 -0.13985412 -0.035736691 -0.17791647 -0.063601844 0.31537873 0.026686424 -0.034096975 0.23099472 0.070159987 -0.17518197 0.24429856 -0.051988222 0.053592082 0.2475681 -0.22428615 0.19620863 -0.30204022 0.37384734 -0.23839387 -0.34856346 0.084123999 0.10850282 -0.16396804 0.47492179 0.057801139 -0.84315693 -0.12410143 -0.27983171 0.01776121 0.22862278 0.0086966604 0.063119955 0.074230701 0.64102638 -0.025466558 0.10977457 -0.17399736 0.4557721 0.076284394 0.54413027 0.89218152 0.54590881 0.53267813 0.36533979 0.33896422 -0.11058251 -0.089483447 -0.15646121 -0.05127161 -0.13236855 -0.063833535 0.39013007 0.52325255 0.68109918 -0.41086972 0.57706624 -0.17225789 -0.26276872 0.16082294 1.0816259 0.21276999 0.27660689 -0.36322778 0.06699679 -0.40346363 0.35561126 -0.27863526 -0.56034815 -0.048821952 0.08033748 -0.10877204 0.13517894 0.22574589 -0.068612397 0.19756639 -0.68571049 -0.20513733 0.070359662 0.17882958 0.57766372 0.14073922 1.028309 0.035128251 -0.76469356 0.0060949782 0.29055151 0.85232443 0.38589725 0.27663013 0.12915501 0.089179993 0.1697333 0.031833127 -0.23930764 -0.3354547 0.2368682 0.20435365 0.021323578 -0.14844815 0.15588906 -0.31797287 -0.047106534 0.027156631 0.19504459 -0.05619131 0.61232919 0.26027769 0.087851197 0.31817439 -0.11504942 -0.38554317 0.23336349 -0.056720607 0.45154244 -0.0035084276 -0.37711811 0.088953778 -0.35248587 0.080168769 0.38841501 -0.034774266 0.068404421 0.33244577 0.38894486 0.13617003 -0.030591203 -0.15757588 -0.62651104 -0.15155773 -0.067301683 -0.15520395 0.16487898 0.51136935 0.37327856 -0.24064825 0.47343707 -0.51715094 -0.04485701 -0.30615041 0.61809462 -0.074917413 -0.48074433 0.13262865 -0.061055556 -0.016187837 0.13338463 0.52767032 0.015721893 0.70349056 -0.2442755 -0.14610828 -0.61046541 0.12585329 -0.11924111 0.1499263 0.16598056 0.070651919 -0.3978945 0.30625769 -0.048837196 0.13750364 0.13849249 0.01629683
AGAG 0.15317637 0.28543139 0.37063405 0.31489959 -0.024625897 0.041796327 0.48494691 -0.0073077506 0.12386078 -0.0133377 0.10846287 0.12080996 0.11552282 0.36046961 -0.033328168 -0.4989149 0.31386918 0.074135035 -0.026028177 0.063969053 -0.27779442 0.15021741 0.32894406 0.0040825857 -0.013289936 -0.2064041 -0.27296844 0.059039712 0.10524273 0.036125302 -0.22264282 -0.063815996 -0.097291373 0.19573201 0.22486216 -0.24680963 -0.0095998123 0.21120091 0.028541323 -0.056312446 0.0013500287 -0.22528324 -0.0078445086 0.23274538 -0.19093184 -0.1343102 0.081232131 -0.060352974 0.46414429 0.22525631 0.20858128 -0.068818994 0.29800746 0.057211552 0.38180432 0.094450861 0.062063597 -0.34359044 0.12081166 -0.081877902 0.037499506 0.18813147 0.57862794 -0.39589956 0.099306479 -0.10532682 0.048841111 -0.25655746 0.41157997 0.10147096 0.48248288 -0.27536502 0.10689602 -0.20403843 -0.030951716 0.51140887 -0.064455815 0.10801616 0.12804563 -0.47851014 0.019441182 0.026869765 -0.14401104 0.33072945 0.046587247 0.27326465 0.27212536 -0.30573753 0.1644066 0.23381987 -0.23821177 0.076584496 -0.094308682 0.18026704 -0.5742045 0.08978498 -0.31815889 0.13890965 -0.65876925 0.35278231 -0.28315574 -0.14663461 -0.27955911 -0.095799513 0.40927494 0.24919762 -0.1866969 -0.25882667 -0.038266219 0.1114501 -0.40472203 -0.14859398 0.12465815 -0.21153416 0.28361902 0.58721453 -0.50084394 0.079425558 -0.22288753 0.047218047 0.35016939 -0.039216649 -0.47555158 0.21670972 -0.13835421 -0.34791443 -0.34287173 -0.063917391 0.2060331 0.04810109 0.22152242 0.2541686 0.30576628 0.40792757 0.22714852 0.33141679 -0.08340732 -0.047761787 0.17192306 -0.30475253 -0.048026677 -0.030042082 0.15447527 0.46729627 0.26699081 0.066975936 -0.027888564 0.20338391 -0.1371236 -0.032395829 -0.42768922 0.13379295 0.87209356 -0.2258988 0.087684691 0.10585682 0.6050033 0.52814353 0.26977772 -0.55756259 -0.35629544 -0.85592151 -0.069833614 -0.088339806 0.43382463 0.33238879 0.1942775 0.22959971 -0.21129844 -0.50434434 -0.051864311 0.4057309 -0.79733425 0.50409299 -0.48991308 0.029715214 -0.31625712 0.1795443 0.22701278 -0.43483871 0.22747552 0.29680389 -0.38099721 -0.045634687 0.014716906 -0.84975308 0.034467142 0.48877272 -0.24407917 -0.47833985 0.15457508 0.20167242 0.1897831 -0.018290039 0.053038459 0.12719627 0.074333727 -0.45637015 -0.17246611 -0.32739964
TCCT -0.37924853 -0.6427896 0.076378003 0.39833647 0.27000317 0.31108162 0.44790491 -0.038646284 -0.034784794 -0.39330494 0.063028015 0.25272521 -0.2287605 -0.58430719 0.15991345 0.20789373 0.27105147 0.18308115 0.13331284 0.11384278 0.059895921 0.44456047 0.088617332 0.19420423 0.21860777 -0.02941951 0.11172154 0.13204797 0.013885724 0.48462218 -0.40452665 0.069835253 0.026452964 -0.37224385 -0.36231098 0.19478802 0.13756517 -0.42819178 0.20285991 -0.16980918 0.24471828 -0.56894678 -0.14455701 -0.29025722 0.54868591 -0.58481103 0.34832236 -0.2801162 -1.0709136 0.39303666 -0.12977594 -0.086105138 -0.11675388 -0.53379327 -0.12813398 0.14691669 -0.25246167 0.39606169 -0.20152815 0.10375008 -0.32744059 -0.083635375 0.20780391 -0.15251555 0.15091734 0.35875291 0.016946901 0.41499275 -0.24911135 -0.36299735 -0.66185534 0.24104947 -0.21380833 -0.45187354 -0.35744855 -0.44619125 0.17770159 -0.44049865 -0.2578457 0.18619429 -0.024427569 -0.3459141 0.0049166973 -0.22833072 -0.3689363 -0.41945755 -0.15484035 -0.35291716 0.19434978 -0.25144628 0.08444149 -0.076057605 0.23434831 0.25712305 0.33166775 0.012053898 -0.14072043 -0.031323146 0.44891208 0.077925324 -0.079469152 -0.022812782 -0.1117934 0.36275259 -0.089924857 0.079889119 -0.069421999 0.40521958 0.18445946 -0.33124357 0.77313191 -0.29357019 0.48924458 -0.11831795 -0.20844422 -0.62873298 -0.1514713 0.043332033 -0.20522876 0.19515778 0.19862609 -0.041960187 0.26738951 -0.6582728 -0.11535905 -0.046677317 0.36709732 0.15460239 -0.043681204 0.2260025 -0.26916426 0.066956267 -0.40985277 -0.27013654 0.15488108 0.19143319 -0.45815492 0.032505691 0.34163943 0.51390523 0.069969393 -0.45325413 0.22449647 -0.24960116 -0.069871902 0.064133875 0.46179432 -0.33188084 -0.028240889 -0.074457936 0.59062004 0.12429889 -0.1605892 -0.16938213 -0.50752521 -0.092612907 -0.37874892 -0.046542108 0.16982032 0.15466045 0.48106578 0.65172839 -0.46002829 0.1981187 0.3139872 0.12151428 -0.10425112 0.2503027 0.36547071 0.18791799 -0.31222469 -0.26103976 0.3495107 -0.39572501 0.84907812 -0.12323473 -0.21188632 0.16712303 0.56843001 0.32068014 -0.46639657 0.59251112 0.26290321 -0.08559332 0.24272381 0.22280018 -0.11863175 -0.13628177 0.64009482 0.54863328 0.12454341 0.00045748946 0.19496945 0.02375669 0.2337779 -0.53604263 0.15064196 0.21939361 -0.46926311 0.15015869
CTCC -0.58258957 -0.085945904 0.24991927 0.52375865 -0.24349377 0.3489956 -0.12161422 0.2227888 -0.21953782 -0.47791657 -0.53377271 0.44488618 -0.54724818 -0.23895192 0.13014111 0.1766087 0.10583032 0.31956825 0.20844096 0.11202556 0.20296744 0.32434592 -0.015622283 0.3386682 0.20633265 -0.55543488 0.45723432 -0.1648846 0.50633007 0.30996981 -0.29863349 0.11954199 0.40485111 -0.62096548 -0.11125746 0.48881212 -0.17547004 -0.14961842 0.42638722 -0.29582191 -0.038212243 -0.39341661 0.16904067 -0.37345967 0.75320148 -0.55670208 0.18707827 -0.61465871 -1.0159571 0.23345882 -0.43825391 -0.092340037 -0.4135648 -0.43067837 -0.28133872 -0.032921851 -0.18053211 0.61859918 -0.42169958 0.13802792 -0.26846722 -0.3826755 0.15966189 -0.29117462 0.20889468 0.73325711 -0.42812219 0.12184055 -0.49015564 -0.42888916 -0.71799976 0.54030311 -0.030264044 -0.42718211 -0.46830013 -0.40387669 0.036634441 -0.98477477 -0.29035398 -0.14126638 -0.49572256 -0.6361447 0.18462165 0.075480431 -0.17473768 -0.32103923 0.067325838 -0.12096196 -0.09085054 -0.4326843 -0.20467621 0.087513119 -0.0078188628 0.52187729 0.70213228 0.16555227 -0.51317954 -0.53868985 0.56973624 0.89190829 -0.059388168 0.30397743 -0.38327849 0.28278452 0.27084979 0.066194206 -0.040059365 0.48121789 0.096990384 -0.71746492 1.0289022 -0.41628116 0.85571253 -0.01956898 -0.060165521 -0.59078741 -0.19428819 0.080607601 -0.7170583 -0.23693407 0.74690402 0.055474225 0.16345643 -1.2195096 -0.77530539 0.0055275406 0.5022701 -0.1030065 -0.74106038 -0.080425985 0.033888899 0.30105984 -0.27067959 -0.92095309 0.064696878 0.065999545 -0.3274112 0.48848486 0.41263729 0.43923214 -0.51921362 -0.28047743 -0.054190431 -0.37939534 -0.14398313 0.0014794647 0.02490557 -0.093108699 -0.21504827 0.099672407 0.1105626 0.25210637 -0.0027470693 0.11191846 -0.78746068 -0.086737506 -0.43850544 -0.098757446 0.17212439 0.16390769 -0.4411675 0.41756713 -0.53205013 0.16756791 0.79222888 0.36779824 -0.03162948 0.015136411 -0.43314132 -0.43570745 -0.32423374 0.093046315 0.0085627474 0.0024376179 0.98042315 0.31345025 -0.30983746 0.3326517 0.46727073 -0.026823828 -0.3533442 0.49219471 0.20574845 -0.31521401 0.2198298 -0.2532075 -0.098031208 -0.01246629 1.061054 0.45677677 -0.10279696 0.079596721 0.38788646 0.10973534 0.19058354 -0.56660569 0.30703464 -0.35659012 -0.45174313 0.37660956
CCTC -0.44424796 0.10133401 0.6751917 0.56130242 -0.11311951 0.32177377 -0.20335785 0.25914687 -0.41187146 -0.4937385 -0.36017758 0.24635595 -0.29007542 -0.21929142 0.078555346 0.2364846 0.13157544 0.023170531 0.063333184 -0.0099315699 0.16795765 0.38287756 0.33084744 0.21057293 0.2101458 -0.32687074 0.38150787 -0.035347238 0.27030316 0.5026716 -0.32357946 -0.012982302 0.7711907 -0.5346719 -0.14297393 0.43990353 -0.077599488 -0.14714515 0.31595284 0.036627632 0.068575397 -0.92688662 -0.13956483 -0.11642553 0.87209111 -0.65816259 0.39235196 -0.8626588 -1.3449557 0.26888341 -0.32462743 0.059163731 -0.81652749 -0.70676661 -0.48545778 0.065684751 -0.33797941 0.72976023 -0.088663377 0.36285371 -0.76172614 -0.10476325 0.4025476 -0.43994099 0.87583506 0.48475307 -0.17784433 0.23492385 -0.27714539 -0.39397427 -1.0373336 0.24857371 -0.15003128 -0.25064698 -0.53079849 -0.64537621 -0.33079582 -0.83385295 -0.15346232 -0.26337919 -0.37494898 -0.48785162 0.11307404 -0.27973214 -0.30437335 -0.50371784 -0.050921842 -0.10502386 -0.052969441 -0.096840955 -0.10152551 0.076106735 0.014507873 0.40470877 0.77498555 0.030620243 -0.53264946 -0.37819791 0.37666035 0.80558854 -0.10831493 0.4398506 -0.32995877 0.30740133 0.34095827 0.066292398 -0.086884409 0.43999997 -0.018700315 -0.59038854 0.61372286 -0.22047544 0.5830968 0.052497342 -0.011834291 -0.52063119 -0.40384504 0.25324777 -0.4166795 -0.23636429 0.62792206 -0.27147752 -0.10391425 -1.1066722 -0.50689441 -0.064493261 0.76531261 -0.082957022 -0.40973479 -0.067039229 -0.25629523 0.044617735 -0.26462987 -0.86551577 -0.018905735 -0.1770616 -0.10843235 0.35390973 0.18462215 0.42708087 -0.36572665 -0.40424746 -0.07840158 -0.24569832 -0.23665728 0.037502903 0.15065183 -0.0078013106 -0.32805991 -0.15759563 0.30123842 0.163844 0.058441985 0.12159144 -0.80303746 -0.101511 -0.33790484 0.15154384 -0.16422138 0.22813234 -0.55902421 0.44682437 -0.47972146 0.25833851 0.87798202 0.21318436 -0.20526953 0.1928622 -0.022723235 -0.33096704 -0.21596986 -0.13230968 -0.12548025 -0.12548062 1.0929408 0.40014243 -0.33034575 0.22599094 0.69954336 0.38808662 -0.32918492 0.50457209 0.19852975 -0.12481362 0.21684809 0.056904558 -0.11693996 0.068537198 1.1495132 0.54196441 -0.10971396 -0.065756008 0.40508044 -0.19263609 0.36473751 -0.74172467 0.31024873 -0.17537248 -0.33295 0.49295753
TTCT -0.43351787 -0.35496998 -0.15857551 0.13092965 0.39103538 -0.14386913 0.39687952 -0.40374064 0.17071179 -0.27391171 0.15118136 -0.38224646 -0.18091172 -0.039910894 0.19046038 0.17966472 0.021088691 0.004222116 0.14405029 0.045477044 -0.40796041 0.13731776 0.17010342 -0.18325439 -0.097287104 -0.034818199 -0.15825345 0.10406584 -0.34162444 0.0050264536 -0.082666174 0.21053748 -0.16558854 -0.18750265 -0.20940629 0.017643584 -0.062471658 0.037438806 -0.0022325753 -0.12048414 -0.20374575 0.14555369 -0.29712436 -0.25969321 0.67725843 -0.28930351 -0.066022545 -0.14746697 -0.44302344 0.3203882 -0.0800502 -0.23506671 0.063121296 -0.6017465 0.10784133 -0.18478125 -0.37576345 0.23249869 -0.14389439 0.0058109998 0.29950809 -0.12825406 -0.71378493 -0.21446384 -0.16775347 0.3531816 0.16358951 0.3329863 -0.41316512 0.017397501 0.14782359 0.24875706 -0.11894374 -0.33003742 0.20923048 -0.24676123 0.40044883 0.21926621 0.17146355 0.53925437 0.34007186 0.30024084 -0.14317822 -0.053889792 -0.076793395 -0.36157519 -0.16856942 -0.31411597 0.30939561 0.012741133 0.67784172 -0.37075278 0.64871919 0.23001137 -0.11232623 -0.0027327614 0.59626663 -0.039794695 0.51106614 -0.071925193 0.09603928 -0.2479225 0.43556583 0.19665469 -0.46648061 -0.11799812 0.17021441 0.042515855 0.16534102 0.0052487613 0.33384204 0.012580724 -0.23461768 -0.12438047 -0.17875518 -0.49989879 0.5079667 -0.16823639 0.41236898 0.31926382 -0.32455382 -0.056200776 0.20561944 0.062267952 0.14538899 -0.047999643 0.10497547 0.072629645 -0.17040204 -0.053420119 -0.30232528 -0.13002908 -0.19781961 0.36077642 0.11424062 0.04203368 -0.14978899 -0.13480692 0.10033067 0.4046407 -0.015319357 -0.2024146 0.288156 -0.043816335 -0.15571935 0.1464399 0.11550607 -0.36187872 0.17223735 -0.24566279 0.57901186 -0.04374475 -0.4277941 -0.081589706 -0.62900609 0.030352663 0.14251415 -0.13662587 0.40860766 0.45680931 0.45323619 0.58832997 -0.41684812 0.11835136 -0.383587 -0.04916697 -0.09507484 0.058056697 0.61344552 0.37089139 0.40663549 -0.65750617 0.49104673 -0.55138779 0.78551245 -0.47016215 0.42687944 -0.3929885 -0.13712835 0.48130465 -0.34956348 0.4419995 0.28215757 0.58059949 0.22879422 0.83046144 -0.46930861 -0.16099843 0.15131631 0.69464529 -0.26241496 -0.014194873 0.10846706 0.19652911 -0.17141058 -0.20217155 -0.012220305 0.24110934 -0.18735376 0.32331157
CCCC -0.83125585 0.046234369 0.87419933 0.47992304 -0.30214977 0.29341781 -0.51149708 0.21296799 -0.17296453 -0.29480508 -0.53608894 0.73657167 -0.70434797 -0.22068033 0.17045732 -0.026982255 0.29303259 0.32355553 -0.13062137 -0.10208116 0.61057597 0.54584867 0.14130047 0.18647471 0.38747928 -0.60461408 0.39649597 -0.073119305 0.75453651 0.49029702 -0.69787323 -0.27440929 0.68710071 -0.46954283 -0.30331054 0.54686207 0.23818448 -0.32477728 0.35983667 -0.24735346 0.084312737 -1.1060094 -0.048751429 0.062124237 0.71833825 -0.73224747 0.44444484 -0.50205231 -0.86939603 0.18232636 -0.47655156 0.12281586 -0.60656059 -0.59238893 -0.61297727 0.17023593 0.010162547 0.6754759 -0.2890619 0.49518731 -0.86618948 -0.27039772 0.75362211 -0.17488343 0.45474684 0.59114051 -0.41426507 -0.061981209 -0.30137846 -0.34180766 -1.0594873 0.0043296427 -0.13930725 -0.40183061 -0.78075689 -0.21878166 -0.3115854 -0.96342021 0.1100724 -0.021483187 -0.70590568 -0.5597499 -0.25727171 -0.1356819 -0.49803883 -0.45512027 0.11900289 -0.37965304 -0.28761286 -0.78470945 -0.86651045 0.46200645 -0.3020632 -0.091126524 1.051522 0.17898686 -1.0701613 -0.56334662 0.25042075 0.69052553 0.044306729 0.6415655 -0.62887806 0.12279601 0.62660581 0.1814176 -0.47303993 0.59769452 0.12562452 -0.63881725 0.19168882 -0.41906065 1.1558026 0.046563935 -0.61794198 -0.23063745 -0.82801002 0.45631745 -0.98190743 -0.25755548 0.91441077 -0.374336 -0.32915732 -1.223205 -0.58814412 -0.025268188 0.39821973 -0.11108024 -0.41761211 0.017978076 0.027563907 0.305812 -0.23866715 -1.1310809 -0.14765511 0.21637842 -0.24891038 0.55801082 0.41364089 -0.012873395 -0.68922126 -0.29069895 -0.19263966 0.19070312 -0.074494876 -0.42071822 0.10472252 0.02761309 -0.15981524 -0.19999965 -0.45981053 0.29421455 0.41059849 0.23966891 -0.76357782 -0.40760016 -0.37379164 0.335067 -0.17597705 0.19620995 -0.25014231 0.56648773 -0.3117218 0.26629531 0.99888986 0.19828261 -0.030007243 0.18644015 -0.47289559 -0.60860026 -0.55764318 0.21102853 -0.46693116 0.29346499 0.34957609 0.45128277 -0.70980346 0.38042772 1.0173041 0.13925603 -0.30155829 0.22372849 0.06579826 -0.14613576 0.19389708 0.0054108393 0.0098169465 -0.32402223 1.5730244 0.52765149 0.14634827 -0.27526206 -0.077814877 -0.16884942 0.40042049 -0.84428763 -0.34736675 -0.12786981 -0.24868344 0.47035792
GAGA 0.78436899 -0.16901571 0.5254935 0.25552571 -0.21473138 0.12833975 0.33314303 0.12817636 -0.10415418 0.0087286802 0.44544104 0.090337045 0.46373224 -0.060274214 0.13334066 -0.16177513 0.3157537 0.22065893 -0.023303056 -0.097055443 -0.11197414 -0.028773997 -0.34950593 -0.048163738 -0.10489783 0.20450765 -0.37816802 -0.037310772 -0.062462676 0.022524126 0.012099442 -0.32647797 -0.10210606 0.41229576 -0.042690791 -0.232366 0.2706472 -0.0099087516 0.054299127 -0.056554083 0.24475707 -0.15153483 0.22583891 0.42491165 -0.57222199 0.3507728 0.080299735 0.26803395 0.5469346 -0.065465964 0.50612211 0.26062214 0.36131877 0.37059075 0.32648271 0.068684198 0.19104685 -0.095950082 0.051044453 0.014027984 0.045236405 -0.078138322 0.28496024 -0.19184338 -0.27236831 -0.3466256 0.18157426 -0.37385732 0.682998 0.26065156 0.24108347 -0.32258445 0.12913476 0.20217548 -0.60407966 0.45779151 -0.34585279 0.50679862 0.20272997 -0.084974132 0.014537388 0.038310688 0.24639124 0.14199577 -0.40005645 0.35591957 0.01333857 0.010723895 0.048188176 0.02649267 -0.28585148 0.26374486 -0.0086732004 -0.18987237 -0.34337395 -0.080023073 -0.36528662 0.172969 -0.27299902 -0.10764774 0.20079345 -0.33019289 0.11242786 0.18256734 0.48041713 0.13287106 -0.47316504 0.022154836 -0.17134576 0.10978583 -0.10090743 -0.27400163 0.17312072 0.031026766 -0.033992156 0.49007812 -0.28705242 -0.19054028 -0.54384691 0.25616935 0.22432981 -0.13393852 -0.14885488 0.2620537 -0.047708079 -0.058778737 -0.53707075 0.10633637 0.013564011 -0.010008397 0.17341162 0.19591261 0.1280679 0.36613894 -0.015937719 0.37146828 0.035336979 0.21915177 0.0028357562 -0.30847913 -0.045318034 0.065802671 -0.36645275 0.33019939 0.45889127 -0.030949874 0.27366769 0.53312355 -0.15329872 -0.08412493 -0.54141784 -0.011192404 0.65676641 -0.070658647 0.326895 0.021573165 0.32063603 0.59892076 0.24951111 -0.46093103 0.067482889 -0.47615689 0.13350259 -0.095166728 0.3784554 -0.084362671 -0.18848766 -0.11758143 0.12064968 -0.36883882 0.034874909 0.19708289 -0.53649622 0.47094774 -0.61949217 -0.2068487 -0.11354595 0.69041771 -0.030899422 -0.54047561 0.40624014 0.048398063 0.11398174 0.18335913 -0.053769577 -0.60402954 0.2139751 0.39532238 -0.33323255 -0.80688393 0.31729934 -0.078428067 0.24277647 0.11789175 -0.20142537 0.21070448 0.078843035 -0.26027706 0.40447554 -0.11821844
TCTG -0.57248932 -0.032357372 -0.31329346 0.22710346 0.22432156 -0.14664109 0.33970594 -0.29601437 0.36753428 -0.15949434 -0.36296692 -0.078189969 -0.11578484 0.053862739 0.13641714 0.10025384 0.17560928 0.029115321 0.29800069 -0.063939095 -0.19291082 0.18562597 0.29415998 0.13498057 -0.041045506 -0.085215896 0.051159218 0.17463276 -0.086532749 0.21653575 -0.30380037 -0.15552431 0.10335314 -0.18857056 -0.12916368 -0.010269084 0.22430094 -0.23924729 0.29808944 -0.14323859 -0.001670439 -0.10774078 0.061221741 -0.035640042 0.1574894 -0.22824866 0.096204706 -0.015043651 -0.54860735 0.14077705 -0.067086667 0.095518157 -0.046964325 -0.30113769 0.14532682 -0.032691929 -0.084055588 0.075281091 -0.039019298 -0.23307584 0.10332703 -0.0066917548 -0.048740335 -0.11193842 0.033314358 0.12494604 -0.16802099 0.26325926 -0.10575152 -0.30122048 -0.3149769 0.058413167 0.15377335 -0.29139164 0.081021108 0.090749651 0.021752842 -0.11025726 -0.28421047 0.15701486 0.081044242 0.022502342 0.055855602 -0.19678858 -0.028066788 -0.21598047 0.19824067 -0.197171 0.2205922 -0.24439842 0.24560298 0.014823082 0.040209033 0.17869034 0.22611673 0.13026762 -0.059232149 -0.061435424 0.097716056 0.23421282 -0.010040995 0.16272241 -0.18517828 0.079027645 0.0086642113 0.067667365 -0.094630539 0.088845722 -0.039029304 -0.22630978 0.70136154 -0.10333028 -0.13230121 0.061544009 -0.10929599 -0.23001213 0.11623333 0.35605192 0.19389737 -0.14290853 0.13930868 0.024721313 0.30346319 0.029392447 -0.005043786 -0.13606329 0.27209246 0.11182426 0.11907344 0.16773787 -0.23892204 0.078373179 -0.06837824 -0.072060198 0.14612347 -0.03728063 -0.061213303 -0.044809408 -0.026318669 0.23695491 0.073686086 -0.10765111 0.29708213 -0.12876599 -0.074601188 0.16328514 0.15421408 -0.16533595 -0.0045610028 0.010433934 0.46133509 -0.070017383 -0.1771946 -0.1326566 -0.25352088 0.16132602 -0.30132264 -0.0078922771 -0.10253432 -0.059844803 0.15461096 0.21159948 -0.34701881 -0.12507688 0.11601659 0.29740441 0.051368739 0.027758917 0.076972775 0.17856997 -0.19973788 -0.14817002 0.18179366 -0.075240508 0.33133262 -0.12763365 0.12204161 0.079385556 0.13160662 0.24181779 -0.1002715 0.35451347 0.16842431 -0.085308723 0.13335012 -0.028791469 -0.15749933 0.047649216 0.54288775 0.29075089 0.24385108 0.10852576 0.30492702 -0.090457864 0.39109054 -0.13568822 0.32850796 -0.0099427039 -0.30779451 -0.15210021
TGGG -0.65415663 -0.072318412 -0.0923343 0.078518063 0.21956012 0.20261735 0.3108694 0.45784006 0.065274194 -0.047181763 0.063507773 0.17293447 -0.047511704 -0.43008551 -0.070369996 0.0634344 0.52868605 -0.23700766 -0.063205585 -0.2909998 0.12353512 0.43583506 -0.19760434 0.46485767 0.043081991 -0.34505826 -0.034882322 0.4333944 0.017657038 0.35006538 -0.370148 -0.65054375 -0.46911913 -0.18712316 -0.03051205 0.10165322 0.64737225 0.070430949 0.29601163 -0.12374516 0.13174158 -0.055982653 0.072863385 0.51183069 0.24764355 -0.35448277 0.29176575 0.61914682 -0.39238831 0.081107095 0.37586227 0.56579858 -0.12036821 9.9816629e-05 0.021018993 0.47133642 0.10094217 -0.10244019 -0.24377844 -0.26924497 0.068730086 -0.23925476 0.73362911 -0.32134724 -0.50299728 -0.081166513 -0.080702879 0.050283391 0.27165306 0.011553921 0.13948263 -0.20528254 0.064252116 -0.5782187 -0.039986882 -0.11133772 0.27249584 -0.05252964 -0.31510556 -0.073905937 -0.052351959 -0.4207699 -0.34286258 -0.13154842 -0.54505306 0.12848301 0.30972207 -0.31138739 0.26422536 -0.1619738 -0.73144376 -0.18653852 -0.18570085 -0.098567657 0.51820427 0.017878227 -0.28720334 0.30237362 -0.19084325 0.17442319 -0.13611144 0.0097703105 -0.61872345 -0.27245811 0.4871875 0.10135548 -0.32354781 -0.0017062942 0.28855807 0.010180316 0.073069289 -0.26903546 0.16164382 0.12195209 -0.40584338 -0.010254296 -0.34858263 0.73228908 -0.12969813 -0.14891437 0.65460706 -0.039648876 0.34199476 -0.52993757 -0.27575812 -0.23851728 0.058867276 -0.27013683 0.36458847 0.17734261 -0.34432518 -0.1247239 0.04062362 -0.3950758 0.20487045 0.42387962 -0.13320366 0.20377572 0.34472534 0.31226969 0.24171409 -0.48806375 0.18667918 -0.2241601 0.35501453 -0.33155298 0.096598692 0.27073705 -0.23721865 -0.096195072 -0.28874081 0.25902897 0.2647841 -0.41585672 -0.18479003 -0.3114191 -0.27968997 0.29065502 -0.37641859 -0.4597488 -0.27764872 -0.32308757 -0.3483395 0.0098213162 0.66943419 0.20619394 0.26781052 -0.055966418 -0.34300473 0.0013727208 -0.5479238 0.4718532 -0.67244816 0.65361053 -0.091813244 0.43175352 -0.32055241 0.60506815 0.36887813 0.064701863 0.19747911 0.29713014 -0.27593523 -0.081748821 -0.019138113 -0.57930559 0.13781396 0.14972048 0.63505906 -0.034470443 0.037878085 -0.20664699 0.1524858 -0.19281064 0.46289915 -0.63186526 0.12681493 -0.44806159 -0.11596417 0.025229743
GGAA 0.54664004 0.057243761 0.0090233972 0.050100349 0.027996952 0.047932215 0.37274921 -0.43861127 -0.16302 0.33506551 0.57538241 0.10503297 0.18634199 -0.12898432 0.0028683874 -0.19569521 0.012994886 0.22951664 -0.31939179 -0.11766274 -0.23808695 -0.25918633 -0.14722043 -0.13479821 -0.01254082 0.17376019 -0.28964815 -0.42032507 -0.050654881 -0.066206463 0.22197106 -0.0029383183 -0.25120354 0.46923071 -0.048506409 -0.31095093 -0.042652588 0.24214473 -0.13791594 0.12702198 0.12443147 -0.1764394 -0.16842158 0.17185639 -0.35315695 0.27328402 0.065974854 0.040382724 0.33433798 0.17785445 0.23427469 -0.17009057 0.26026484 0.24336503 0.2288077 -0.17527138 -0.083267778 -0.29831252 0.3860521 0.0024513786 -0.15806194 0.30926654 0.16916372 -0.059319139 0.1330443 -0.33956167 0.45633164 -0.19858688 0.34520188 0.098513342 0.4712632 -0.2430989 0.059281223 0.25280696 -0.22192413 0.291908 -0.27569345 0.2845642 0.07245899 -0.42503402 0.4092789 0.35615605 -0.00260912 0.11062966 -0.11385354 0.34918115 -0.19334179 0.052509848 -0.0015648728 0.38448182 0.15319531 0.37405074 -0.069839522 -0.15201694 0.077900238 0.06640777 -0.16503417 0.17725559 -0.20077434 -0.080128476 -0.20067063 -0.26298916 -0.11976586 0.070474096 0.037007071 0.4251627 -0.22074725 -0.070534676 0.021825192 0.18944001 -0.2037902 -0.17639627 -0.13026589 -0.049731027 0.28420106 0.37310728 0.19184144 -0.51614064 -0.15119767 0.36953634 0.098056987 -0.083198175 0.019843543 0.49343646 -0.028112907 -0.022943206 -0.3623651 0.18133038 -0.091187917 -0.096680559 0.22422762 0.0039222199 0.14001805 0.79566443 0.23359613 0.52539057 0.22225817 -0.080547802 -0.028549934 -0.34484655 0.25999528 0.31896895 -0.16939031 0.23260009 0.1858651 0.16061151 0.23546436 0.12150142 -0.20111433 -0.19405304 -0.35293838 -0.099186279 0.40509081 -0.30921039 0.2596437 0.23770982 0.40217119 0.42553315 0.50250673 -0.35823527 0.058293242 -0.3647753 0.21247022 -0.10514695 -0.06176129 -0.13727747 -0.15083566 -0.13593619 0.24381824 -0.23993459 0.34021798 0.30699718 -0.16216795 0.3057647 -0.18865934 -0.26247638 -0.030158581 0.46000975 -0.038217634 -0.32523835 0.36320052 0.12122319 0.0058644745 0.43625966 0.12701474 -0.55246258 0.099195056 0.19618429 -0.33804727 -0.47987431 0.29614371 0.0019194077 0.2123065 0.0030962562 0.10862543 0.026053835 0.21772639 -0.27878144 0.43235752 -0.21737473
GGCC -0.3218258 0.25543815 0.34686568 0.34520197 -0.26025811 0.13558881 -0.62250674 0.61965179 -0.2852996 0.11779039 -0.1671344 0.5677098 -0.20251146 -0.27152148 -0.038334493 0.018623844 0.34471157 -0.4961513 -0.023775237 -0.35231909 0.88894147 0.33420542 0.024449071 0.78810805 0.42739171 -0.36309442 0.30466765 -0.21364658 0.67079896 0.23538424 -0.7137866 -0.4631449 0.27558926 -0.096533597 0.015025623 0.46950108 0.12562275 -0.20867136 0.60073692 -0.17475151 0.42098102 -0.83909136 0.048966311 0.23436631 0.039451987 -0.1447922 0.50068426 -0.0087384898 -0.47500885 0.1011181 0.33948401 0.33546743 -0.55348617 -0.035928342 -0.78681082 0.16645579 -0.0087880101 0.35068706 0.088730738 0.34624022 -0.37477431 -0.26223153 0.89198393 -0.14957216 0.34438264 -0.040425725 -0.24864714 -0.16403814 0.34679043 -0.059476536 -0.82760894 -0.48074856 -0.033463649 -0.45274711 -0.37259993 -0.18264012 -0.34797597 -0.90525663 0.075355038 -0.69774252 -0.50873536 -0.6916939 0.013193764 0.085365966 -0.54190105 -0.16987646 0.4765186 -0.047412209 -0.36812028 -0.5212146 -0.90823865 0.58451974 -0.77359647 -0.37715086 1.3693075 0.16998872 -0.92704284 0.073747478 -0.38129115 0.31548429 0.028497625 0.45798665 -0.80665505 -0.015797103 0.42283073 -0.0957435 -0.35581055 0.28347144 0.16989329 -0.73316282 0.57548118 -0.31705138 0.73581696 0.32008716 -0.70930928 0.086234838 -0.67916453 0.52227962 -0.66688287 -0.38179985 1.0201511 -0.36506385 -0.55932325 -1.0230948 -0.63121927 -0.15885901 0.081106678 -0.17383672 -0.12926801 0.11479501 0.10930815 0.064700276 -0.051338587 -0.76334763 -0.13011159 0.8477357 -0.17308278 0.53524274 0.24682301 -0.01030228 -0.410777 0.1416126 -0.44325328 0.13383614 0.38892955 -0.51285309 0.29855755 0.41047516 0.028924232 -0.56271458 -0.77651864 0.19609316 0.24355349 -0.1062002 -0.54453313 -0.36275747 -0.10309444 0.20589527 0.0070401956 -0.33606803 -0.60351092 -0.10029841 0.062044218 -0.040015902 1.4361494 0.53426087 -0.13972551 -0.11560845 -0.53532976 -0.76887214 -0.50053495 1.1948397 -0.42998901 0.87497777 0.34794363 0.64461505 -0.57886374 0.77609628 0.36013353 0.20499374 -0.14729702 0.17630348 0.32914168 -0.097022459 -0.089505121 -0.25728062 -0.034733821 -0.040765159 1.0728457 0.18545261 0.0077637285 -0.35753882 0.17786683 -0.054882016 0.2922543 -0.27148965 -0.19042984 -0.14975859 -0.048438665 0.18253422
AGCA 0.039361384 0.10716847 0.31145418 0.13830081 -0.0024480093 -0.094581902 0.12103175 -0.11634098 -0.049118608 0.12910677 -0.19582178 -0.16056159 -0.14269415 0.30399001 0.0021219789 -0.25924039 0.15721983 -0.057682436 0.40532365 0.044190574 0.17347416 0.12567572 0.23461415 0.35513347 0.18633065 -0.26723641 0.032321509 -0.20129159 0.030474763 0.38724744 -0.10141233 0.14153053 -0.23288029 -0.2737706 0.086987928 -0.12723447 0.19641839 -0.10285547 0.051752411 0.049108021 -0.37988162 0.063108571 0.12417918 0.23630737 -0.11308296 -0.33134788 -0.47760516 0.26745495 0.5777511 -0.10913745 0.054909099 0.48152608 0.074858494 0.076701224 -0.13232471 0.52521932 0.13276902 -0.40162694 0.010721226 0.13146299 -0.28519577 0.40420631 0.34457418 -0.20101453 0.13780174 0.092381738 -0.44000721 -0.14576444 0.29382479 0.19882664 0.050655618 0.17770615 0.23018201 -0.094038464 -0.15017626 0.041345604 -0.21358797 -0.30625454 -0.18849462 -0.26943809 -0.46305379 -0.17925671 -0.045814045 -0.10669303 -0.12181398 0.09650553 -0.05426937 -0.32006067 0.16035601 0.096535116 0.072175443 0.17222269 0.20838927 0.64211547 -1.2121173 0.063899957 -0.091994531 -0.45409316 -0.12005312 0.067777142 -0.17642429 -0.13680995 -0.28627166 -0.31878889 0.16469474 -0.06838119 -0.10972971 -0.089364409 0.065910667 0.19330521 -0.4445647 -0.10033262 0.28330985 -0.14640582 -0.12551017 0.26419723 -0.17753004 -0.11754685 -0.31838739 0.11754934 0.31574246 -0.098082691 -0.17196997 -0.32760486 -0.013846361 -0.12367564 -0.37426016 -0.12566386 0.28438368 -0.1523006 0.01472233 0.15177856 -0.1051838 0.260793 -0.056262821 -0.14106654 -0.27258676 0.2340551 0.18380119 -0.031194519 0.22969924 0.18076181 -0.03414702 0.049107317 0.1030304 -0.09604042 -0.022397678 0.12193271 0.36675227 0.013634197 -0.12323173 -0.08060167 -0.039033305 -0.28256592 0.1575733 0.23167689 -0.086048596 0.13287358 0.40387669 -0.2208548 0.094590805 -0.37002963 -0.11794207 0.059155039 0.14932285 -0.18447533 0.3328487 0.23912831 -0.075880922 -0.343299 -0.3009406 0.23718092 -0.73793101 0.33253905 -0.22536644 0.2747497 -0.5346337 0.35739037 0.36916217 0.036521729 0.24935788 0.12058149 -0.35747421 -0.3125546 -0.35769778 -0.41168651 0.15693548 0.43097544 0.54505581 -0.21823317 0.38157716 0.064599961 -0.033321504 0.025328176 0.22917132 0.22138643 -0.085502684 -0.24750429 -0.13993466 -0.13737501
CTTT -0.47738138 -0.35747367 -0.24264522 0.19664605 0.39293516 -0.32137066 0.6766516 -0.5029673 -0.047383294 -0.062292229 0.38866913 -0.25749585 -0.040219989 -0.126755 0.042817738 0.077751689 -0.023155522 0.05468766 -0.15555204 0.096638247 -0.61887532 -0.037071168 -0.086869039 -0.26115641 -0.10079359 0.2532413 -0.28458044 0.19052424 -0.54020959 -0.30851954 -0.0059438641 0.09131217 -0.18699166 -0.21285762 -0.31557435 -0.2271554 -0.23562573 -0.087859176 -0.046764698 0.12762706 -0.049299572 0.27050847 -0.057648804 -0.36196324 0.68569243 -0.35158151 9.9929661e-05 -0.053166643 -0.29046357 0.48103872 0.11451966 -0.12828745 0.29101664 -0.29945096 0.29591793 -0.25643528 -0.55084485 0.11982963 -0.14349882 0.062412277 0.64337748 -0.47135496 -0.67167199 -0.28846383 -0.29437724 0.18133377 0.39524278 0.17338291 -0.15209828 0.00486281 0.19126186 0.44850096 -0.016558276 -0.16511244 0.11043104 -0.23436917 0.61816621 0.29317409 0.044088151 0.4618817 0.47213978 0.34437001 -0.20265137 0.18261527 0.11283851 0.049980897 -0.12263089 -0.61898857 0.25131446 0.096175663 0.7423563 -0.42399904 0.76142335 0.21687861 -0.18006645 0.26203498 0.79544336 -0.16546589 0.35258627 -0.0051153684 -0.24902107 -0.33953443 0.48792082 0.11437352 -0.35787934 0.087066017 0.20678601 -0.20088467 0.087384537 -0.18650363 0.16849229 0.13260294 -0.20158392 -0.33379775 0.30722395 -0.15690561 0.45453504 0.32777181 0.57041103 0.10494537 -0.63074166 0.092101879 0.39973727 0.45984283 0.49267301 0.10684331 0.18661688 0.13467957 -0.042816989 -0.054601099 -0.44419622 -0.25865871 -0.074612193 0.26845104 -0.10066729 -0.1483562 -0.027057378 -0.31421447 0.10463924 0.21206781 0.23846564 -0.081012525 0.41673636 0.17311469 -0.13193639 0.24639235 0.20977235 -0.25440082 0.14279267 -0.10893326 0.50316513 -0.032438152 -0.40180624 -0.038446821 -0.48700449 0.091270879 0.064045966 0.078546412 0.43311667 0.40751129 0.5082491 0.51563668 -0.1869877 -0.12007891 -0.26267123 0.17032392 -0.20847681 0.11252813 0.60417092 0.36360514 0.46172008 -0.72696489 0.65004146 -0.60625029 0.50129843 -0.70683777 0.54918516 -0.2840021 -0.16060856 0.41516408 -0.23991278 0.42733109 0.49352893 0.61333603 0.090038225 0.82257557 -0.36191219 -0.39692777 -0.49005035 0.62283599 -0.17919351 0.04372932 0.23883341 0.068322167 -0.20294401 -0.16242775 0.077760406 0.46068978 -0.45267719 -0.03968852
TGCT -0.30518651 -0.23352951 -0.30945572 0.13840355 0.17810161 -0.19262913 0.31033283 -0.31597081 0.036714233 -0.013699973 0.088686079 -0.34786952 -0.072815046 -0.035285477 -0.21251234 0.10381053 0.16112578 -0.51894623 0.26576209 0.12493056 -0.11591559 0.095344834 0.020173095 0.043807238 -0.02491064 -0.25412807 -0.2003884 0.30535293 -0.31843483 0.38243687 -0.11176913 0.036037691 -0.094105594 -0.063593656 -0.28245041 0.0062881797 0.14937253 -0.26796386 -0.15534846 -0.056073219 -0.23653553 -0.063506201 -0.15035886 -0.043459442 0.28990915 -0.20494428 -0.097736903 0.21551943 0.1059497 0.18595995 0.18247625 0.20104443 -0.25678739 -0.010458897 -0.28221998 0.36705676 -0.21549216 0.1565339 -0.20719792 0.23357189 0.010243576 -0.13129619 0.20113184 -0.19548988 0.14139782 -0.096812807 -0.12302078 0.10422814 0.062016338 -0.080733858 -0.39025608 0.05825514 -0.14181536 -0.27320579 0.055703823 -0.240815 0.073099628 -0.32164112 -0.20917891 0.060143579 -0.18560416 -0.052027781 0.010525428 -0.20903517 -0.13691984 -0.22813365 0.03246228 -0.14925297 -0.028361082 -0.088541463 -0.073170222 0.12581131 -0.10200211 0.1217366 0.26754308 0.10350113 -0.088820487 -0.16172287 0.18337695 0.091514125 -0.034324292 -0.07861536 -0.20847173 -0.4150078 -0.17793657 0.075269081 -0.042786926 0.034840483 0.13946599 -0.19327638 -0.011711 -0.19191624 0.095829383 0.10831007 -0.32479164 0.081555419 -0.092322007 0.53677976 0.39943185 -0.020516232 -0.072364174 -0.26022622 0.12460083 -0.23781347 0.045031026 -0.19460538 0.16100794 -0.043112218 0.17429058 0.21423225 -0.37002221 -0.33567193 -0.1648941 -0.26077837 -0.11007874 -0.16324195 -0.1240604 0.19483908 -0.013646404 0.071316868 0.29455727 -0.41847304 0.40591198 -0.090667881 0.10072184 -0.24232544 -0.036291942 -0.16413392 0.33468217 -0.32380959 0.074743927 0.23370354 -0.13527334 -0.35150641 0.080496572 0.067421876 -0.06099936 0.14517589 0.066001959 0.15391982 0.37242973 0.43765104 -0.10117626 0.13865754 0.23863618 0.069873288 0.069547355 0.039064474 0.1199856 0.10451909 -0.34726235 0.21633703 -0.07918632 -0.19014122 0.46619555 0.10944489 -0.27145466 0.56604022 0.35596585 0.53508818 -0.25448871 0.096472338 0.21834616 -0.06416212 -0.207902 0.37345436 0.010847695 -0.16570775 0.19699785 0.30927175 -0.02429924 -0.031364948 -0.039801825 -0.15755349 0.21046129 -0.093391091 -0.086403653 0.15317143 -0.13870052 0.088187329
GCCC -0.60785598 0.451877 0.58039248 0.26220098 -0.37192795 0.089581706 -0.54167193 0.10123569 -0.039456539 0.067520067 -0.17871621 0.90706718 -0.48134342 -0.28182271 0.21397139 0.2125681 0.45940158 -0.039181225 0.23211531 -0.14760774 1.0625558 0.46923596 0.15368561 0.70606577 0.27541876 -0.67816949 0.35846874 -0.27304333 0.75029087 0.53578931 -0.51521635 -0.43349478 0.36661321 -0.36674157 -0.087188154 0.80167854 0.30075786 -0.45190731 0.42887399 -0.36814266 0.32182756 -0.91388202 0.29133254 0.1700078 0.50753367 -0.098834559 0.25944036 -0.17902903 -0.59250844 0.1108779 -0.070229299 -0.00077249826 -0.68010724 -0.42196178 -0.54802686 0.35566872 0.26629511 0.66571504 -0.1571568 0.39633998 -0.71674079 -0.41650468 0.76630175 -0.12593326 0.073680282 0.57747233 -0.29215941 0.15498526 -0.060455475 -0.29630348 -0.89243382 -0.22237939 -0.18557741 -0.4820306 -0.57843852 -0.083748132 -0.17519017 -1.1218121 -0.060256369 -0.21936001 -0.40222204 -0.72895932 -0.038303934 -0.080823027 -0.6682806 -0.39704147 0.3239435 -0.37913349 -0.12036277 -0.2888881 -0.6298874 0.81696445 -0.49454135 -0.40873191 1.2355841 0.28818464 -0.91459024 -0.31099105 -0.1771102 0.50035852 0.28113845 0.50931561 -0.3574802 0.23364694 0.32639566 -0.19579172 -0.63456005 0.46273917 0.12747011 -0.76276797 0.45079282 -0.34176937 0.9593488 0.13633865 -0.52327442 -0.1540038 -0.66164327 0.22568415 -0.85072428 -0.27617595 1.1526208 -0.15346509 -0.63191092 -1.2635876 -0.53047961 -0.076095402 -0.031954929 -0.026743833 -0.38678253 0.11472243 0.12802322 0.23208475 -0.20805414 -1.060006 -0.10314348 0.42328569 0.13896869 0.56095624 0.36326951 0.0055365381 -0.25272572 0.11228268 -0.51733387 0.0042242273 0.19658603 -0.29104689 0.17275602 0.31903625 -0.062279392 -0.35195497 -0.6273458 0.18188013 0.29735523 0.05338591 -0.72077066 -0.31479013 -0.30154371 0.10019989 -0.23991153 0.23310021 -0.59232724 0.2960147 -0.06022419 -0.083874643 1.3130903 0.36280718 0.024868645 -0.032061048 -0.72096658 -0.65512288 -0.71016634 0.6748907 -0.30409446 0.433294 0.14973171 0.76176673 -0.79793376 0.63761383 0.38214061 -0.0081354519 -0.031455189 -0.26255038 0.32334653 -0.26173764 0.1932186 -0.28169063 0.014504746 -0.24590693 1.5539008 0.21830879 0.17075732 -0.39048126 0.085268393 -0.14412819 0.12045055 -0.45407712 -0.20244862 -0.36418271 0.10404825 0.56265849
GCCA -0.26806587 0.012105631 0.059231024 0.19432624 -0.27502346 0.051937647 -0.27690354 -0.082646303 0.1495824 -0.0027895602 -0.21159256 0.43704432 -0.12455735 -0.026865751 0.16102293 0.11702123 0.21984939 -0.068171039 0.36773732 -0.2601456 0.47748044 0.22239913 0.20635656 0.19362526 0.014138363 -0.30548227 0.12092684 -0.12252811 0.25847417 0.37562412 -0.33858377 -0.24528569 0.20869872 0.06703496 -0.13322502 0.13017182 0.35545537 -0.22983716 0.11599623 -0.29434586 0.062350832 -0.64917332 0.0667625 0.27322823 -0.073730238 0.068163559 0.047846783 0.097644076 -0.20570008 -0.10726604 0.13568477 0.18487418 -0.26150846 -0.084721342 -0.20239632 0.15601134 0.38945788 0.23441941 0.12295268 0.17146151 -0.52594042 0.014548224 0.28933889 0.037905984 -0.085694656 0.14206244 -0.29651192 -0.072744273 0.33958516 -0.19471651 -0.74916047 -0.41289562 -0.046141963 -0.19956914 -0.34158969 0.077684127 -0.34112412 -0.31544346 0.128131 -0.020857546 -0.30300075 -0.17005606 0.10660597 -0.015563096 -0.39499804 -0.21034491 -0.033236153 -0.1433211 -0.11175032 -0.36024618 -0.40531969 0.58570176 -0.2403468 -0.27341601 0.3669011 0.0024697105 -0.72249913 -0.017707311 -0.20407215 0.037139211 0.50864017 0.27051705 -0.35088909 0.046375066 0.077154346 0.011431034 -0.34229448 0.24484217 0.023247596 -0.31596079 0.28508446 -0.2414501 0.34197947 0.21857944 -0.69244945 -0.18100947 -0.36428216 -0.18407033 -0.48717454 -0.074714243 0.67041641 -0.24627121 -0.39937115 -0.44507477 -0.29038057 -0.075960666 -0.20604689 0.14828238 -0.019184144 0.15160862 0.11075356 0.11881348 -0.20704181 -0.42847589 0.13383214 0.49217516 0.10518701 0.53561658 0.0059943502 -0.037043165 -0.048016913 0.30263469 -0.35384297 -0.020450093 0.14429618 -0.30877116 0.36915931 0.1163765 0.057577223 -0.21785203 -0.11959973 0.083402477 0.087715946 0.076766014 0.06533321 0.02652175 -0.1052275 0.17307718 -0.029158773 -0.1640497 -0.012033996 -0.023654122 0.11814982 -0.080251433 0.37266827 -0.088124894 -0.13047557 -0.13550155 -0.027267594 -0.25146466 -0.16035432 0.35014334 -0.26702872 0.50462914 -0.064812183 0.21927245 -0.5827949 0.38891715 0.11326758 -0.1701725 0.17771854 -0.30390871 -0.0361595 -0.40971118 -0.23142751 -0.33221853 0.0550129 0.1680381 0.91996819 0.03489906 0.31141955 -0.25413597 -0.056120165 -0.22295977 0.40800741 -0.2153787 0.08969909 -0.17534417 -0.068798475 -0.10012482
